/*
 * author : shtsno24
 * Date : 2019-10-30 10:38:44.439207
 *
 */
#pragma once
#include <stdint.h>

const uint16_t shape_Conv2D_1_w[] = {8, 16, 3, 3};
const float Conv2D_1_w[8][16][3][3] =
{{{{-0.16249223053455352783, -0.02467977255582809448, -0.01039719022810459137},
{-0.01842191070318222046, 0.08931387215852737427, 0.08216766268014907837},
{-0.05941765755414962769, -0.03980845585465431213, 0.09193337708711624146}},

{{0.03597757965326309204, 0.04991808906197547913, -0.05074288323521614075},
{-0.16504804790019989014, -0.08805055916309356689, 0.05091346427798271179},
{-0.07715710997581481934, 0.04901231080293655396, -0.16207525134086608887}},

{{0.02024358697235584259, -0.06791250407695770264, -0.03969527035951614380},
{0.00843851640820503235, -0.12861657142639160156, -0.03060642816126346588},
{0.15176771581172943115, -0.16624277830123901367, -0.02992143295705318451}},

{{0.05156527832150459290, 0.08700345456600189209, -0.01088028494268655777},
{-0.16146150231361389160, -0.13566286861896514893, -0.16443935036659240723},
{0.01621960103511810303, 0.13927713036537170410, 0.00676932698115706444}},

{{0.14858900010585784912, 0.02900591678917407990, 0.13708858191967010498},
{0.07654397189617156982, 0.03276234865188598633, 0.05163831636309623718},
{0.16350822150707244873, -0.06648410856723785400, 0.10286989063024520874}},

{{0.01918700709939002991, 0.09766029566526412964, 0.09907823801040649414},
{0.03268760070204734802, -0.08922413736581802368, -0.04679329693317413330},
{0.12493444979190826416, -0.13960288465023040771, 0.01619914732873439789}},

{{-0.07216441631317138672, -0.05322358012199401855, -0.16083399951457977295},
{0.00993171241134405136, -0.03076531551778316498, -0.12490162253379821777},
{0.14059929549694061279, -0.16619831323623657227, -0.14652253687381744385}},

{{-0.06431764364242553711, 0.04632728174328804016, -0.06726930290460586548},
{-0.05915801972150802612, 0.08423418551683425903, -0.16315171122550964355},
{0.08045861870050430298, 0.01351088751107454300, -0.04349518194794654846}},

{{-0.06404476612806320190, -0.14518085122108459473, 0.14677026867866516113},
{0.09857892990112304688, -0.14766152203083038330, 0.13382104039192199707},
{-0.11906113475561141968, -0.07020898908376693726, -0.13748851418495178223}},

{{0.07816360890865325928, 0.13459393382072448730, 0.06906332820653915405},
{0.04350385442376136780, 0.12601532042026519775, -0.15299491584300994873},
{-0.13280946016311645508, 0.16239416599273681641, -0.15817539393901824951}},

{{-0.15499310195446014404, -0.01065066270530223846, -0.14549392461776733398},
{0.14130304753780364990, 0.07729437202215194702, 0.15886640548706054688},
{0.13594497740268707275, -0.02029247768223285675, 0.13205781579017639160}},

{{0.11538569629192352295, -0.04696857929229736328, -0.13186559081077575684},
{0.08845636248588562012, 0.02028433233499526978, 0.14900469779968261719},
{-0.10121360421180725098, -0.00613588606938719749, 0.00621523289009928703}},

{{-0.12281770259141921997, 0.16136069595813751221, 0.02812766470015048981},
{0.09053178876638412476, 0.03252581134438514709, 0.13408154249191284180},
{-0.10739593952894210815, -0.06842306256294250488, -0.01704689487814903259}},

{{-0.08133725076913833618, -0.10258015990257263184, -0.05325494706630706787},
{0.05113269388675689697, -0.15162099897861480713, -0.04712313413619995117},
{-0.14730878174304962158, 0.13241936266422271729, -0.03413169085979461670}},

{{-0.12807302176952362061, -0.04782148450613021851, -0.04870250076055526733},
{0.06840078532695770264, -0.13759572803974151611, -0.12309335917234420776},
{-0.15191791951656341553, 0.06260926276445388794, 0.06584453582763671875}},

{{0.06151115894317626953, -0.10606813430786132812, 0.09720303118228912354},
{-0.01204622257500886917, 0.00674111628904938698, -0.02309190481901168823},
{-0.16021415591239929199, -0.02525992318987846375, 0.05785934627056121826}}},

{{{0.13580083847045898438, 0.09353601187467575073, 0.13352344930171966553},
{0.02649674005806446075, -0.04647871851921081543, 0.01670942455530166626},
{-0.06388146430253982544, -0.02866098843514919281, 0.02429154329001903534}},

{{-0.15096984803676605225, -0.13756451010704040527, -0.15175060927867889404},
{-0.09993913024663925171, 0.11200145632028579712, -0.01210437808185815811},
{-0.14738512039184570312, 0.08051426708698272705, -0.03467651084065437317}},

{{-0.03748662769794464111, 0.00569495372474193573, 0.12668301165103912354},
{0.07828067988157272339, -0.07965014874935150146, -0.12366177886724472046},
{0.07241783291101455688, -0.14133861660957336426, 0.00164845259860157967}},

{{0.14290167391300201416, -0.07933648675680160522, -0.06563465297222137451},
{0.01140174735337495804, -0.05329055711627006531, 0.02733138017356395721},
{-0.06864802539348602295, -0.14740616083145141602, 0.08429788798093795776}},

{{-0.09275955706834793091, 0.01400084607303142548, -0.03261652961373329163},
{0.14702555537223815918, -0.07673031836748123169, 0.00689503876492381096},
{-0.08080287277698516846, -0.09470548480749130249, -0.07623808085918426514}},

{{0.00389400194399058819, -0.14354327321052551270, -0.03485072776675224304},
{0.08263571560382843018, 0.00640128180384635925, -0.08470679074525833130},
{-0.01723031885921955109, 0.05758851394057273865, 0.04024299234151840210}},

{{0.15252900123596191406, -0.12993808090686798096, -0.00047834147699177265},
{0.08608024567365646362, 0.07467626035213470459, 0.15749652683734893799},
{0.05468759313225746155, 0.06142694130539894104, 0.01676646992564201355}},

{{0.05858204141259193420, 0.10820195078849792480, -0.13821634650230407715},
{0.01885112188756465912, 0.04301242157816886902, 0.00315517629496753216},
{-0.07245837897062301636, 0.14768844842910766602, 0.15044029057025909424}},

{{-0.01953634805977344513, -0.06938448548316955566, -0.16500775516033172607},
{-0.09819029271602630615, -0.12040740251541137695, 0.09047465026378631592},
{0.15430182218551635742, 0.13481180369853973389, 0.11718310415744781494}},

{{-0.00200454238802194595, 0.14188611507415771484, 0.13566824793815612793},
{-0.15915957093238830566, 0.14249703288078308105, 0.00304358219727873802},
{-0.15763677656650543213, -0.12806543707847595215, 0.09252627938985824585}},

{{0.02268022857606410980, 0.13311091065406799316, -0.00520636467263102531},
{-0.14159066975116729736, -0.14938925206661224365, 0.14647571742534637451},
{0.00477111060172319412, -0.16801881790161132812, -0.06035895273089408875}},

{{0.15044668316841125488, -0.08358176052570343018, 0.04642294719815254211},
{-0.00628286227583885193, -0.06493201851844787598, -0.10822475701570510864},
{0.00332553451880812645, 0.15817891061305999756, 0.14613462984561920166}},

{{-0.00240621110424399376, 0.04124753549695014954, 0.11827003210783004761},
{0.02845472469925880432, 0.01964938268065452576, 0.02876353077590465546},
{-0.12351796776056289673, -0.12137918919324874878, 0.03834560886025428772}},

{{0.08975040167570114136, 0.02432859130203723907, 0.14331722259521484375},
{0.10832016170024871826, 0.03518784046173095703, 0.14556489884853363037},
{0.12065386027097702026, -0.05747003853321075439, -0.07117103785276412964}},

{{-0.13938239216804504395, -0.08905401080846786499, -0.12059055268764495850},
{0.03752473741769790649, -0.05108160898089408875, -0.01263015717267990112},
{0.11050903052091598511, -0.10049553960561752319, 0.09098592400550842285}},

{{-0.03174214065074920654, 0.06463710963726043701, 0.13766081631183624268},
{0.02554360404610633850, 0.14374269545078277588, -0.06402822583913803101},
{-0.07462692260742187500, -0.11024975776672363281, 0.11762468516826629639}}},

{{{-0.11734232306480407715, -0.00391024770215153694, -0.08634800463914871216},
{0.03343231230974197388, -0.15197792649269104004, 0.01672444306313991547},
{0.12067791074514389038, -0.02049101516604423523, -0.07564929127693176270}},

{{-0.12855461239814758301, 0.11234591901302337646, 0.09906750917434692383},
{0.06174690276384353638, 0.09138013422489166260, -0.05901613458991050720},
{-0.01430669706314802170, -0.10559330135583877563, 0.05966184660792350769}},

{{-0.05955299362540245056, 0.05192756280303001404, 0.15554061532020568848},
{0.14197483658790588379, 0.08163313567638397217, -0.15769623219966888428},
{-0.02311437390744686127, -0.06527055054903030396, -0.05919338390231132507}},

{{0.07132349908351898193, 0.16535282135009765625, 0.06515145301818847656},
{-0.12338709831237792969, 0.06070624664425849915, -0.15847581624984741211},
{-0.14077009260654449463, -0.00719421124085783958, -0.01773512735962867737}},

{{-0.07604498416185379028, 0.06522013992071151733, 0.00488039990887045860},
{0.02365484088659286499, 0.02012543939054012299, 0.11566070467233657837},
{-0.11345882713794708252, 0.16749915480613708496, -0.14510212838649749756}},

{{0.09990088641643524170, -0.11870784312486648560, 0.05108510702848434448},
{0.14509719610214233398, -0.07115726172924041748, -0.07202128320932388306},
{-0.11551504582166671753, 0.05675363540649414062, -0.07667670398950576782}},

{{-0.09387565404176712036, -0.10783343762159347534, -0.12292464822530746460},
{-0.02586102299392223358, 0.09540136903524398804, 0.14724218845367431641},
{-0.13166992366313934326, 0.03014524281024932861, -0.11069846153259277344}},

{{0.09763219952583312988, -0.06319988518953323364, 0.00809081550687551498},
{0.12858951091766357422, 0.01258284226059913635, -0.05512373894453048706},
{-0.05649695917963981628, 0.15704013407230377197, -0.12730440497398376465}},

{{0.07177890837192535400, 0.08898463100194931030, 0.09959000349044799805},
{-0.09179843217134475708, -0.13067713379859924316, 0.11204165965318679810},
{-0.13651944696903228760, -0.03502612560987472534, -0.01660852320492267609}},

{{0.04382919520139694214, -0.08576560020446777344, -0.02253853715956211090},
{-0.02060136385262012482, 0.16133822500705718994, -0.02654370665550231934},
{0.10079082101583480835, -0.08280330151319503784, -0.01033702772110700607}},

{{-0.15683431923389434814, 0.06964280456304550171, 0.02488288842141628265},
{-0.14783859252929687500, 0.13200923800468444824, -0.14298929274082183838},
{0.03781841322779655457, -0.03824388980865478516, 0.05742800608277320862}},

{{-0.00758451549336314201, -0.02168228104710578918, -0.10470571368932723999},
{0.03519712761044502258, -0.03855989873409271240, -0.00143696740269660950},
{0.13037799298763275146, -0.01151438243687152863, 0.02745049633085727692}},

{{0.15911318361759185791, 0.03757354244589805603, -0.01078102458268404007},
{-0.05938245356082916260, -0.08942015469074249268, -0.07097871601581573486},
{0.10709133744239807129, 0.14258949458599090576, 0.03621740266680717468}},

{{-0.13285893201828002930, 0.00514717120677232742, 0.11233562976121902466},
{-0.08589951694011688232, 0.05656068399548530579, -0.14529480040073394775},
{-0.00510784052312374115, 0.12527474761009216309, -0.04984785616397857666}},

{{-0.09477883577346801758, 0.09898867458105087280, 0.05577802285552024841},
{0.12694963812828063965, -0.06909875571727752686, -0.01881052926182746887},
{-0.16254320740699768066, -0.02566011250019073486, 0.07459767162799835205}},

{{-0.13213849067687988281, -0.04718303680419921875, 0.13404305279254913330},
{-0.09460949897766113281, 0.02491668239235877991, -0.07932432740926742554},
{0.07951183617115020752, 0.09971992671489715576, -0.11844702810049057007}}},

{{{0.05687485635280609131, -0.02136019431054592133, 0.14827266335487365723},
{-0.13651086390018463135, -0.12813062965869903564, 0.08673066645860671997},
{-0.02446606941521167755, -0.02204569429159164429, 0.07896766066551208496}},

{{0.01174403913319110870, 0.00505956541746854782, 0.04851398617029190063},
{0.03789051249623298645, 0.15634542703628540039, -0.13615649938583374023},
{-0.09041001647710800171, -0.06284959614276885986, -0.05636587738990783691}},

{{-0.01520411577075719833, 0.02487390115857124329, 0.05983135476708412170},
{0.11698666960000991821, 0.13912366330623626709, 0.00344375870190560818},
{-0.14976587891578674316, -0.06731694191694259644, 0.07401493936777114868}},

{{-0.06623044610023498535, 0.05668964982032775879, 0.15969271957874298096},
{-0.14967495203018188477, 0.04749083518981933594, 0.16725718975067138672},
{-0.04472483694553375244, -0.11412291973829269409, 0.08775226026773452759}},

{{0.00887420773506164551, 0.05690895766019821167, -0.10141313076019287109},
{0.05613595247268676758, -0.15983015298843383789, 0.14409628510475158691},
{0.05776946619153022766, -0.12465773522853851318, 0.16066525876522064209}},

{{0.00278071546927094460, -0.00590061768889427185, -0.10256831347942352295},
{0.13115136325359344482, -0.03409205004572868347, -0.12519887089729309082},
{0.09455754607915878296, -0.00925847049802541733, 0.14988191425800323486}},

{{0.12636706233024597168, 0.15851673483848571777, -0.13978029787540435791},
{0.15720441937446594238, -0.12539936602115631104, -0.03887909278273582458},
{0.14881005883216857910, 0.07823053747415542603, 0.05695677921175956726}},

{{0.09483318030834197998, -0.09437856078147888184, -0.16356270015239715576},
{-0.01396624650806188583, 0.09882570803165435791, 0.01990714110434055328},
{-0.07619728147983551025, 0.14593710005283355713, -0.16121487319469451904}},

{{0.16025474667549133301, -0.07223556190729141235, 0.16466729342937469482},
{0.04434043914079666138, 0.09289912879467010498, -0.05238762125372886658},
{0.13391318917274475098, 0.08059220016002655029, -0.07482021301984786987}},

{{0.10774094611406326294, -0.10495138913393020630, -0.05409017205238342285},
{-0.11553351581096649170, -0.14572797715663909912, -0.10595398396253585815},
{-0.08714265376329421997, -0.04262682795524597168, 0.06741447746753692627}},

{{-0.11266119778156280518, 0.08092039823532104492, 0.10763561725616455078},
{0.05546511337161064148, 0.14908888936042785645, 0.12672841548919677734},
{-0.15692506730556488037, 0.15066844224929809570, -0.16101561486721038818}},

{{0.00506821786984801292, 0.15106093883514404297, 0.15232701599597930908},
{0.10221649706363677979, -0.05449738353490829468, 0.13313484191894531250},
{-0.04946409910917282104, -0.05232048034667968750, -0.07430518418550491333}},

{{0.02047709748148918152, -0.01570576615631580353, 0.10431092977523803711},
{-0.02811188064515590668, 0.14438647031784057617, 0.12344321608543395996},
{0.12957747280597686768, -0.09219046682119369507, -0.01885168440639972687}},

{{-0.01012646034359931946, 0.13813221454620361328, -0.11248480528593063354},
{-0.01251764036715030670, 0.08159784227609634399, -0.08104290068149566650},
{-0.14695376157760620117, -0.06711554527282714844, -0.12782782316207885742}},

{{0.16494883596897125244, 0.01970008201897144318, 0.16152428090572357178},
{0.15400972962379455566, -0.09169667214155197144, 0.12546811997890472412},
{-0.14819578826427459717, 0.02374357171356678009, 0.05075253173708915710}},

{{-0.01512524019926786423, -0.04619394615292549133, 0.16217009723186492920},
{-0.00873155239969491959, -0.06596466153860092163, 0.13977806270122528076},
{-0.11766120046377182007, -0.10744254291057586670, 0.00814147107303142548}}},

{{{0.05280763655900955200, -0.11465797573328018188, -0.06638347357511520386},
{-0.12634225189685821533, -0.09383248537778854370, 0.00050224398728460073},
{0.01658522710204124451, -0.14725814759731292725, -0.10014542937278747559}},

{{0.14382402598857879639, -0.10624302923679351807, -0.11663470417261123657},
{0.14904482662677764893, 0.01174947340041399002, -0.14701755344867706299},
{0.01876328699290752411, 0.04836432635784149170, -0.04480494931340217590}},

{{0.14441472291946411133, 0.16138750314712524414, -0.15965576469898223877},
{0.06673239171504974365, 0.07911994308233261108, 0.05722400546073913574},
{0.14782655239105224609, 0.11610644310712814331, 0.14473862946033477783}},

{{-0.16121007502079010010, -0.12382397800683975220, 0.11286657303571701050},
{-0.07039085030555725098, -0.02974501810967922211, -0.06429799646139144897},
{0.00035696025588549674, 0.09827797859907150269, 0.12935791909694671631}},

{{-0.02091538161039352417, -0.06368143111467361450, 0.07009707391262054443},
{-0.12392257153987884521, -0.03634811565279960632, 0.06015626713633537292},
{-0.01032258756458759308, 0.11195594817399978638, -0.07286866754293441772}},

{{-0.06618601083755493164, 0.14583513140678405762, 0.13390693068504333496},
{-0.05297516286373138428, -0.04096072539687156677, 0.08065026253461837769},
{0.07260604947805404663, 0.00565118435770273209, 0.12814073264598846436}},

{{-0.13001470267772674561, 0.04815893992781639099, 0.06921445578336715698},
{-0.11123486608266830444, -0.02408312633633613586, -0.14318563044071197510},
{0.01830361783504486084, -0.01293204911053180695, -0.16653586924076080322}},

{{0.16424432396888732910, -0.13053059577941894531, 0.13302674889564514160},
{-0.03598523139953613281, -0.00354574341326951981, 0.08576877415180206299},
{0.14447337388992309570, 0.10988692939281463623, 0.13294507563114166260}},

{{-0.14917653799057006836, 0.07921840995550155640, 0.13341964781284332275},
{-0.12793143093585968018, 0.08241066336631774902, 0.02926193177700042725},
{0.05338986217975616455, -0.04288627952337265015, -0.05439166724681854248}},

{{-0.03651919588446617126, -0.02912868373095989227, 0.06594436615705490112},
{-0.11574778705835342407, -0.14033655822277069092, 0.09591726958751678467},
{-0.00828700140118598938, -0.10258071869611740112, -0.15214933454990386963}},

{{-0.00207372545264661312, 0.04211854934692382812, 0.09742868691682815552},
{-0.11246956139802932739, -0.16039422154426574707, 0.09228234738111495972},
{-0.05949926003813743591, 0.10318659991025924683, -0.09752789139747619629}},

{{-0.15531682968139648438, 0.11465682834386825562, 0.14207647740840911865},
{-0.02000570483505725861, -0.13331048190593719482, 0.03529968857765197754},
{0.08134023100137710571, 0.08229335397481918335, 0.05951556563377380371}},

{{0.11928422003984451294, 0.09334128350019454956, -0.15682026743888854980},
{-0.00588029110804200172, 0.05067585781216621399, 0.00130099046509712934},
{0.09642884880304336548, -0.15476742386817932129, 0.15367528796195983887}},

{{-0.04468625038862228394, 0.09640580415725708008, 0.05788805708289146423},
{-0.05612730979919433594, 0.01352597028017044067, 0.01720330677926540375},
{-0.14891514182090759277, -0.00872138421982526779, -0.08759874105453491211}},

{{-0.10880733281373977661, -0.14450937509536743164, 0.09414426982402801514},
{0.09370630979537963867, -0.00523077929392457008, -0.16348884999752044678},
{0.13536405563354492188, -0.07593607902526855469, -0.14751863479614257812}},

{{0.13199432194232940674, 0.15296714007854461670, -0.14920127391815185547},
{0.10914842784404754639, -0.06885179132223129272, -0.03656649589538574219},
{-0.12577685713768005371, -0.14104056358337402344, 0.07608795166015625000}}},

{{{-0.12771359086036682129, 0.09972343593835830688, 0.00147448712959885597},
{0.09236591309309005737, -0.08884467184543609619, -0.11768092215061187744},
{-0.12163913249969482422, 0.09502033144235610962, -0.12292719632387161255}},

{{-0.10345159471035003662, 0.14493857324123382568, 0.10333128273487091064},
{-0.08082333207130432129, -0.11258712410926818848, 0.01287790294736623764},
{0.16097359359264373779, 0.07180966436862945557, -0.02963793091475963593}},

{{0.05595428869128227234, -0.12751433253288269043, 0.03242972120642662048},
{0.01693314872682094574, -0.12428034842014312744, -0.03662730380892753601},
{0.09842523932456970215, -0.02533878758549690247, -0.06145606935024261475}},

{{-0.01645756699144840240, 0.07208286225795745850, 0.16665996611118316650},
{-0.06771099567413330078, -0.04904266819357872009, 0.11534357070922851562},
{-0.00780200306326150894, 0.15028491616249084473, 0.16034275293350219727}},

{{0.00071261479752138257, 0.12890073657035827637, -0.14334274828433990479},
{0.09192757308483123779, -0.06880996376276016235, 0.06808103621006011963},
{0.15019801259040832520, -0.09465180337429046631, 0.10064344108104705811}},

{{0.15349841117858886719, -0.00525811174884438515, -0.10410667955875396729},
{0.03642236441373825073, 0.05733726173639297485, -0.13924592733383178711},
{-0.08898148685693740845, -0.11074629426002502441, 0.15035888552665710449}},

{{-0.03719738870859146118, 0.05649740248918533325, -0.03398808091878890991},
{-0.08661891520023345947, -0.08885534852743148804, 0.02856189012527465820},
{0.15229657292366027832, 0.07724722474813461304, -0.09510380029678344727}},

{{-0.06735429167747497559, 0.05807778984308242798, -0.15940828621387481689},
{0.12938600778579711914, -0.08153199404478073120, -0.07790239900350570679},
{-0.07325090467929840088, -0.15098518133163452148, 0.03835261240601539612}},

{{-0.07059856504201889038, 0.05875626206398010254, -0.07596200704574584961},
{0.05396366864442825317, 0.05920296162366867065, 0.08433433622121810913},
{0.07042544335126876831, 0.10059053450822830200, -0.00465539330616593361}},

{{-0.09462434053421020508, 0.01305627077817916870, -0.07429612427949905396},
{0.04070739820599555969, -0.10889231413602828979, 0.09052775055170059204},
{0.07800696045160293579, 0.15871757268905639648, 0.04224041104316711426}},

{{-0.10819136351346969604, -0.13848149776458740234, -0.15295042097568511963},
{-0.06891318410634994507, -0.06916948407888412476, 0.15974198281764984131},
{0.07337740808725357056, 0.10047538578510284424, -0.00775420805439352989}},

{{-0.03085379116237163544, -0.05345498770475387573, -0.10097069293260574341},
{0.06411127001047134399, -0.11682268232107162476, -0.10562188923358917236},
{-0.13527223467826843262, -0.01443988922983407974, 0.10842633247375488281}},

{{0.15233394503593444824, 0.12027277797460556030, -0.11521514505147933960},
{0.12002801150083541870, 0.04276552423834800720, 0.03185294941067695618},
{0.06598317623138427734, -0.06881023943424224854, 0.15699039399623870850}},

{{-0.07523988932371139526, 0.15227043628692626953, 0.09871963411569595337},
{-0.06619495153427124023, 0.09835880994796752930, 0.07757454365491867065},
{-0.11368790268898010254, 0.11239382624626159668, -0.11779747903347015381}},

{{-0.00436584278941154480, 0.07029351592063903809, 0.14092905819416046143},
{0.03880485147237777710, 0.13816958665847778320, -0.12937028706073760986},
{-0.09964480996131896973, 0.15308915078639984131, -0.08809395134449005127}},

{{-0.10170551389455795288, -0.00943461712449789047, -0.07131755352020263672},
{-0.02422515116631984711, -0.03863172233104705811, -0.09313528239727020264},
{0.13633529841899871826, -0.01544149965047836304, -0.06667002290487289429}}},

{{{0.00828337762504816055, 0.01874193176627159119, 0.09761088341474533081},
{0.01932811923325061798, 0.12189865112304687500, -0.01511469203978776932},
{-0.00356643530540168285, -0.13552241027355194092, -0.16534911096096038818}},

{{0.05499162524938583374, -0.14342859387397766113, 0.07091915607452392578},
{-0.12069062888622283936, 0.09334742277860641479, 0.02276582270860671997},
{-0.15870539844036102295, 0.07082261890172958374, -0.09329522401094436646}},

{{0.12077642977237701416, 0.10033330321311950684, -0.05632093548774719238},
{0.14144749939441680908, 0.06543857604265213013, -0.07899086922407150269},
{0.08889926224946975708, -0.01900801993906497955, -0.12737880647182464600}},

{{-0.12624843418598175049, 0.05488209798932075500, 0.13611608743667602539},
{-0.01919227465987205505, 0.08613730221986770630, 0.11273739486932754517},
{0.02054049633443355560, -0.15073955059051513672, 0.04132225364446640015}},

{{-0.15605160593986511230, -0.13311940431594848633, -0.02844374068081378937},
{-0.16437412798404693604, -0.05541293323040008545, -0.05148490145802497864},
{-0.04881487786769866943, 0.12210396677255630493, 0.14875589311122894287}},

{{0.05871031060814857483, -0.01999862864613533020, -0.00434588501229882240},
{-0.15481533110141754150, 0.13963417708873748779, -0.01054621674120426178},
{-0.01610702835023403168, 0.15896427631378173828, -0.00687266048043966293}},

{{0.04142455011606216431, -0.12126024812459945679, 0.04120857641100883484},
{-0.14603617787361145020, -0.11595257371664047241, -0.10853515565395355225},
{0.07461158931255340576, 0.03391766175627708435, 0.09976416826248168945}},

{{-0.01547267753630876541, -0.10848490148782730103, 0.05740936845541000366},
{-0.00297369598411023617, 0.11907694488763809204, 0.05722231790423393250},
{-0.02571066841483116150, 0.13511006534099578857, 0.13011100888252258301}},

{{-0.09193902462720870972, -0.04382079839706420898, 0.04170999675989151001},
{-0.14493069052696228027, 0.12348735332489013672, -0.09536577761173248291},
{0.12782132625579833984, 0.10289984941482543945, -0.12322261929512023926}},

{{0.13235777616500854492, 0.13848425447940826416, 0.03457690402865409851},
{-0.11131791770458221436, -0.01166300196200609207, -0.13820484280586242676},
{0.01406938303261995316, 0.03550021722912788391, -0.08893923461437225342}},

{{0.12627407908439636230, -0.00313519570045173168, -0.12189721316099166870},
{-0.08046486228704452515, 0.11625431478023529053, -0.07687747478485107422},
{-0.03212544694542884827, 0.14857165515422821045, 0.09064867347478866577}},

{{0.08799831569194793701, 0.10125172138214111328, -0.08129345625638961792},
{0.07619047164916992188, -0.02117719128727912903, -0.08692715317010879517},
{-0.09060408920049667358, -0.14866493642330169678, 0.15885210037231445312}},

{{-0.09389626234769821167, -0.02892092242836952209, -0.14875338971614837646},
{-0.03437521681189537048, -0.02690674737095832825, -0.07958564162254333496},
{-0.02704305015504360199, -0.10654895007610321045, 0.13590894639492034912}},

{{-0.08143534511327743530, 0.00362296961247920990, -0.08801265805959701538},
{-0.12595671415328979492, 0.10857322812080383301, -0.03665210306644439697},
{0.08474468439817428589, -0.12153557687997817993, 0.12155921757221221924}},

{{-0.03741665929555892944, -0.11323050409555435181, 0.02661543712019920349},
{-0.00647259550169110298, 0.00286756781861186028, 0.04861510917544364929},
{-0.07511851936578750610, -0.07355233281850814819, -0.01402768585830926895}},

{{-0.04744684696197509766, 0.06724481284618377686, -0.09056552499532699585},
{-0.03475852310657501221, 0.08089745044708251953, -0.05979228019714355469},
{0.05686418712139129639, -0.02781553566455841064, -0.13790166378021240234}}},

{{{-0.04697124287486076355, -0.12997686862945556641, -0.04083836078643798828},
{-0.04617236554622650146, -0.14864684641361236572, -0.06641921401023864746},
{0.11950921267271041870, -0.10867417603731155396, 0.07150029391050338745}},

{{-0.13559603691101074219, 0.01852994784712791443, -0.07240897417068481445},
{-0.13469071686267852783, 0.15800161659717559814, -0.11570637673139572144},
{0.03062296658754348755, 0.02811524644494056702, 0.03823633864521980286}},

{{-0.07296390831470489502, -0.02164759114384651184, 0.05533168837428092957},
{-0.11284781992435455322, 0.04761304333806037903, 0.01854221895337104797},
{0.12158198654651641846, -0.08333674073219299316, 0.11792532354593276978}},

{{-0.15219262242317199707, -0.06691151112318038940, -0.02852661721408367157},
{0.12249828875064849854, -0.04836549609899520874, 0.16043810546398162842},
{-0.11222984641790390015, -0.15437744557857513428, 0.04107179865241050720}},

{{-0.03637956455349922180, 0.11176189780235290527, 0.11055071651935577393},
{0.15096020698547363281, -0.06292858719825744629, 0.00489061139523983002},
{0.09229315072298049927, 0.01259314641356468201, 0.02530690282583236694}},

{{0.07596073299646377563, -0.08390300720930099487, -0.02550172060728073120},
{0.14867176115512847900, -0.16065414249897003174, 0.04291102290153503418},
{-0.15862399339675903320, 0.08583306521177291870, 0.13696557283401489258}},

{{-0.01230748742818832397, 0.05963066220283508301, 0.10244578868150711060},
{-0.01890462823212146759, -0.01562304422259330750, 0.09276707470417022705},
{-0.10180595517158508301, -0.04335691034793853760, 0.12027198821306228638}},

{{-0.06860788166522979736, -0.05160110816359519958, 0.12786084413528442383},
{-0.09295397996902465820, 0.08756555616855621338, 0.10537142306566238403},
{-0.13066084682941436768, -0.12241327017545700073, -0.07040130347013473511}},

{{0.06299922615289688110, -0.03437263518571853638, -0.10626669973134994507},
{-0.02657015621662139893, -0.11113256216049194336, 0.06844033300876617432},
{0.13198538124561309814, -0.08900619298219680786, 0.03278851136565208435}},

{{0.12868078052997589111, 0.08760915696620941162, -0.03373052552342414856},
{0.01339641399681568146, -0.13073153793811798096, 0.04984795674681663513},
{-0.00783460773527622223, -0.02939926646649837494, -0.11815102398395538330}},

{{-0.03822943195700645447, -0.02680043689906597137, -0.01096253283321857452},
{-0.02064218744635581970, -0.11843474209308624268, -0.01024250220507383347},
{0.00293904310092329979, -0.10145802050828933716, 0.01776318065822124481}},

{{0.11122863739728927612, 0.09836172312498092651, 0.08970483392477035522},
{0.01661283336579799652, 0.04891335591673851013, 0.07785932719707489014},
{0.05308138579130172729, -0.12774696946144104004, 0.14153218269348144531}},

{{0.12459914386272430420, 0.01153565291315317154, 0.06888949126005172729},
{-0.14688934385776519775, -0.15515629947185516357, 0.01913332007825374603},
{-0.00207917345687747002, -0.05772076174616813660, 0.10842010378837585449}},

{{0.02791739441454410553, 0.07155675441026687622, -0.16804666817188262939},
{0.02334692701697349548, -0.12069180607795715332, -0.14215740561485290527},
{0.08409372717142105103, -0.13484457135200500488, -0.03882677853107452393}},

{{0.02026493474841117859, 0.04271208122372627258, 0.09268365055322647095},
{0.03968338668346405029, 0.02753138169646263123, 0.09942314028739929199},
{-0.00732800737023353577, -0.12019162625074386597, -0.13980863988399505615}},

{{-0.01318771392107009888, 0.04575221240520477295, 0.03636522591114044189},
{-0.04630981385707855225, 0.01735060475766658783, -0.10639854520559310913},
{0.05113384127616882324, -0.05941583216190338135, -0.00020982112619094551}}}};

const uint16_t shape_Conv2D_1_b = 8;
const float Conv2D_1_b[8] = {-0.00328722479753196239, -0.00344367488287389278, 0.00106534990482032299, 0.00049116066657006741, 0.00173248536884784698, -0.00098249921575188637, -0.00246545113623142242, -0.00586110586300492287};
