/*
 * author : shtsno24
 * Date : 2019-10-18 23:26:07.464656
 * array_type : int16
 * fractal_width : 14 bit
 * bit_width : 16 bit
 *
 */
#pragma once
#include <stdint.h>

#define data_width_Conv2D_2 16
#define fractal_width_Conv2D_2 14

const uint16_t shape_Conv2D_2_w[] = {8, 8, 3, 3};
const int16_t Conv2D_2_w[8][8][3][3] =
{{{{ -172, -1856,  -256},
{ 1331,  1748, -2071},
{ -829,  1909,  -340}},

{{ 2785,   979,  -480},
{ -718,  1255,   511},
{ -123,  3043,  2349}},

{{ 1187,   288, -1393},
{ 2910, -2372, -1423},
{ 1134,  1764, -2998}},

{{-1960, -2358, -3054},
{ 2674,  1632,  2907},
{  795, -2716, -3354}},

{{-2500,  1372,   621},
{  392,  -185,     7},
{ 1578,  2264, -2217}},

{{  223, -2464,  3080},
{  423,  3057,  2271},
{-2546, -2742,  -252}},

{{ 2391,  2131,  2904},
{-1172, -2802, -1832},
{ -169, -3348,  -612}},

{{ 1536, -2499,  2605},
{-2218,  -867,   164},
{-2865,  -936,  -647}}},

{{{  252,  -852,  2703},
{-2100,  1621,  -330},
{-1669,  -630,  -522}},

{{-1596, -1874, -1014},
{  309, -2158, -1442},
{  -64,   496, -1099}},

{{ 2008,  -162,  3225},
{-3038, -2894, -2826},
{-1297,  1641,   349}},

{{  963,  -678,  -512},
{-3319,  2430,  2698},
{ 1404,   895,  1671}},

{{  701, -2872,   374},
{ 2285,  2909,  2932},
{ 1863,  1096,  -385}},

{{ 2397,  1467,  2984},
{-1558,   140,   877},
{-1981,   399,  1701}},

{{ 2276,  1122,   324},
{ 1744,  -304, -3332},
{-1960,  -739,  1650}},

{{  931, -1013,  1073},
{ 2345, -3315, -2640},
{ -943, -2862, -2672}}},

{{{  688, -1298,  2366},
{  336,  2233, -2472},
{ 1123,   922,   140}},

{{  294,  2385,  -935},
{  984,  4211,  1468},
{-3155,  -715,   -55}},

{{ 2528, -2426,  -147},
{ 1442, -1088,  1670},
{-1821,   859,  1965}},

{{ 2038,   551,  -211},
{-1939, -2502,  -442},
{ -345,  1110,   628}},

{{-1996, -3374, -1118},
{ 2307,  2734, -3242},
{   87,  -313,  -383}},

{{  808,  -769,  -713},
{ 2832, -1870,  1962},
{ 2553,   -32,  -353}},

{{ 2194,  1626,  2818},
{-1545, -1540,  1536},
{-2196, -1599, -1542}},

{{-2309, -2673,  1570},
{ 3273,  3165, -2245},
{ -849,   212, -2312}}},

{{{ -555,  1073, -1140},
{-2054,  -444, -1520},
{-2831,   811, -1806}},

{{ 3316,  1590, -2450},
{ 2705,  -707, -2082},
{  708,  -474,  2604}},

{{-1153, -2060,   754},
{-1376,   981,  1569},
{ 3352,  2773,  3113}},

{{ -483,  1998,  2754},
{  999,  2179,  1518},
{ 2486,   678,  2439}},

{{ 1871,   514,  1744},
{  174,  -852, -1733},
{-2806, -2546,  1764}},

{{ 1003,  -491,   409},
{ 2883,  1625,  2187},
{  554,  -141,  2166}},

{{-1744,  1555,  -854},
{ 2415,  3281, -2290},
{ 1534,  -457, -2217}},

{{ 2968, -1774,  -356},
{ 3408, -2991, -2180},
{  940,   -90,  1451}}},

{{{ 3489,  1513,  1183},
{ -692,  1650, -2427},
{ 1988,  -988, -2701}},

{{ -730,  3311, -2672},
{ -865,  1810,   963},
{ 2054, -1412,   525}},

{{  252,  3126, -1047},
{  365, -1180,   123},
{ -237,   276,   623}},

{{  165,  1439, -1144},
{-2964, -2352, -2998},
{ -662,  2885,  2339}},

{{  395,  1350,  3023},
{ -411, -2642,  2841},
{   65,  -393, -1257}},

{{ 1578, -2989,   -42},
{-2312, -2153,  1154},
{-1344,  1432,   980}},

{{-1968,  1120, -2478},
{ 1296,  -366,  2905},
{ 1987, -2989, -2010}},

{{ 2000,  2475, -1160},
{ 1465, -2295,  1562},
{  234,  1624, -2034}}},

{{{ -156,   981,   620},
{ 3317, -1075,   607},
{ 2139,  2919,  2345}},

{{  705, -2418,  2753},
{-1041,  2400,  1865},
{-2967,  1039,  -425}},

{{-2862, -3436,   333},
{ 1773,  -371,  1575},
{  543, -1197,  -350}},

{{ 2127, -1813,  1424},
{ -861,  -149,  2969},
{ -762,  -104, -2449}},

{{  705,  -324,  3184},
{-2687, -1585,  1325},
{-1215,  -629,  3177}},

{{  490,  -374, -1829},
{ -579,  3053,  1096},
{  705,  2614,   723}},

{{-1274,  2468,  -183},
{ 2296, -2956,  2276},
{-1564, -1180,  1307}},

{{ 2078, -3299,   399},
{ 1231,   647,  2202},
{ 1212,  -544,   631}}},

{{{ 2407, -1872,  3129},
{-2272, -2922,    22},
{  632,  3026,  1847}},

{{  865,  3357,  2236},
{ 1982,  1758,  -660},
{ 3100,  -579,  -124}},

{{ 1988,  2880, -1216},
{-1761, -2817, -2542},
{  -35, -1895,   356}},

{{ 1455, -1798, -1242},
{ -719,  2953,  -121},
{-3133,  2526,  1140}},

{{-1448,   -65,  2741},
{ 1750,  2666, -2377},
{-1507, -1984,  1010}},

{{ 2547,  1910, -3014},
{-1844,  -847,  1217},
{-3214,   666, -1920}},

{{    2, -2528, -1447},
{ 2484,   105,  -737},
{ -664,  1183, -2813}},

{{  126,  1770,  1501},
{  -28,  4653,  1301},
{-1948, -2795,  1861}}},

{{{  797,   595,  1162},
{-3700,  2937,  1087},
{-2387,  1785,   -85}},

{{-1220,   918,  -570},
{ -574,  2625,  1909},
{-1018,   -30, -1769}},

{{-2216,  -480,   963},
{  383,  -705,  2731},
{ 1409,  2673, -1425}},

{{-1221,  -500, -2128},
{-2362, -1191,  2288},
{ 2202,  -200,   300}},

{{ 1969,  3003, -1045},
{  202, -1054,  2965},
{ 1623,   812, -1581}},

{{ -296,  1645, -2339},
{-1756,  1500, -1740},
{-1234, -3281,   171}},

{{ 3045,  1455,  -401},
{ 2435,  2025, -1653},
{ 2436,  2843,  -526}},

{{ 1593, -2111,  1542},
{-2286, -1979,  -619},
{ 2938,  -856,  1538}}}};

const uint16_t shape_Conv2D_2_b = 8;
const int16_t Conv2D_2_b[8] = {   95,  -340,  -344,   732,  -358,  -515, -1004,   596};
