/*
 * author : shtsno24
 * Date : 2019-10-18 23:26:07.495153
 *
 */
#pragma once
#include <stdint.h>

const uint16_t shape_Conv2D_3_w[] = {16, 8, 3, 3};
const float Conv2D_3_w[16][8][3][3] =
{{{{0.12418469041585922241, -0.15305545926094055176, 0.02357048355042934418},
{0.05811307206749916077, -0.02724896371364593506, 0.07095292955636978149},
{-0.09487971663475036621, 0.01681668683886528015, 0.14591422677040100098}},

{{0.01651841960847377777, 0.05119677260518074036, 0.09746787697076797485},
{0.04124321788549423218, 0.05898848548531532288, 0.12066711485385894775},
{-0.05677913129329681396, 0.06853078305721282959, 0.08407934010028839111}},

{{-0.07969193160533905029, -0.01079121883958578110, 0.12610143423080444336},
{-0.12322802841663360596, 0.05226758122444152832, 0.06644525378942489624},
{-0.06404621154069900513, 0.10990505665540695190, 0.05388029664754867554}},

{{-0.09345649927854537964, 0.08921496570110321045, 0.03252574428915977478},
{-0.08411154150962829590, 0.08058953285217285156, -0.11136306077241897583},
{0.00609826156869530678, 0.06453780084848403931, 0.15193895995616912842}},

{{0.10242598503828048706, 0.04343242198228836060, 0.17461320757865905762},
{-0.08261742442846298218, 0.11267472803592681885, 0.09252182394266128540},
{0.03224599361419677734, 0.05114188790321350098, 0.04367974027991294861}},

{{-0.08947169780731201172, 0.14254926145076751709, -0.05153521522879600525},
{0.19400382041931152344, 0.08422740548849105835, 0.05758640915155410767},
{-0.10669318586587905884, -0.15502004325389862061, 0.06589224189519882202}},

{{-0.06777222454547882080, 0.07586412131786346436, -0.14176985621452331543},
{0.14150491356849670410, 0.08401286602020263672, -0.11174064874649047852},
{0.05246506258845329285, -0.09886222332715988159, 0.00650609564036130905}},

{{0.05680104717612266541, -0.11385813355445861816, -0.06471636146306991577},
{0.09812959283590316772, -0.05185346305370330811, 0.07577308267354965210},
{0.03202093392610549927, -0.05841524526476860046, 0.01232763472944498062}}},

{{{-0.11741381883621215820, -0.04037221148610115051, -0.13569292426109313965},
{0.09502581506967544556, -0.15359117090702056885, -0.04336168244481086731},
{0.09026035666465759277, 0.10849452763795852661, -0.02642527967691421509}},

{{0.09854774177074432373, -0.16591593623161315918, 0.11349387466907501221},
{0.00783660449087619781, 0.08840200304985046387, 0.05339319631457328796},
{0.13105802237987518311, 0.03395057469606399536, 0.00867105089128017426}},

{{-0.05348471924662590027, 0.15172560513019561768, -0.16370788216590881348},
{0.13323323428630828857, 0.02392530255019664764, -0.15259274840354919434},
{0.01462609600275754929, -0.16024360060691833496, 0.07329919189214706421}},

{{0.07087558507919311523, -0.16251663863658905029, 0.04630461335182189941},
{0.06946354359388351440, -0.13912992179393768311, -0.15911556780338287354},
{0.10799251496791839600, 0.09324710816144943237, 0.01121257990598678589}},

{{0.10040497034788131714, 0.06487940996885299683, -0.16565255820751190186},
{0.00265508703887462616, 0.13824325799942016602, -0.09209733456373214722},
{0.15241900086402893066, 0.14556780457496643066, 0.04467415064573287964}},

{{0.14015716314315795898, 0.00694568874314427376, 0.13991473615169525146},
{-0.09855395555496215820, -0.00357159320265054703, -0.09516783058643341064},
{0.18563526868820190430, 0.04220193624496459961, 0.02019159495830535889}},

{{-0.12722767889499664307, 0.02540938742458820343, -0.08666563034057617188},
{-0.04075084254145622253, -0.10751687735319137573, 0.02113058604300022125},
{-0.08425785601139068604, 0.04237048700451850891, 0.09470088779926300049}},

{{-0.09342022985219955444, 0.03594122454524040222, 0.11786244064569473267},
{0.07207187265157699585, -0.00673534628003835678, -0.09095679223537445068},
{0.00934778060764074326, 0.09139475971460342407, 0.12263566255569458008}}},

{{{-0.07401748746633529663, 0.02105371281504631042, -0.14937162399291992188},
{0.09478910267353057861, -0.11261105537414550781, 0.08438111841678619385},
{0.07793517410755157471, 0.00098128058016300201, -0.03171604871749877930}},

{{-0.09574739634990692139, 0.03535072505474090576, 0.01160001847892999649},
{-0.06105875968933105469, 0.08382339775562286377, 0.13571138679981231689},
{-0.13896498084068298340, 0.05420554429292678833, 0.14117018878459930420}},

{{-0.09315812587738037109, 0.10312490165233612061, -0.11928343772888183594},
{0.08029468357563018799, 0.11371891200542449951, -0.10864420980215072632},
{0.08813850581645965576, -0.15683472156524658203, -0.12060320377349853516}},

{{-0.11072001606225967407, 0.05779003351926803589, -0.08201717585325241089},
{-0.03676640242338180542, 0.14256776869297027588, -0.03747474029660224915},
{-0.14939300715923309326, -0.05592714622616767883, -0.16197423636913299561}},

{{-0.15916185081005096436, -0.03190485760569572449, 0.11668743193149566650},
{0.09089918434619903564, -0.07545232772827148438, -0.07404073327779769897},
{0.09224359691143035889, -0.12303344905376434326, -0.10033726692199707031}},

{{0.15016619861125946045, -0.00165913836099207401, -0.08501636981964111328},
{-0.15420389175415039062, 0.02847374975681304932, -0.09402523189783096313},
{0.02632591687142848969, 0.14239017665386199951, 0.03697474300861358643}},

{{-0.09501644223928451538, 0.07513172924518585205, -0.12797912955284118652},
{-0.02207335270941257477, -0.14436969161033630371, -0.02060599625110626221},
{-0.12276915460824966431, 0.06324318051338195801, -0.00174451351631432772}},

{{-0.02271866798400878906, -0.00292967772111296654, -0.06536825746297836304},
{-0.08322358131408691406, -0.08518528938293457031, -0.13532042503356933594},
{-0.01573443412780761719, 0.11122409999370574951, 0.00199414673261344433}}},

{{{-0.10125940293073654175, 0.09617234766483306885, 0.04372259229421615601},
{-0.15948672592639923096, -0.14674180746078491211, 0.03232685104012489319},
{-0.08796581625938415527, -0.04833727702498435974, -0.07073134183883666992}},

{{-0.08044701069593429565, 0.06708537042140960693, 0.10345625132322311401},
{-0.15546335279941558838, -0.08958357572555541992, 0.09033314138650894165},
{0.08450397849082946777, -0.11725684255361557007, 0.00064981967443600297}},

{{0.02903305925428867340, 0.10091464966535568237, 0.05732870101928710938},
{0.12934516370296478271, 0.11338157206773757935, -0.01750845275819301605},
{0.07768882066011428833, 0.10633581131696701050, -0.12051321566104888916}},

{{-0.01540117431432008743, 0.08424928039312362671, -0.11163584887981414795},
{0.09130368381738662720, -0.12816660106182098389, -0.02358455955982208252},
{0.14545711874961853027, -0.03537810593843460083, -0.14761686325073242188}},

{{-0.14724798500537872314, 0.07871701568365097046, -0.01962533779442310333},
{0.06438817083835601807, -0.07708842307329177856, 0.02990758791565895081},
{-0.05516601726412773132, 0.13665266335010528564, 0.10713818669319152832}},

{{0.06471890956163406372, 0.02550836093723773956, 0.01801179535686969757},
{-0.03039075993001461029, 0.11854708194732666016, -0.08734810352325439453},
{-0.05419026687741279602, -0.10889854282140731812, -0.09955558180809020996}},

{{0.10703150182962417603, 0.02754537202417850494, -0.02505194954574108124},
{-0.15314936637878417969, 0.15265169739723205566, -0.03309111669659614563},
{-0.11613921076059341431, -0.00598190585151314735, -0.13645569980144500732}},

{{-0.08136351406574249268, -0.15711523592472076416, -0.07312405854463577271},
{-0.15188552439212799072, -0.04998808354139328003, 0.16219694912433624268},
{0.13607443869113922119, 0.07628207653760910034, -0.06522840261459350586}}},

{{{-0.13956531882286071777, 0.06809278577566146851, 0.08947508037090301514},
{-0.04192967340350151062, 0.10523672401905059814, 0.10932245850563049316},
{-0.06526362895965576172, 0.08878456056118011475, 0.15552172064781188965}},

{{0.04600152000784873962, 0.05850052833557128906, -0.05455291271209716797},
{-0.16197849810123443604, 0.04776132479310035706, 0.05617538094520568848},
{-0.06449793279170989990, -0.02482966333627700806, 0.01972343772649765015}},

{{-0.03003769367933273315, -0.00086626445408910513, -0.07257214188575744629},
{0.15231439471244812012, 0.17241974174976348877, -0.01998590491712093353},
{-0.05501150712370872498, -0.07709563523530960083, 0.12766614556312561035}},

{{0.02008967287838459015, 0.04777430370450019836, 0.13073344528675079346},
{-0.08469378203153610229, 0.03094246610999107361, 0.13011734187602996826},
{-0.15379193425178527832, -0.11794389039278030396, -0.10095053166151046753}},

{{-0.13090357184410095215, 0.04036110267043113708, 0.03603449836373329163},
{-0.08692380040884017944, 0.02704898454248905182, -0.03491508588194847107},
{0.08936345577239990234, 0.11506737023591995239, 0.01685238629579544067}},

{{-0.01283577457070350647, 0.01510196644812822342, 0.13429233431816101074},
{-0.05782094225287437439, 0.04651686176657676697, 0.16714258491992950439},
{-0.07909674942493438721, -0.07020951062440872192, -0.07978350669145584106}},

{{0.10099105536937713623, -0.12396612763404846191, 0.17301903665065765381},
{-0.06015320867300033569, 0.08518385142087936401, -0.02162006869912147522},
{0.02699837461113929749, 0.14782702922821044922, 0.07204788923263549805}},

{{0.12855826318264007568, 0.03544885665178298950, 0.05589222535490989685},
{-0.05872592329978942871, 0.11840001493692398071, -0.04564980044960975647},
{-0.06105609238147735596, 0.07825179398059844971, 0.14575155079364776611}}},

{{{-0.05627211555838584900, -0.05667916685342788696, -0.03175888955593109131},
{0.13133306801319122314, -0.01673469319939613342, -0.00397348962724208832},
{0.13148112595081329346, 0.05837783962488174438, 0.07907456159591674805}},

{{0.11663001775741577148, 0.07989400625228881836, -0.02501279301941394806},
{-0.09471501410007476807, -0.04805712401866912842, 0.06101761758327484131},
{-0.03517144173383712769, 0.12859845161437988281, -0.15698798000812530518}},

{{-0.08233509957790374756, 0.13007241487503051758, 0.14889696240425109863},
{0.07169741392135620117, 0.16453781723976135254, 0.15213471651077270508},
{-0.06941529363393783569, -0.11119189113378524780, 0.09244957566261291504}},

{{0.09566069394350051880, -0.00805724412202835083, 0.01542922481894493103},
{0.00632311496883630753, -0.15254467725753784180, -0.08329360932111740112},
{-0.12781570851802825928, -0.04547483101487159729, 0.01405496057122945786}},

{{-0.09653332084417343140, -0.04592160135507583618, 0.02074658311903476715},
{-0.04512279853224754333, -0.07465627044439315796, -0.16593727469444274902},
{0.02358725108206272125, -0.03026302531361579895, 0.04461695253849029541}},

{{0.11181726306676864624, -0.10183882713317871094, 0.11259876191616058350},
{-0.05203898251056671143, 0.08640052378177642822, -0.07244869321584701538},
{0.02438380755484104156, -0.13810414075851440430, 0.10790184885263442993}},

{{0.08338801562786102295, -0.02736213803291320801, -0.07199332118034362793},
{-0.13461130857467651367, -0.18138384819030761719, -0.00914556905627250671},
{0.14577007293701171875, 0.11263579875230789185, -0.08145128935575485229}},

{{0.13699170947074890137, -0.05449840426445007324, -0.15176896750926971436},
{0.14843340218067169189, 0.16252720355987548828, -0.14218728244304656982},
{-0.08661168813705444336, -0.05011910945177078247, -0.05647299811244010925}}},

{{{0.10284286737442016602, -0.14276954531669616699, 0.08006396144628524780},
{0.01990034617483615875, -0.06452240049839019775, 0.14821325242519378662},
{-0.10104321688413619995, -0.11618635803461074829, -0.14527864754199981689}},

{{-0.11268062889575958252, 0.09979511052370071411, 0.08143721520900726318},
{0.09043601900339126587, -0.10992573201656341553, 0.01520363613963127136},
{-0.11864188313484191895, -0.00001997326035052538, -0.10073144733905792236}},

{{-0.20882281661033630371, 0.07548891007900238037, 0.10333783924579620361},
{-0.02908714860677719116, 0.15617811679840087891, 0.12670546770095825195},
{0.10350799560546875000, -0.07016682624816894531, -0.02757921069860458374}},

{{-0.11796790361404418945, -0.07718673348426818848, 0.06760816276073455811},
{0.04903188347816467285, -0.16427314281463623047, 0.15550099313259124756},
{-0.05798818543553352356, 0.04792023077607154846, 0.06741645187139511108}},

{{-0.00038770481478422880, 0.05744681134819984436, -0.11134132742881774902},
{0.11081624776124954224, 0.04916338622570037842, -0.04300441220402717590},
{-0.04488707333803176880, 0.15049062669277191162, -0.13404883444309234619}},

{{-0.12914459407329559326, 0.14559452235698699951, 0.09345744550228118896},
{0.13902644813060760498, 0.00929702632129192352, 0.08770871162414550781},
{0.07578462362289428711, -0.11598808318376541138, -0.06668607890605926514}},

{{-0.08547344058752059937, 0.07162428647279739380, -0.15263900160789489746},
{0.10640447586774826050, 0.11353386193513870239, 0.10056460648775100708},
{0.08894068747758865356, 0.08175108581781387329, -0.17416284978389739990}},

{{0.01334642712026834488, 0.11862082779407501221, 0.05264964327216148376},
{0.08356682956218719482, -0.11102317273616790771, 0.13498115539550781250},
{0.10963957756757736206, -0.04718970507383346558, 0.10499596595764160156}}},

{{{-0.12118616700172424316, -0.10122979432344436646, 0.06091758236289024353},
{0.06027919799089431763, -0.02412167191505432129, 0.00787670910358428955},
{0.08881115168333053589, -0.07271631807088851929, 0.01912104524672031403}},

{{0.10148138552904129028, -0.12394580990076065063, 0.06488518416881561279},
{-0.02007701434195041656, 0.14988525211811065674, 0.00222861673682928085},
{-0.16422159969806671143, -0.07323890924453735352, 0.09911071509122848511}},

{{-0.14085406064987182617, 0.04842761158943176270, -0.14093407988548278809},
{0.06386356055736541748, -0.06665324419736862183, -0.01229620445519685745},
{0.16721023619174957275, 0.11561833322048187256, 0.04025455936789512634}},

{{-0.02053090184926986694, 0.04353393614292144775, 0.05456452816724777222},
{0.11489060521125793457, -0.11874730139970779419, -0.18932756781578063965},
{-0.14095142483711242676, 0.03246054425835609436, 0.12607419490814208984}},

{{-0.09518226981163024902, -0.07401653379201889038, 0.11677481979131698608},
{0.07122171670198440552, -0.11685329675674438477, -0.14285267889499664307},
{0.06333557516336441040, 0.07226236164569854736, 0.08620976656675338745}},

{{0.02015072479844093323, 0.10217048227787017822, 0.08831647038459777832},
{0.11665210127830505371, 0.08589818328619003296, -0.06854500621557235718},
{0.19561690092086791992, 0.02074983902275562286, -0.08386029303073883057}},

{{0.05260347202420234680, -0.15529067814350128174, 0.02161656320095062256},
{0.00326003553345799446, -0.08953371644020080566, -0.08198747038841247559},
{-0.12551365792751312256, 0.07112856954336166382, -0.05919344350695610046}},

{{0.06573817133903503418, 0.03442385047674179077, 0.14637218415737152100},
{0.04521477594971656799, 0.13031795620918273926, -0.08863733708858489990},
{0.17787334322929382324, 0.03598047420382499695, 0.03612893447279930115}}},

{{{-0.10418388247489929199, -0.01027386169880628586, -0.01772865094244480133},
{0.12561458349227905273, 0.12583681941032409668, 0.10099782794713973999},
{-0.07732757925987243652, 0.06540149450302124023, -0.04774276912212371826}},

{{0.15289291739463806152, -0.11489358544349670410, -0.06022466346621513367},
{0.12615199387073516846, 0.08044669032096862793, 0.03412489965558052063},
{0.06363642215728759766, -0.02151627279818058014, -0.01285374350845813751}},

{{-0.06045124307274818420, 0.04506997019052505493, -0.04209087416529655457},
{-0.09063412994146347046, 0.15994527935981750488, 0.11772211641073226929},
{0.13079515099525451660, 0.07110126316547393799, 0.08920389413833618164}},

{{-0.09576148539781570435, 0.13101069629192352295, -0.09033355861902236938},
{-0.00365638383664190769, -0.03602638840675354004, 0.06627779453992843628},
{-0.09584898501634597778, 0.00310765928588807583, -0.14524595439434051514}},

{{0.00391189148649573326, 0.16115944087505340576, 0.04337905347347259521},
{0.13317729532718658447, -0.08627110719680786133, -0.13764873147010803223},
{0.06751025468111038208, -0.04579650238156318665, 0.03753774240612983704}},

{{0.03673207387328147888, 0.12773162126541137695, -0.01307240594178438187},
{0.17306640744209289551, 0.04472610726952552795, -0.05861425027251243591},
{0.03578920289874076843, 0.12271023541688919067, 0.09773039072751998901}},

{{0.15123023092746734619, 0.05512009561061859131, -0.16520081460475921631},
{0.15298828482627868652, -0.08817169070243835449, 0.05312067642807960510},
{0.14327861368656158447, -0.05868536606431007385, 0.13492432236671447754}},

{{-0.05836441740393638611, -0.03933298960328102112, -0.11865380406379699707},
{0.03351067751646041870, 0.15380871295928955078, -0.14779917895793914795},
{0.08769875764846801758, 0.10495830327272415161, -0.11932117491960525513}}},

{{{0.09148467332124710083, 0.07556411623954772949, -0.00942662823945283890},
{0.06025793030858039856, 0.01299681607633829117, 0.03295635059475898743},
{-0.02212214842438697815, -0.05085483938455581665, -0.06351894885301589966}},

{{-0.07151377946138381958, -0.07675191015005111694, -0.16349583864212036133},
{-0.03906296193599700928, -0.11796394735574722290, -0.01462422683835029602},
{0.10172382742166519165, -0.14326572418212890625, 0.11102814972400665283}},

{{0.11425289511680603027, -0.08260569721460342407, 0.05044857785105705261},
{0.16595219075679779053, 0.13258369266986846924, 0.19300408661365509033},
{-0.10354112088680267334, 0.17582626640796661377, -0.14179424941539764404}},

{{0.07232049852609634399, -0.11255531758069992065, 0.08269818872213363647},
{-0.15557476878166198730, 0.05409473553299903870, 0.02022803947329521179},
{-0.03738015517592430115, 0.11318211257457733154, 0.04832918941974639893}},

{{0.16474626958370208740, 0.01494571845978498459, -0.14153964817523956299},
{0.06953331083059310913, -0.07795753329992294312, 0.13780374825000762939},
{-0.04991233721375465393, -0.05324940755963325500, -0.04806798323988914490}},

{{0.02932994998991489410, -0.11453341692686080933, -0.06854449212551116943},
{0.09440875798463821411, -0.10248374193906784058, 0.09213080257177352905},
{0.09120336920022964478, -0.12300500273704528809, 0.03664072975516319275}},

{{-0.14017093181610107422, -0.17227336764335632324, 0.03394842520356178284},
{0.12116905301809310913, 0.17735151946544647217, -0.09155206382274627686},
{0.16873317956924438477, 0.13091652095317840576, 0.06758815795183181763}},

{{-0.13839113712310791016, 0.14959008991718292236, -0.16081383824348449707},
{0.01534301973879337311, 0.10494711250066757202, 0.08771193772554397583},
{-0.04079059138894081116, -0.09826174378395080566, -0.02800010889768600464}}},

{{{-0.03017615154385566711, 0.06141536310315132141, 0.12050964683294296265},
{0.01855249330401420593, 0.08457170426845550537, -0.10737357288599014282},
{-0.13435891270637512207, -0.09773074835538864136, 0.13929910957813262939}},

{{-0.00087467854609712958, 0.13753071427345275879, -0.08526431769132614136},
{-0.16553400456905364990, -0.06561883538961410522, -0.04810157790780067444},
{-0.12088399380445480347, 0.08175382018089294434, -0.09710425138473510742}},

{{-0.01551130320876836777, -0.13326288759708404541, 0.14889205992221832275},
{-0.04889326542615890503, 0.07072806358337402344, -0.10609845072031021118},
{0.05077984929084777832, 0.13232712447643280029, -0.01139417570084333420}},

{{-0.13307610154151916504, 0.14617650210857391357, -0.06791923940181732178},
{0.00333745079115033150, 0.12894825637340545654, -0.06530267000198364258},
{-0.03435395658016204834, -0.00547430245205760002, -0.01024752762168645859}},

{{0.01711586862802505493, -0.12030094861984252930, -0.15539225935935974121},
{0.12359181046485900879, 0.04265242442488670349, 0.08395297080278396606},
{0.11453582346439361572, -0.13362212479114532471, -0.11797845363616943359}},

{{-0.05565869808197021484, 0.01424462348222732544, -0.17616215348243713379},
{0.02365461736917495728, -0.04686765745282173157, 0.02970678731799125671},
{0.15838654339313507080, 0.14926552772521972656, -0.11059129983186721802}},

{{0.10031844675540924072, -0.10884785652160644531, 0.05685591697692871094},
{0.12696935236454010010, -0.02031068876385688782, -0.03634605184197425842},
{0.02361404709517955780, 0.09332340210676193237, -0.01402818597853183746}},

{{0.10165677219629287720, 0.09593576192855834961, 0.04718887433409690857},
{-0.04186233878135681152, 0.10230126231908798218, 0.04636990278959274292},
{-0.08552934229373931885, 0.06632045656442642212, -0.04573189094662666321}}},

{{{-0.11020468920469284058, 0.15192766487598419189, 0.04482122883200645447},
{-0.00501379556953907013, 0.11953813582658767700, 0.11601498723030090332},
{0.09136064350605010986, 0.03188760951161384583, 0.07613655179738998413}},

{{-0.15450322628021240234, -0.14306634664535522461, -0.11442320048809051514},
{-0.11269878596067428589, -0.02595537714660167694, -0.08769546449184417725},
{-0.10211388766765594482, 0.12858350574970245361, 0.11166342347860336304}},

{{-0.13949401676654815674, 0.12823215126991271973, 0.14422172307968139648},
{0.02801560796797275543, -0.01232570223510265350, -0.08287905901670455933},
{0.01608849689364433289, 0.05744813755154609680, 0.05626375973224639893}},

{{-0.09529837220907211304, 0.12681141495704650879, -0.17216016352176666260},
{0.04282022267580032349, -0.15056712925434112549, 0.09200852364301681519},
{-0.03351186960935592651, -0.13672180473804473877, -0.06797036528587341309}},

{{-0.03663947060704231262, 0.01184461079537868500, 0.02408570423722267151},
{-0.16220508515834808350, -0.12250471860170364380, 0.13900332152843475342},
{-0.17984960973262786865, 0.11582391709089279175, 0.04831612482666969299}},

{{-0.02614735625684261322, -0.11788794398307800293, -0.11745631694793701172},
{0.01340735238045454025, -0.01810937933623790741, 0.17684026062488555908},
{0.15631864964962005615, 0.12653000652790069580, 0.13031749427318572998}},

{{-0.02244559302926063538, 0.13125254213809967041, -0.09081137925386428833},
{0.01573906466364860535, 0.08468922972679138184, -0.10331808030605316162},
{0.13789071142673492432, -0.12982879579067230225, 0.09247056394815444946}},

{{-0.03268461674451828003, -0.00894073490053415298, 0.01422980241477489471},
{0.03811674192547798157, 0.14594019949436187744, 0.04639687389135360718},
{-0.14084668457508087158, 0.11704735457897186279, 0.10226958990097045898}}},

{{{0.00655480287969112396, -0.02516115456819534302, -0.05508975684642791748},
{0.04054233431816101074, -0.10196575522422790527, -0.08149455487728118896},
{0.16785818338394165039, -0.10206473618745803833, -0.11251326650381088257}},

{{-0.13693928718566894531, -0.11726845055818557739, 0.08615779876708984375},
{-0.07864258438348770142, -0.13648152351379394531, -0.01049446128308773041},
{-0.03389553353190422058, -0.03082131966948509216, 0.09238583594560623169}},

{{0.07702466100454330444, -0.10978425294160842896, 0.05898383632302284241},
{0.06347157806158065796, 0.01021887175738811493, -0.03453799709677696228},
{0.10936003178358078003, -0.05664714798331260681, 0.15496961772441864014}},

{{0.06085546687245368958, 0.03987677395343780518, -0.00189456797670572996},
{0.07233199477195739746, 0.17155592143535614014, -0.11210079491138458252},
{-0.07410017400979995728, 0.15497556328773498535, 0.02228564582765102386}},

{{0.04959810525178909302, 0.02985523082315921783, 0.12821164727210998535},
{0.04354028403759002686, -0.07644402235746383667, -0.02769185602664947510},
{0.05576597899198532104, 0.12378679215908050537, -0.15991716086864471436}},

{{-0.14790382981300354004, -0.08194343745708465576, 0.10952587425708770752},
{-0.11322314292192459106, -0.00719114299863576889, -0.15795737504959106445},
{-0.14615640044212341309, 0.06371726840734481812, -0.02101782150566577911}},

{{-0.12414624541997909546, -0.11514256894588470459, 0.03576426580548286438},
{0.15202380716800689697, 0.07846961915493011475, 0.00776233058422803879},
{0.05988717824220657349, 0.13786943256855010986, 0.09045002609491348267}},

{{-0.13027781248092651367, -0.10961975902318954468, 0.00294323870912194252},
{-0.06035409867763519287, 0.13523450493812561035, -0.14257282018661499023},
{0.05532369390130043030, -0.01793343573808670044, 0.16179221868515014648}}},

{{{-0.00866656284779310226, 0.13300727307796478271, -0.08938071876764297485},
{0.01320017781108617783, 0.10990738123655319214, 0.01722338609397411346},
{0.15612526237964630127, 0.13096119463443756104, -0.01749417372047901154}},

{{-0.02368118800222873688, 0.13359044492244720459, -0.02754761464893817902},
{-0.15289889276027679443, 0.12205875664949417114, 0.12661595642566680908},
{0.15845672786235809326, 0.10221179574728012085, -0.09351542592048645020}},

{{0.09390062093734741211, 0.09081064909696578979, -0.07463488727807998657},
{0.17337654531002044678, 0.08462783694267272949, -0.04527353867888450623},
{-0.06592312455177307129, -0.02629994787275791168, -0.01498833205550909042}},

{{-0.12196508795022964478, -0.04447885230183601379, 0.16857028007507324219},
{-0.14139881730079650879, -0.02435415238142013550, 0.16457208991050720215},
{-0.14423903822898864746, 0.08760920912027359009, -0.13000437617301940918}},

{{-0.03998254239559173584, 0.02573896013200283051, -0.10351505130529403687},
{-0.07824547588825225830, 0.11850113421678543091, 0.03259917348623275757},
{-0.08484432101249694824, 0.15797305107116699219, -0.07818629592657089233}},

{{-0.02817887812852859497, -0.06806506216526031494, -0.05175805091857910156},
{-0.08324504643678665161, -0.06643807142972946167, -0.09616500139236450195},
{-0.15216603875160217285, -0.11798401176929473877, -0.07956190407276153564}},

{{-0.06458929181098937988, 0.15733842551708221436, 0.14070729911327362061},
{-0.04610814154148101807, 0.09217330068349838257, -0.03788914531469345093},
{-0.05063261836767196655, 0.13751463592052459717, -0.06331038475036621094}},

{{0.05442931503057479858, 0.09290193766355514526, -0.10128186643123626709},
{0.05454705283045768738, -0.00997199676930904388, 0.02733693085610866547},
{-0.12204105406999588013, 0.05566358566284179688, -0.14700803160667419434}}},

{{{0.00789535976946353912, -0.11551413685083389282, 0.17443032562732696533},
{-0.00161652476526796818, -0.11917454749345779419, 0.06451025605201721191},
{0.06994147598743438721, 0.09988103061914443970, -0.15622764825820922852}},

{{0.02010030299425125122, -0.16606095433235168457, 0.08089062571525573730},
{-0.11823029816150665283, -0.01650434732437133789, 0.06383466720581054688},
{-0.07524628937244415283, 0.01241355203092098236, 0.08042466640472412109}},

{{0.09809237718582153320, 0.01201670989394187927, 0.10871541500091552734},
{0.02861656621098518372, -0.02620112337172031403, 0.10484389960765838623},
{-0.13094463944435119629, 0.01494542043656110764, -0.12243007868528366089}},

{{-0.12035729736089706421, 0.15512150526046752930, -0.00124581728596240282},
{-0.01621975749731063843, 0.01167220156639814377, -0.11192674934864044189},
{-0.11530849337577819824, 0.03590338677167892456, -0.05362642183899879456}},

{{0.09728772193193435669, 0.11671916395425796509, -0.05604822561144828796},
{-0.03605105355381965637, 0.14255926012992858887, 0.07313650846481323242},
{0.08567056059837341309, 0.11120461672544479370, -0.10706285387277603149}},

{{0.17764145135879516602, 0.12319621443748474121, 0.02450406737625598907},
{-0.16507767140865325928, 0.06460095942020416260, -0.06622388213872909546},
{-0.05107775703072547913, 0.13342033326625823975, 0.14353930950164794922}},

{{0.06105333566665649414, 0.16384516656398773193, 0.04342130944132804871},
{0.13372981548309326172, -0.09313955157995223999, 0.02030422911047935486},
{-0.09781734645366668701, -0.14763447642326354980, -0.01990410313010215759}},

{{0.06016243621706962585, -0.15225869417190551758, 0.14599098265171051025},
{-0.04962723329663276672, 0.05262150615453720093, 0.09980625659227371216},
{0.00351960421539843082, 0.11529701948165893555, -0.07889079302549362183}}},

{{{0.17832589149475097656, -0.06719648838043212891, -0.08529985696077346802},
{0.00113914650864899158, -0.08958287537097930908, 0.10887781530618667603},
{0.02136145718395709991, 0.11044700443744659424, 0.10749106854200363159}},

{{-0.11184473335742950439, -0.04347601160407066345, -0.05210623145103454590},
{-0.02920504659414291382, -0.15295487642288208008, 0.00407272810116410255},
{-0.06871090084314346313, -0.11355813592672348022, 0.11652279645204544067}},

{{-0.13111256062984466553, -0.03189145401120185852, -0.06428208202123641968},
{0.11998116970062255859, 0.06059587374329566956, -0.12615452706813812256},
{-0.09543665498495101929, 0.08463347703218460083, 0.14782634377479553223}},

{{0.04009948298335075378, 0.12139223515987396240, 0.16629225015640258789},
{-0.04542068392038345337, -0.03738373145461082458, 0.04808249324560165405},
{0.15758647024631500244, 0.20631839334964752197, -0.05611466616392135620}},

{{0.11787436902523040771, -0.16697341203689575195, -0.06135099381208419800},
{0.02545618824660778046, 0.05514712631702423096, -0.06237253546714782715},
{-0.01653442718088626862, -0.01819690875709056854, -0.15698342025279998779}},

{{-0.12511302530765533447, -0.11764664202928543091, -0.05465268343687057495},
{-0.15949335694313049316, 0.07053644210100173950, 0.02016570977866649628},
{-0.05583088099956512451, 0.09594363719224929810, -0.06418723613023757935}},

{{0.05591734498739242554, 0.02408926561474800110, 0.00598274637013673782},
{0.14273212850093841553, -0.12060575932264328003, 0.18121333420276641846},
{-0.15025648474693298340, -0.15614593029022216797, -0.06226014345884323120}},

{{-0.06046630814671516418, -0.06327027827501296997, 0.13794787228107452393},
{-0.10263127833604812622, -0.04948239773511886597, 0.11825773119926452637},
{-0.02466887980699539185, -0.01947513595223426819, -0.02204754389822483063}}}};

const uint16_t shape_Conv2D_3_b = 16;
const float Conv2D_3_b[16] = {-0.05623976141214370728, 0.04513901472091674805, 0.00008179570431821048, -0.01838636770844459534, -0.00682364916428923607, -0.02467434294521808624, -0.06314925849437713623, 0.04449750483036041260, -0.06425782293081283569, -0.06382811814546585083, 0.05472440645098686218, 0.02074914239346981049, 0.06028078496456146240, 0.01797518134117126465, 0.07345125079154968262, 0.09632174670696258545};
