/*
 * author : shtsno24
 * Date : 2019-10-30 10:38:44.228674
 *
 */
#pragma once
#include <stdint.h>

const uint16_t shape_Conv2D_0_w[] = {16, 1, 3, 3};
const float Conv2D_0_w[16][1][3][3] =
{{{{0.18781015276908874512, -0.18615634739398956299, 0.00245412858203053474},
{-0.11180523037910461426, -0.10466032475233078003, 0.04278833791613578796},
{-0.18131700158119201660, -0.13181512057781219482, -0.14171710610389709473}}},

{{{0.07145419716835021973, 0.14251810312271118164, 0.05823091417551040649},
{-0.14360952377319335938, -0.15128329396247863770, 0.00768921663984656334},
{0.19545994699001312256, 0.02957204915583133698, -0.02112235501408576965}}},

{{{0.10533629357814788818, 0.04601052775979042053, 0.12616430222988128662},
{0.16071845591068267822, 0.09433901309967041016, -0.01484022196382284164},
{-0.12584060430526733398, 0.16714012622833251953, 0.15014854073524475098}}},

{{{0.10011719167232513428, -0.03873597085475921631, -0.00735658826306462288},
{-0.01210591197013854980, -0.05016802623867988586, 0.19056458771228790283},
{-0.06392458081245422363, 0.09525545686483383179, 0.05616829544305801392}}},

{{{0.12890550494194030762, 0.09303101152181625366, 0.03343778476119041443},
{-0.06241004168987274170, 0.18950830399990081787, -0.16239956021308898926},
{-0.09007021039724349976, -0.03718059509992599487, -0.10297889262437820435}}},

{{{0.10906627029180526733, 0.14289689064025878906, -0.18373392522335052490},
{-0.02116427384316921234, -0.04094012081623077393, -0.14935187995433807373},
{0.14881703257560729980, 0.14024443924427032471, 0.08337914198637008667}}},

{{{-0.04620010778307914734, 0.12035736441612243652, -0.08791004866361618042},
{0.09025799483060836792, -0.02031802758574485779, -0.15942873060703277588},
{0.10695105791091918945, -0.18222749233245849609, 0.00779624888673424721}}},

{{{0.15714819729328155518, 0.05325658246874809265, 0.19220396876335144043},
{-0.04898482933640480042, 0.12278980761766433716, 0.11396172642707824707},
{-0.06491628289222717285, 0.10468244552612304688, 0.13538733124732971191}}},

{{{0.04476422443985939026, 0.17690095305442810059, 0.15017318725585937500},
{0.07425240427255630493, 0.12853434681892395020, -0.16195131838321685791},
{-0.04732391610741615295, 0.06021334603428840637, 0.13997980952262878418}}},

{{{-0.00379873323254287243, 0.07765857130289077759, 0.02610716782510280609},
{0.03382087126374244690, 0.09753734618425369263, -0.10040366649627685547},
{-0.17877370119094848633, -0.02104621753096580505, 0.12394472211599349976}}},

{{{0.13808949291706085205, -0.02549331262707710266, 0.19355349242687225342},
{0.09504370391368865967, 0.03819313272833824158, 0.09092783927917480469},
{0.07189488410949707031, -0.07135834544897079468, 0.17977897822856903076}}},

{{{0.05148262903094291687, -0.12691795825958251953, -0.03652177378535270691},
{0.08550564944744110107, 0.17860327661037445068, -0.12803176045417785645},
{0.01237052865326404572, -0.09496118873357772827, 0.18205276131629943848}}},

{{{-0.16006866097450256348, 0.11615890264511108398, 0.13758580386638641357},
{0.07525937259197235107, 0.17427928745746612549, 0.16904553771018981934},
{0.04629303514957427979, 0.04134235158562660217, 0.15114335715770721436}}},

{{{0.04248826950788497925, 0.08614644408226013184, 0.16638793051242828369},
{0.07998209446668624878, -0.10457600653171539307, -0.14294959604740142822},
{-0.14803586900234222412, -0.00650643277913331985, 0.08422965556383132935}}},

{{{0.18221852183341979980, 0.16020707786083221436, -0.01963587477803230286},
{0.05663323774933815002, -0.06439572572708129883, -0.12048320472240447998},
{0.02284133061766624451, 0.07343898713588714600, 0.16749219596385955811}}},

{{{-0.02518750913441181183, 0.00531558552756905556, -0.09082559496164321899},
{-0.18929624557495117188, -0.19138060510158538818, -0.06699077785015106201},
{-0.09203615784645080566, -0.09972980618476867676, -0.18500648438930511475}}}};

const uint16_t shape_Conv2D_0_b = 16;
const float Conv2D_0_b[16] = {0.00567463133484125137, 0.00334605644457042217, -0.00366776273585855961, 0.00249045621603727341, -0.00034284111461602151, -0.00232718675397336483, 0.00129968323744833469, -0.00221745111048221588, 0.00143220159225165844, -0.00313407857902348042, -0.00106734735891222954, -0.00319978385232388973, 0.00088540575234219432, 0.00043975023436360061, 0.00202824012376368046, 0.00020139775006100535};
