/*
 * author : shtsno24
 * Date : 2019-10-30 10:38:44.685917
 *
 */
#pragma once
#include <stdint.h>

const uint16_t shape_Conv2D_4_w[] = {1, 16, 3, 3};
const float Conv2D_4_w[1][16][3][3] =
{{{{-0.04685418680310249329, -0.18866500258445739746, 0.12766532599925994873},
{-0.17632453143596649170, -0.03398777544498443604, 0.02930148690938949585},
{0.08548775315284729004, 0.12176850438117980957, 0.18281885981559753418}},

{{0.14792370796203613281, -0.16565693914890289307, -0.14052417874336242676},
{-0.03377838060259819031, 0.09500359743833541870, 0.04583132266998291016},
{-0.13562904298305511475, -0.07764808088541030884, -0.14742372930049896240}},

{{-0.10307849943637847900, -0.13305014371871948242, -0.11734195053577423096},
{0.09661427885293960571, 0.16336692869663238525, -0.10651502758264541626},
{-0.00797483138740062714, -0.03009586781263351440, -0.18521441519260406494}},

{{0.10433830320835113525, 0.05315824225544929504, 0.05434121564030647278},
{0.17056626081466674805, -0.10004369169473648071, -0.11331070959568023682},
{0.12536314129829406738, 0.01361711788922548294, 0.15130597352981567383}},

{{-0.15957543253898620605, -0.04027669504284858704, -0.04782877117395401001},
{-0.19520142674446105957, 0.09857849776744842529, 0.07692945748567581177},
{0.03809968754649162292, 0.11265379190444946289, 0.08864568918943405151}},

{{-0.07738422602415084839, 0.19046026468276977539, 0.14059136807918548584},
{-0.01983955688774585724, -0.18341527879238128662, -0.11765261739492416382},
{0.10460671782493591309, 0.18824891746044158936, -0.16874288022518157959}},

{{0.18505111336708068848, -0.09638701379299163818, 0.11286383122205734253},
{-0.19567410647869110107, -0.04720029234886169434, 0.04837817326188087463},
{-0.01702216826379299164, 0.06504660844802856445, -0.08770457655191421509}},

{{0.02505344897508621216, -0.15196998417377471924, 0.06229567900300025940},
{0.13587762415409088135, -0.17291365563869476318, 0.10134472697973251343},
{-0.17916364967823028564, 0.13354550302028656006, 0.11507749557495117188}},

{{-0.17508128285408020020, 0.11912909150123596191, -0.17938433587551116943},
{-0.18210121989250183105, 0.03674069792032241821, -0.03283869475126266479},
{-0.15691366791725158691, 0.15070591866970062256, -0.16928891837596893311}},

{{0.11713117361068725586, 0.16306866705417633057, 0.01792764663696289062},
{0.06789128482341766357, 0.12085680663585662842, 0.05882671847939491272},
{0.17567254602909088135, 0.02578682079911231995, -0.04026142507791519165}},

{{0.16831459105014801025, -0.17476162314414978027, 0.04967462643980979919},
{-0.11709648370742797852, 0.02829891443252563477, -0.15014153718948364258},
{-0.03959243744611740112, 0.18357698619365692139, 0.03536298498511314392}},

{{0.10684289038181304932, -0.01985063403844833374, -0.02440813928842544556},
{0.14139217138290405273, 0.01084100641310214996, -0.14918868243694305420},
{-0.13128355145454406738, -0.18175266683101654053, 0.11720536649227142334}},

{{0.01700799539685249329, -0.03280152007937431335, 0.11326085031032562256},
{-0.00190143124200403690, 0.18122473359107971191, 0.01143735740333795547},
{-0.06527569890022277832, -0.03088517487049102783, 0.13336040079593658447}},

{{-0.10309480875730514526, 0.15264695882797241211, 0.05354606732726097107},
{-0.08062963187694549561, -0.13500154018402099609, -0.14214172959327697754},
{0.13290132582187652588, 0.12832488119602203369, -0.03353369981050491333}},

{{0.04124081134796142578, 0.14797233045101165771, -0.04201245680451393127},
{-0.15941537916660308838, 0.01839376799762248993, 0.00296535249799489975},
{0.08934738487005233765, 0.19912759959697723389, -0.07903789728879928589}},

{{0.16328983008861541748, -0.01267245039343833923, 0.16182608902454376221},
{0.15119938552379608154, -0.15633814036846160889, 0.02710221707820892334},
{-0.11265767365694046021, -0.05883571133017539978, 0.13192114233970642090}}}};

const uint16_t shape_Conv2D_4_b = 1;
const float Conv2D_4_b[1] = {-0.00314520346000790596};
