/*
 * author : shtsno24
 * Date : 2019-10-18 23:26:07.349674
 *
 */
#pragma once
#include <stdint.h>

const uint16_t shape_Conv2D_1_w[] = {8, 16, 3, 3};
const float Conv2D_1_w[8][16][3][3] =
{{{{-0.00157496950123459101, 0.06168708577752113342, -0.03709844127297401428},
{0.13902539014816284180, -0.09560900926589965820, 0.05321650579571723938},
{0.11361868679523468018, 0.11251243203878402710, 0.12265360355377197266}},

{{-0.12479846179485321045, -0.12228692322969436646, -0.15305930376052856445},
{-0.02069843187928199768, -0.10036332160234451294, 0.11336544901132583618},
{-0.02950623258948326111, -0.10463014245033264160, 0.08216568827629089355}},

{{-0.07675100117921829224, -0.16158017516136169434, -0.10769578069448471069},
{-0.04985938221216201782, -0.03530696406960487366, 0.05588506162166595459},
{0.03010908700525760651, 0.14648286998271942139, 0.01847923360764980316}},

{{0.17655898630619049072, 0.11582972109317779541, -0.15215164422988891602},
{-0.06056392937898635864, -0.12047316879034042358, -0.02503216080367565155},
{-0.08981896936893463135, 0.10868023335933685303, -0.16721743345260620117}},

{{0.02391734905540943146, 0.02117082849144935608, 0.11046826839447021484},
{0.15401837229728698730, -0.00319155026227235794, -0.12657116353511810303},
{-0.13181330263614654541, 0.13540628552436828613, 0.08305488526821136475}},

{{-0.10683528333902359009, -0.16052533686161041260, -0.10788108408451080322},
{-0.11203198879957199097, 0.02967817895114421844, -0.12602695822715759277},
{-0.00670003378763794899, 0.03001753427088260651, 0.09332820028066635132}},

{{0.13324300944805145264, -0.16517360508441925049, 0.10682033747434616089},
{-0.08881158381700515747, 0.12141476571559906006, -0.12364556640386581421},
{-0.15928582847118377686, 0.07194232195615768433, 0.00067641993518918753}},

{{0.03946198523044586182, 0.12352495640516281128, -0.04070243239402770996},
{-0.04315093532204627991, -0.07611986249685287476, 0.03564918786287307739},
{0.12723858654499053955, -0.10308711230754852295, -0.12035965919494628906}},

{{-0.10319542884826660156, 0.11992558836936950684, 0.09977855533361434937},
{0.14659246802330017090, 0.03369744122028350830, -0.00634961063042283058},
{0.09165026247501373291, 0.04653691500425338745, -0.02658838778734207153}},

{{-0.01083004195243120193, 0.08423790335655212402, -0.02946965396404266357},
{0.13778519630432128906, 0.04462598264217376709, 0.11187855154275894165},
{0.04021041840314865112, 0.06084838509559631348, 0.12978772819042205811}},

{{-0.02687815576791763306, -0.00603809999302029610, 0.05647193267941474915},
{0.06411677598953247070, 0.01198252290487289429, -0.07741666585206985474},
{0.00463604042306542397, 0.09105628728866577148, 0.16806587576866149902}},

{{0.04526185244321823120, 0.04330707341432571411, -0.10168346017599105835},
{0.09241663664579391479, -0.08486483246088027954, 0.10033813863992691040},
{0.04605416581034660339, 0.11728783696889877319, 0.13327424228191375732}},

{{-0.08738297224044799805, 0.09340488910675048828, -0.15652750432491302490},
{-0.07940345257520675659, 0.06021999940276145935, 0.15500272810459136963},
{0.16227580606937408447, -0.00470321532338857651, 0.00303087825886905193}},

{{0.09686578065156936646, -0.16027022898197174072, 0.06571196764707565308},
{0.10299468040466308594, -0.16367956995964050293, -0.00439137034118175507},
{0.06830245256423950195, 0.11227672547101974487, 0.10474172234535217285}},

{{-0.04745019599795341492, 0.13551889359951019287, -0.03967480361461639404},
{-0.04395123943686485291, -0.13336987793445587158, -0.14291489124298095703},
{0.12828445434570312500, -0.08029926568269729614, -0.05438996851444244385}},

{{0.16179357469081878662, -0.01602892950177192688, 0.00295568024739623070},
{-0.00571405375376343727, -0.03907523304224014282, 0.01971107162535190582},
{-0.08406653255224227905, 0.01387511100620031357, -0.08478635549545288086}}},

{{{-0.11422102153301239014, 0.01358732301741838455, 0.16702573001384735107},
{0.08787912130355834961, -0.06437753140926361084, -0.12971526384353637695},
{0.15067593753337860107, 0.13535419106483459473, -0.13539396226406097412}},

{{-0.11094045639038085938, -0.10666687786579132080, 0.00834289472550153732},
{0.09425868839025497437, 0.04424933344125747681, 0.13112372159957885742},
{-0.08905202895402908325, 0.08208815008401870728, -0.06921020895242691040}},

{{0.13519410789012908936, -0.11213345825672149658, 0.08800487220287322998},
{0.04841217398643493652, 0.17573583126068115234, -0.01276873238384723663},
{0.02086339145898818970, 0.01321562472730875015, 0.17737451195716857910}},

{{0.05786058306694030762, 0.10709264129400253296, 0.13325630128383636475},
{-0.04873466491699218750, 0.13322992622852325439, 0.05611668154597282410},
{-0.05306608229875564575, 0.15286034345626831055, 0.14044553041458129883}},

{{-0.05196580663323402405, -0.00305407890118658543, -0.05095031112432479858},
{0.10333272814750671387, -0.08682913333177566528, 0.02255221828818321228},
{0.21602073311805725098, -0.00876920018345117569, 0.08604924380779266357}},

{{-0.07422353327274322510, 0.06452111899852752686, -0.08962789922952651978},
{-0.16365306079387664795, 0.02318165265023708344, 0.11086996644735336304},
{0.00510588055476546288, 0.00112087000161409378, -0.06852686405181884766}},

{{0.03028695285320281982, 0.10382359474897384644, 0.05593096092343330383},
{0.02294325642287731171, -0.15644107758998870850, -0.01358460728079080582},
{-0.08185600489377975464, -0.16196027398109436035, -0.00225650030188262463}},

{{-0.04848272353410720825, 0.11001909524202346802, 0.10164661705493927002},
{0.03515806794166564941, 0.02604265138506889343, -0.04769943654537200928},
{0.19160172343254089355, 0.07925697416067123413, 0.09605471044778823853}},

{{-0.15121755003929138184, 0.13489356637001037598, -0.14698910713195800781},
{-0.02268247678875923157, -0.04900077357888221741, -0.04462797939777374268},
{0.03041491471230983734, 0.18982173502445220947, -0.11345718801021575928}},

{{-0.15623830258846282959, -0.15496547520160675049, -0.03661800175905227661},
{0.11613526940345764160, -0.13160365819931030273, 0.01392366550862789154},
{-0.14435622096061706543, 0.02645977772772312164, -0.02131620980799198151}},

{{-0.01716003753244876862, 0.01468332204967737198, 0.03727562353014945984},
{0.05199514701962471008, 0.00243351096287369728, 0.12697033584117889404},
{0.14269793033599853516, 0.08575017750263214111, 0.08663305640220642090}},

{{-0.14360664784908294678, -0.11396138370037078857, -0.13998295366764068604},
{0.02770905382931232452, 0.07213979214429855347, 0.02977171167731285095},
{-0.03875127434730529785, 0.19135214388370513916, 0.14592720568180084229}},

{{-0.01060337107628583908, -0.11572624742984771729, -0.15588796138763427734},
{-0.07909672707319259644, -0.04724569618701934814, -0.10859039425849914551},
{-0.00820374954491853714, 0.05553497374057769775, -0.12069167196750640869}},

{{-0.10043806582689285278, -0.07075494527816772461, -0.09939662367105484009},
{-0.00631880341097712517, -0.13120193779468536377, -0.16101200878620147705},
{0.04810235276818275452, 0.05354465171694755554, 0.02627079188823699951}},

{{0.12389316409826278687, 0.04922880977392196655, -0.07671048492193222046},
{0.12726195156574249268, -0.08116529136896133423, -0.11991484463214874268},
{0.16753540933132171631, 0.07453790307044982910, 0.16715723276138305664}},

{{-0.08862718194723129272, 0.06752748042345046997, -0.09035249799489974976},
{-0.12908340990543365479, -0.02600443176925182343, -0.13701720535755157471},
{0.12243036180734634399, 0.03159031271934509277, 0.01017806958407163620}}},

{{{0.04587094485759735107, 0.13011495769023895264, -0.05592124909162521362},
{0.05334582924842834473, -0.10343621671199798584, -0.14592434465885162354},
{0.13332355022430419922, -0.08300542831420898438, 0.11307377368211746216}},

{{0.03508141636848449707, 0.07946310192346572876, 0.01992198266088962555},
{0.15755219757556915283, -0.11305268108844757080, -0.00536679150536656380},
{0.12053053081035614014, 0.04264273867011070251, 0.02447045594453811646}},

{{-0.04440596699714660645, -0.08397962898015975952, 0.01979091763496398926},
{-0.11688795685768127441, 0.06889716535806655884, -0.12445674836635589600},
{0.03258059918880462646, -0.13393367826938629150, -0.09951302409172058105}},

{{-0.09187700599431991577, 0.09217221289873123169, -0.06957105547189712524},
{0.01244161836802959442, -0.07373415678739547729, -0.13978283107280731201},
{0.11403995007276535034, 0.10904495418071746826, -0.06136447563767433167}},

{{0.08625146001577377319, -0.02411148510873317719, -0.01511467713862657547},
{-0.16809390485286712646, -0.05191189050674438477, 0.07699025422334671021},
{0.07969269901514053345, 0.14980000257492065430, 0.14777025580406188965}},

{{0.10843034833669662476, -0.06116585806012153625, 0.06094550713896751404},
{-0.01065095979720354080, 0.02995911985635757446, 0.11036677658557891846},
{0.11319071054458618164, -0.05431655049324035645, -0.03146530687808990479}},

{{0.07207857072353363037, 0.10353078693151473999, -0.15898983180522918701},
{0.00597547227516770363, -0.03579914569854736328, -0.02660689875483512878},
{-0.16285191476345062256, 0.02168736793100833893, -0.01894839666783809662}},

{{-0.15709574520587921143, 0.13374137878417968750, -0.02299921400845050812},
{-0.10996430367231369019, -0.02474597655236721039, 0.12366281449794769287},
{0.01202755048871040344, 0.12812966108322143555, -0.05263417214155197144}},

{{-0.01764166727662086487, 0.11628039181232452393, -0.16273105144500732422},
{-0.05175726488232612610, 0.08206934481859207153, 0.02170141413807868958},
{-0.12687313556671142578, 0.05009481310844421387, 0.05576856434345245361}},

{{0.03272972628474235535, -0.16419523954391479492, -0.01029687281697988510},
{0.14259378612041473389, -0.16523401439189910889, 0.12183765321969985962},
{-0.15665599703788757324, 0.12889747321605682373, 0.01603716611862182617}},

{{0.13246752321720123291, -0.09835848212242126465, 0.03015744686126708984},
{-0.01489382795989513397, 0.08276199549436569214, -0.06002276390790939331},
{-0.00598509842529892921, 0.12829083204269409180, 0.08863896876573562622}},

{{-0.16534647345542907715, -0.01187301054596900940, 0.03066434152424335480},
{-0.11288782954216003418, -0.07780224829912185669, -0.03302467986941337585},
{-0.01127236429601907730, 0.14736746251583099365, -0.14102700352668762207}},

{{0.14744850993156433105, -0.15090899169445037842, -0.04959201812744140625},
{-0.09017832577228546143, 0.08379153907299041748, 0.03904424607753753662},
{-0.12521624565124511719, -0.00705733615905046463, -0.06811206042766571045}},

{{-0.01690871082246303558, 0.05681065469980239868, -0.00303765176795423031},
{0.03913802281022071838, -0.12900990247726440430, -0.02454964071512222290},
{-0.02168163284659385681, 0.04406814277172088623, -0.13785003125667572021}},

{{0.03743241354823112488, 0.06136346235871315002, 0.03322860598564147949},
{0.04155232384800910950, 0.07402180880308151245, -0.04903377220034599304},
{0.09177855402231216431, 0.15001265704631805420, 0.05152595043182373047}},

{{-0.11753978580236434937, 0.02281209453940391541, -0.11384073644876480103},
{0.04041587933897972107, 0.00777566665783524513, -0.15157666802406311035},
{0.15785694122314453125, 0.02005094476044178009, 0.04736488312482833862}}},

{{{-0.02114488184452056885, -0.08286164700984954834, -0.11372086405754089355},
{0.09974193572998046875, 0.14617909491062164307, -0.15762728452682495117},
{0.15239843726158142090, -0.12744362652301788330, 0.04320598393678665161}},

{{-0.01714243181049823761, 0.01560018863528966904, -0.14027443528175354004},
{-0.13800404965877532959, -0.08622643351554870605, -0.08206351101398468018},
{-0.00667771650478243828, -0.04574372246861457825, -0.10439795255661010742}},

{{-0.13605436682701110840, 0.09638098627328872681, 0.04493132606148719788},
{-0.05214969441294670105, -0.15761484205722808838, -0.11279245465993881226},
{-0.14615945518016815186, 0.14105474948883056641, -0.12666101753711700439}},

{{-0.14421054720878601074, -0.13349457085132598877, -0.10603415220975875854},
{-0.14089243113994598389, 0.06131474301218986511, 0.03245256841182708740},
{0.01421960256993770599, 0.08448892831802368164, -0.14082349836826324463}},

{{0.04821309074759483337, 0.08549944311380386353, 0.12293755263090133667},
{-0.02493940480053424835, -0.09791149944067001343, 0.14268329739570617676},
{0.11305625736713409424, -0.09738729149103164673, 0.07322881370782852173}},

{{-0.11300434172153472900, -0.08389649540185928345, 0.07801449298858642578},
{0.06150873377919197083, 0.11672832816839218140, 0.00474571762606501579},
{0.01499605644494295120, 0.03002895042300224304, 0.04533471167087554932}},

{{0.12698569893836975098, -0.07527253776788711548, -0.11163695156574249268},
{-0.13010586798191070557, -0.12228175252676010132, -0.10247476398944854736},
{0.14311023056507110596, -0.13755796849727630615, -0.14883963763713836670}},

{{-0.07470877468585968018, 0.17046286165714263916, 0.13321168720722198486},
{0.17012657225131988525, 0.05036176741123199463, -0.04704107716679573059},
{-0.11462341248989105225, -0.08333569765090942383, -0.14688824117183685303}},

{{0.15090481936931610107, -0.06550054997205734253, -0.14923880994319915771},
{-0.10219095647335052490, -0.05879100784659385681, 0.06420189887285232544},
{-0.05413269251585006714, 0.00388035387732088566, 0.14392863214015960693}},

{{0.01652541011571884155, -0.14559845626354217529, 0.10040393471717834473},
{-0.10575132071971893311, -0.11075086891651153564, 0.02185865305364131927},
{0.08835309743881225586, 0.05430771037936210632, -0.11799432337284088135}},

{{0.05322115123271942139, 0.09444850683212280273, -0.07830184698104858398},
{-0.11935310810804367065, 0.07037000358104705811, -0.10668496042490005493},
{0.08831966668367385864, 0.14633670449256896973, -0.07473108917474746704}},

{{0.04044986516237258911, 0.10257573425769805908, -0.14875420928001403809},
{-0.04664531350135803223, -0.09035387635231018066, 0.15674951672554016113},
{-0.02685084566473960876, 0.08884300291538238525, 0.03926941379904747009}},

{{0.12479219585657119751, 0.06365118175745010376, -0.06562064588069915771},
{0.02134573273360729218, 0.06057785078883171082, 0.10921233892440795898},
{0.04675525054335594177, 0.05593118444085121155, -0.10721582919359207153}},

{{-0.04536805301904678345, -0.07263814657926559448, 0.10555955022573471069},
{0.05361309275031089783, 0.15076531469821929932, -0.14461043477058410645},
{-0.16026988625526428223, 0.02688343822956085205, -0.08328972011804580688}},

{{-0.11470749229192733765, 0.16152790188789367676, -0.01766902394592761993},
{0.08306226879358291626, 0.10922799259424209595, 0.00982192531228065491},
{0.07426680624485015869, -0.02769816480576992035, 0.13620452582836151123}},

{{-0.15010474622249603271, 0.12913528084754943848, -0.13555370271205902100},
{-0.10092819482088088989, -0.06274838745594024658, -0.05968555808067321777},
{0.02182657271623611450, -0.11451032012701034546, 0.14618955552577972412}}},

{{{-0.18626733124256134033, -0.01320749521255493164, -0.09473428130149841309},
{-0.02239054068922996521, -0.06110959127545356750, 0.04479682818055152893},
{-0.09249770641326904297, 0.14698295295238494873, -0.00605142861604690552}},

{{0.09181699156761169434, 0.05776846036314964294, -0.11610776185989379883},
{-0.01427408494055271149, 0.14037083089351654053, -0.09185511618852615356},
{-0.05709348991513252258, -0.10776237398386001587, -0.01041602343320846558}},

{{0.05181563645601272583, -0.07625717669725418091, 0.00762494700029492378},
{0.07685901224613189697, -0.11926202476024627686, -0.04966799542307853699},
{-0.06345769017934799194, -0.14662005007266998291, -0.03612698242068290710}},

{{0.12731613218784332275, -0.07889672368764877319, 0.02335695549845695496},
{-0.13960209488868713379, 0.16108532249927520752, -0.03621953353285789490},
{-0.10825775563716888428, 0.07831149548292160034, -0.15285125374794006348}},

{{0.08658966422080993652, 0.00118674524128437042, -0.08730752021074295044},
{-0.09256614744663238525, 0.07559966295957565308, -0.02819404564797878265},
{0.14603416621685028076, -0.15421077609062194824, 0.10993302613496780396}},

{{0.09540972858667373657, -0.13370464742183685303, 0.04288358613848686218},
{-0.03544100746512413025, 0.16587431728839874268, -0.04932386800646781921},
{0.10224062949419021606, -0.11191971600055694580, -0.12361141294240951538}},

{{0.09093057364225387573, 0.06071096286177635193, 0.12135115265846252441},
{-0.08856045454740524292, -0.10331103950738906860, -0.04941892251372337341},
{-0.00477758189663290977, -0.08202202618122100830, 0.02308624237775802612}},

{{-0.13962489366531372070, -0.07611350715160369873, 0.12494924664497375488},
{-0.02997933141887187958, 0.07127592712640762329, 0.15878970921039581299},
{-0.02626722306013107300, 0.09346503764390945435, 0.06661199778318405151}},

{{0.06218180805444717407, -0.04935624077916145325, 0.10406784713268280029},
{0.12521947920322418213, -0.06724454462528228760, -0.04802114889025688171},
{-0.10280774533748626709, -0.13292081654071807861, 0.15769068896770477295}},

{{-0.10543415695428848267, -0.14222355186939239502, 0.11077791452407836914},
{0.08993148803710937500, 0.12176594138145446777, -0.14066006243228912354},
{-0.04597794264554977417, -0.02754343859851360321, -0.02318517118692398071}},

{{0.07046838104724884033, 0.13506479561328887939, 0.07748208940029144287},
{0.07308577746152877808, -0.00913486443459987640, -0.16040955483913421631},
{-0.04002342000603675842, -0.07834020256996154785, -0.06468878686428070068}},

{{-0.02722634561359882355, -0.07483775168657302856, 0.05128189176321029663},
{0.13350471854209899902, 0.05161369591951370239, -0.11225599795579910278},
{0.09196788817644119263, -0.16129623353481292725, -0.11820708215236663818}},

{{-0.10568182915449142456, 0.01096985582262277603, -0.04937570542097091675},
{0.02474091574549674988, 0.15227168798446655273, -0.12628707289695739746},
{-0.14887647330760955811, -0.05188504979014396667, -0.04858768358826637268}},

{{0.02105523087084293365, 0.07547920942306518555, -0.14005334675312042236},
{-0.01897398754954338074, 0.12032154947519302368, -0.07068005204200744629},
{-0.14666925370693206787, -0.02124543301761150360, -0.00808224081993103027}},

{{0.07187432050704956055, 0.09762719273567199707, -0.08330760151147842407},
{-0.01282990165054798126, 0.09109917283058166504, -0.05888893455266952515},
{0.02912832424044609070, -0.13912065327167510986, -0.00014309784455690533}},

{{-0.11871735006570816040, -0.15422138571739196777, 0.06058493256568908691},
{-0.09444189816713333130, -0.12870888411998748779, 0.00301902182400226593},
{-0.05754601582884788513, 0.06420946121215820312, -0.16552709043025970459}}},

{{{0.14679491519927978516, 0.02336221747100353241, -0.05998630821704864502},
{0.14478734135627746582, 0.00238873879425227642, -0.02212456986308097839},
{-0.13946230709552764893, -0.17869098484516143799, 0.09313943982124328613}},

{{0.03767814487218856812, 0.16349935531616210938, 0.04616413637995719910},
{0.02576510794460773468, -0.14391537010669708252, 0.13943773508071899414},
{-0.16356758773326873779, 0.17335243523120880127, 0.06224511563777923584}},

{{0.01830153167247772217, -0.06185237318277359009, 0.14500571787357330322},
{0.04750261828303337097, -0.03138815611600875854, -0.05913948640227317810},
{-0.01776188053190708160, 0.02246024273335933685, -0.10411711037158966064}},

{{-0.13062767684459686279, 0.07715796679258346558, -0.10191605240106582642},
{-0.08089547604322433472, 0.08945067971944808960, -0.03896841406822204590},
{0.10274339467287063599, 0.01034020166844129562, 0.11577242612838745117}},

{{0.05377417430281639099, -0.10428299009799957275, 0.16390754282474517822},
{-0.10698568075895309448, 0.04040675237774848938, -0.09695620089769363403},
{0.09576465934514999390, -0.01361365523189306259, 0.08938977867364883423}},

{{0.09683159738779067993, -0.08460668474435806274, 0.12206790596246719360},
{-0.11107774078845977783, 0.14266191422939300537, 0.02351012267172336578},
{0.02583815902471542358, -0.03627483919262886047, 0.09871958941221237183}},

{{0.05340130627155303955, -0.15138889849185943604, 0.11500703543424606323},
{-0.06393977254629135132, -0.01770688779652118683, 0.15698726475238800049},
{0.14636507630348205566, -0.00867593847215175629, 0.13507458567619323730}},

{{0.02771991677582263947, -0.02880778536200523376, 0.01398133579641580582},
{-0.14935569465160369873, 0.13447172939777374268, -0.06927619129419326782},
{0.00054295163135975599, 0.07055059075355529785, 0.03077288717031478882}},

{{-0.02580477297306060791, -0.12753832340240478516, 0.17339508235454559326},
{0.07611571997404098511, 0.12918856739997863770, 0.16123189032077789307},
{-0.10344777256250381470, 0.03539476543664932251, 0.17410440742969512939}},

{{-0.01262976601719856262, -0.03990099206566810608, 0.06536282598972320557},
{0.09704740345478057861, -0.01145786885172128677, 0.09632927924394607544},
{-0.11287529766559600830, -0.11010201275348663330, 0.13862170279026031494}},

{{0.04068888723850250244, -0.03043820895254611969, 0.05229870602488517761},
{0.07602231949567794800, -0.00292305392213165760, -0.00959449075162410736},
{-0.12086483836174011230, 0.02883710525929927826, -0.11406514793634414673}},

{{-0.06758408993482589722, -0.16876254975795745850, 0.12858016788959503174},
{0.06741458177566528320, 0.10240258276462554932, -0.10030829906463623047},
{-0.12510104477405548096, -0.08665548264980316162, 0.17273376882076263428}},

{{0.15440453588962554932, 0.02086478658020496368, 0.01590210944414138794},
{-0.09526501595973968506, 0.08163832873106002808, 0.04906620830297470093},
{-0.02866325341165065765, -0.08087707310914993286, -0.15465681254863739014}},

{{0.16234800219535827637, 0.08769229799509048462, 0.02680754475295543671},
{-0.02701018564403057098, -0.05844723805785179138, -0.02877876535058021545},
{-0.07909185439348220825, 0.11868888139724731445, -0.09998851269483566284}},

{{0.03028634376823902130, 0.14183257520198822021, 0.12787218391895294189},
{0.05233238637447357178, -0.04796211794018745422, -0.08379125595092773438},
{-0.15520787239074707031, 0.04829765111207962036, -0.05099780485033988953}},

{{-0.16698628664016723633, 0.06691624224185943604, 0.16667662560939788818},
{0.14623486995697021484, -0.07170388847589492798, -0.12115598469972610474},
{0.06599611043930053711, -0.05346430465579032898, -0.15274284780025482178}}},

{{{0.02408942952752113342, 0.09158819913864135742, -0.04907723516225814819},
{0.05666621029376983643, -0.03881706669926643372, 0.06348195672035217285},
{0.08323816210031509399, -0.18239158391952514648, 0.07361163198947906494}},

{{-0.09691627323627471924, 0.07845477759838104248, 0.06751900911331176758},
{-0.08930763602256774902, 0.01646389812231063843, 0.13788433372974395752},
{-0.01149428449571132660, 0.13694925606250762939, -0.14895226061344146729}},

{{-0.03597715124487876892, -0.13557280600070953369, -0.00149784411769360304},
{-0.09156612306833267212, -0.14746379852294921875, -0.07196120172739028931},
{0.10381110757589340210, 0.05461903661489486694, 0.10639242827892303467}},

{{0.08523140102624893188, 0.17252662777900695801, 0.00011217424616916105},
{0.10496429353952407837, 0.02372534200549125671, 0.05536321923136711121},
{0.06574359536170959473, -0.13735842704772949219, 0.04259536042809486389}},

{{-0.01533432118594646454, -0.12492332607507705688, -0.03069617040455341339},
{-0.14211779832839965820, 0.00722024077549576759, -0.16014309227466583252},
{0.04650754481554031372, 0.00135525059886276722, 0.07127084583044052124}},

{{-0.07914979755878448486, 0.03480751812458038330, 0.00208556023426353931},
{0.11248621344566345215, -0.15723027288913726807, 0.09896332770586013794},
{-0.02259984984993934631, -0.09414100646972656250, -0.00741902645677328110}},

{{0.08857086300849914551, 0.13116064667701721191, -0.04466355592012405396},
{-0.11027197539806365967, -0.15751376748085021973, -0.16071748733520507812},
{0.14946144819259643555, 0.05590048059821128845, 0.04806997999548912048}},

{{0.01123669371008872986, 0.04344536736607551575, -0.01408092956990003586},
{0.13001722097396850586, -0.07521943747997283936, -0.00640421500429511070},
{-0.10464695841073989868, 0.11868284642696380615, 0.03849433362483978271}},

{{-0.15423677861690521240, 0.02491439506411552429, 0.04494830220937728882},
{0.11595020443201065063, -0.12020969390869140625, -0.10674541443586349487},
{-0.03331404924392700195, -0.08973602205514907837, -0.08526140451431274414}},

{{-0.03907235339283943176, 0.02044232189655303955, 0.10579231381416320801},
{0.10198605060577392578, -0.09632368385791778564, 0.08406037092208862305},
{0.10916207730770111084, -0.12584303319454193115, -0.02838973328471183777}},

{{-0.00888812635093927383, 0.10592833906412124634, 0.12284064292907714844},
{0.11096261441707611084, 0.15044915676116943359, -0.16349974274635314941},
{0.10682078450918197632, -0.17802056670188903809, 0.09657991677522659302}},

{{-0.08925496786832809448, -0.13987672328948974609, -0.10512878000736236572},
{-0.14756835997104644775, -0.14043518900871276855, -0.16342826187610626221},
{-0.03027844242751598358, 0.02492045983672142029, -0.15025776624679565430}},

{{0.09442782402038574219, -0.16107068955898284912, -0.10691250115633010864},
{-0.06230675056576728821, -0.07645115256309509277, 0.09093291312456130981},
{-0.13477809727191925049, -0.16718865931034088135, -0.09261543303728103638}},

{{-0.11379791051149368286, 0.10703694075345993042, 0.01872963272035121918},
{0.12486305087804794312, -0.14747792482376098633, -0.04544685035943984985},
{-0.04221760481595993042, 0.12519671022891998291, 0.00432056793943047523}},

{{0.03973011299967765808, -0.14566084742546081543, -0.06448820978403091431},
{-0.07930539548397064209, -0.13007593154907226562, -0.08747599273920059204},
{0.13115549087524414062, 0.11263938248157501221, 0.03531953692436218262}},

{{0.03074480406939983368, -0.10233952850103378296, 0.08580692857503890991},
{0.06765090674161911011, -0.11361365765333175659, -0.11917664110660552979},
{-0.11438627541065216064, -0.05420904234051704407, -0.11025366187095642090}}},

{{{0.02395375631749629974, 0.02316090464591979980, 0.12387524545192718506},
{-0.15679663419723510742, 0.13222117722034454346, -0.06439176946878433228},
{0.06573922187089920044, -0.09612940251827239990, 0.11840639263391494751}},

{{0.10862830281257629395, -0.13114736974239349365, 0.05746806040406227112},
{-0.09397403150796890259, -0.11010582745075225830, -0.03111664950847625732},
{-0.11891478300094604492, 0.02805835381150245667, 0.08978763967752456665}},

{{-0.02846518531441688538, -0.13802587985992431641, -0.10945649445056915283},
{-0.13877944648265838623, -0.01404266711324453354, 0.06146720796823501587},
{0.14224717020988464355, -0.06322866678237915039, -0.07850778847932815552}},

{{0.07273482531309127808, -0.12280548363924026489, -0.17768001556396484375},
{0.04584686458110809326, 0.03643063083291053772, 0.18930256366729736328},
{0.14785180985927581787, 0.18207840621471405029, -0.01561576686799526215}},

{{-0.08044185489416122437, 0.02104347012937068939, -0.16765183210372924805},
{0.06078667566180229187, 0.14384898543357849121, -0.01646209880709648132},
{0.03329740464687347412, -0.08419474959373474121, 0.14194639027118682861}},

{{-0.16168563067913055420, -0.07480149716138839722, 0.14666031301021575928},
{-0.02904945611953735352, -0.02894714288413524628, 0.00769621413201093674},
{0.15480263531208038330, 0.04073498770594596863, -0.06290236860513687134}},

{{0.09157479554414749146, 0.06790044158697128296, -0.07411026209592819214},
{-0.02157924883067607880, 0.03602799028158187866, -0.01692789047956466675},
{0.11191971600055694580, -0.07461342215538024902, -0.03957248851656913757}},

{{0.11873645335435867310, 0.11626420170068740845, -0.06220630183815956116},
{0.11243464052677154541, 0.21630777418613433838, 0.06903298944234848022},
{0.00207512453198432922, 0.09059887379407882690, -0.11357019841670989990}},

{{-0.06297554075717926025, 0.12833961844444274902, 0.00196598679758608341},
{-0.05482125282287597656, 0.05328232422471046448, -0.10245106369256973267},
{-0.16452626883983612061, -0.04119150340557098389, -0.03588563948869705200}},

{{-0.03168268501758575439, -0.07328135520219802856, -0.03521031513810157776},
{0.12485313415527343750, -0.07319801300764083862, 0.12332605570554733276},
{0.06828034669160842896, 0.03694193437695503235, 0.06373432278633117676}},

{{-0.03068988211452960968, -0.11366955190896987915, 0.12808418273925781250},
{0.06021845340728759766, -0.04519540444016456604, 0.15146405994892120361},
{0.09037008881568908691, -0.09469415992498397827, 0.08761616796255111694}},

{{-0.14311334490776062012, -0.08287424594163894653, 0.00450481195002794266},
{0.03326294943690299988, 0.16081544756889343262, 0.04009317979216575623},
{-0.10118164122104644775, 0.11440470069646835327, 0.13959696888923645020}},

{{0.00854248087853193283, -0.10443180054426193237, -0.02102070488035678864},
{-0.14786839485168457031, 0.09781447052955627441, -0.02163255773484706879},
{-0.11725661158561706543, 0.13049842417240142822, -0.00240900577045977116}},

{{-0.06760135293006896973, 0.09727346897125244141, 0.04806376621127128601},
{0.09251326322555541992, 0.11820383369922637939, 0.03314777463674545288},
{-0.08578646183013916016, -0.11059044301509857178, -0.08167280256748199463}},

{{-0.00522396340966224670, 0.16255910694599151611, 0.14419516921043395996},
{-0.09617007523775100708, -0.01294268760830163956, -0.08199518918991088867},
{-0.09522475302219390869, 0.10682015866041183472, 0.16500036418437957764}},

{{-0.05142488703131675720, -0.08911527693271636963, 0.02757331728935241699},
{-0.10935828834772109985, 0.08061575144529342651, 0.13461196422576904297},
{0.05517829954624176025, -0.10802228003740310669, -0.10639839619398117065}}}};

const uint16_t shape_Conv2D_1_b = 8;
const float Conv2D_1_b[8] = {0.00677753333002328873, -0.00202250597067177296, 0.05213553830981254578, 0.01085499767214059830, -0.05207776650786399841, 0.01421338692307472229, 0.06494250893592834473, -0.01565831154584884644};
