/*
 * author : shtsno24
 * Date : 2019-10-18 23:26:07.569700
 *
 */
#pragma once
#include <stdint.h>

const uint16_t shape_Conv2D_4_w[] = {1, 16, 3, 3};
const float Conv2D_4_w[1][16][3][3] =
{{{{0.15626037120819091797, -0.00481355888769030571, -0.10210493206977844238},
{0.07400342822074890137, 0.17804531753063201904, 0.06173520535230636597},
{-0.06887719035148620605, 0.08764950931072235107, 0.19512625038623809814}},

{{-0.20359684526920318604, -0.08419020473957061768, 0.17867112159729003906},
{-0.03229648247361183167, -0.02129135839641094208, -0.21290144324302673340},
{0.03701496869325637817, -0.13575761020183563232, 0.07244649529457092285}},

{{-0.02135867439210414886, -0.19561691582202911377, -0.14706392586231231689},
{0.09552796185016632080, -0.05908556282520294189, -0.13687421381473541260},
{-0.09584419429302215576, 0.13970281183719635010, 0.17342941462993621826}},

{{-0.11315617710351943970, -0.05869929865002632141, -0.16913442313671112061},
{0.09159713983535766602, -0.03187127038836479187, 0.06340446323156356812},
{-0.17047673463821411133, -0.19111043214797973633, 0.14090381562709808350}},

{{0.14992359280586242676, 0.01789922639727592468, 0.14075586199760437012},
{-0.14587315917015075684, 0.08224541693925857544, 0.13466422259807586670},
{0.01253114640712738037, -0.04697349295020103455, -0.07785418629646301270}},

{{0.15662589669227600098, -0.01300191786140203476, -0.01357626728713512421},
{-0.07662125676870346069, 0.16771969199180603027, 0.19642153382301330566},
{-0.09924732148647308350, -0.16426202654838562012, -0.13672654330730438232}},

{{0.15316915512084960938, 0.16108623147010803223, -0.12469793856143951416},
{0.04655635356903076172, 0.03741347417235374451, 0.04409622773528099060},
{0.05478969961404800415, 0.18859171867370605469, -0.09301766753196716309}},

{{0.09127957373857498169, 0.12134543061256408691, -0.11126342415809631348},
{-0.04770545661449432373, -0.12728485465049743652, -0.08474805206060409546},
{0.08944483846426010132, -0.19205024838447570801, -0.21575242280960083008}},

{{0.18071551620960235596, 0.12495187669992446899, 0.07186188548803329468},
{0.14694349467754364014, -0.01838531345129013062, -0.14497531950473785400},
{0.04475257173180580139, -0.07683511078357696533, 0.17965579032897949219}},

{{0.05768464505672454834, 0.14102859795093536377, 0.12910805642604827881},
{0.12775541841983795166, 0.14828097820281982422, 0.19249483942985534668},
{-0.01180850155651569366, 0.06627948582172393799, 0.01169028040021657944}},

{{-0.13171203434467315674, 0.09633509069681167603, -0.00247818347997963428},
{-0.10544204711914062500, -0.06126335635781288147, -0.12695503234863281250},
{0.05704779177904129028, 0.09365843981504440308, -0.19973810017108917236}},

{{0.09229709953069686890, -0.04007605463266372681, -0.19712157547473907471},
{0.01856388151645660400, 0.14956970512866973877, -0.17515844106674194336},
{0.16692817211151123047, -0.05957812815904617310, -0.16665722429752349854}},

{{-0.03065256588160991669, -0.08399645984172821045, -0.20989212393760681152},
{0.00403692247346043587, 0.01199947949498891830, 0.10350620746612548828},
{-0.09759641438722610474, -0.13897997140884399414, -0.19493950903415679932}},

{{0.03043921291828155518, -0.19217216968536376953, 0.01661932095885276794},
{-0.17258271574974060059, -0.19798412919044494629, 0.09379746764898300171},
{-0.15840779244899749756, 0.08567199110984802246, 0.09475204348564147949}},

{{-0.08936711400747299194, -0.13675686717033386230, -0.22628532350063323975},
{-0.14498308300971984863, -0.16644467413425445557, -0.03102642670273780823},
{0.09293404966592788696, -0.13819035887718200684, -0.06586661189794540405}},

{{-0.16742309927940368652, -0.02361330017447471619, 0.03932350873947143555},
{0.00617841677740216255, -0.17884732782840728760, -0.22556094825267791748},
{0.05881049856543540955, -0.21067352592945098877, -0.11602280288934707642}}}};

const uint16_t shape_Conv2D_4_b = 1;
const float Conv2D_4_b[1] = {-0.07751876860857009888};
