/*
 * author : shtsno24
 * Date : 2019-10-30 10:38:44.601150
 *
 */
#pragma once
#include <stdint.h>

const uint16_t shape_Conv2D_3_w[] = {16, 8, 3, 3};
const float Conv2D_3_w[16][8][3][3] =
{{{{-0.15395715832710266113, 0.06137748435139656067, 0.08340629935264587402},
{0.09605512768030166626, 0.13656742870807647705, 0.04276787862181663513},
{0.09755039960145950317, 0.08429375290870666504, -0.12435588985681533813}},

{{0.02213900908827781677, -0.02179320901632308960, 0.02689253725111484528},
{0.03793239593505859375, 0.16130900382995605469, 0.02926504611968994141},
{-0.14379613101482391357, -0.10108668357133865356, 0.02591527253389358521}},

{{-0.11174893379211425781, 0.13523304462432861328, 0.15347394347190856934},
{0.15540514886379241943, 0.10212224721908569336, 0.06101640313863754272},
{-0.02500696666538715363, 0.05001553520560264587, 0.10548349469900131226}},

{{0.09207354485988616943, -0.00378339597955346107, 0.08346306532621383667},
{-0.14227004349231719971, -0.03112955577671527863, -0.13103014230728149414},
{0.06974635273218154907, -0.15363964438438415527, 0.00024824848514981568}},

{{0.14181566238403320312, 0.02729834988713264465, 0.07826173305511474609},
{-0.12849149107933044434, -0.05654799565672874451, 0.01943130418658256531},
{0.01787132583558559418, 0.05178193375468254089, -0.08871760219335556030}},

{{-0.07005067914724349976, 0.11091354489326477051, -0.15859521925449371338},
{0.05740272626280784607, -0.05086324736475944519, 0.05667682737112045288},
{-0.11844782531261444092, -0.12892590463161468506, 0.05058877542614936829}},

{{-0.05913138389587402344, 0.09345127642154693604, 0.05053526163101196289},
{-0.15087625384330749512, -0.08336219936609268188, 0.12236542999744415283},
{0.07786986976861953735, -0.04347455501556396484, 0.15886680781841278076}},

{{-0.07311848551034927368, -0.14289088547229766846, 0.15542954206466674805},
{0.14483536779880523682, -0.16715171933174133301, -0.11032583564519882202},
{0.07757898420095443726, -0.00695860479027032852, -0.13011218607425689697}}},

{{{0.15123844146728515625, -0.05982393026351928711, 0.11436820030212402344},
{0.16291713714599609375, -0.05544626712799072266, 0.12457291036844253540},
{-0.06733829528093338013, 0.08211256563663482666, 0.05869355797767639160}},

{{-0.14936596155166625977, 0.09359335899353027344, -0.04003733024001121521},
{0.10727144777774810791, 0.03368292003870010376, -0.00142725638579577208},
{-0.07675946503877639771, -0.00298879225738346577, -0.11670836061239242554}},

{{-0.13804949820041656494, 0.09572964161634445190, 0.03664020821452140808},
{0.02729956619441509247, -0.00852005649358034134, -0.00598560180515050888},
{-0.06394781917333602905, 0.14823687076568603516, 0.13493727147579193115}},

{{-0.03642494231462478638, -0.06687527149915695190, 0.06960334628820419312},
{-0.12737795710563659668, 0.14297397434711456299, -0.16490459442138671875},
{-0.01473078224807977676, -0.11040541529655456543, 0.08236624300479888916}},

{{-0.06151190772652626038, -0.15054282546043395996, -0.11113239079713821411},
{-0.13252066075801849365, -0.01453420054167509079, -0.04336901009082794189},
{-0.03181053698062896729, -0.00912829861044883728, -0.14486737549304962158}},

{{0.08992767333984375000, 0.13925611972808837891, -0.13838161528110504150},
{-0.10856174677610397339, -0.15601421892642974854, 0.07251168787479400635},
{0.13270276784896850586, 0.15601986646652221680, 0.12683221697807312012}},

{{-0.07426985353231430054, -0.07211901992559432983, 0.13619610667228698730},
{0.15290553867816925049, -0.13554878532886505127, -0.04414033889770507812},
{-0.10219738632440567017, -0.11764501780271530151, -0.13485309481620788574}},

{{-0.14911581575870513916, 0.00149278959725052118, -0.14871560037136077881},
{0.13113857805728912354, 0.07501085847616195679, -0.00633993977680802345},
{-0.00902115833014249802, 0.06787418574094772339, 0.10348156839609146118}}},

{{{0.07621678709983825684, -0.04352390766143798828, -0.16151098906993865967},
{0.16015446186065673828, -0.14898395538330078125, -0.03733315318822860718},
{0.07406696677207946777, 0.00143782375380396843, 0.08301097899675369263}},

{{-0.03401999920606613159, -0.05332516878843307495, -0.15326245129108428955},
{-0.07334987819194793701, 0.05181981250643730164, -0.13013821840286254883},
{0.11017907410860061646, 0.06187876313924789429, -0.11501152068376541138}},

{{0.09917537868022918701, 0.02743903920054435730, 0.06267890334129333496},
{0.07510083168745040894, -0.08155964314937591553, 0.07399162650108337402},
{-0.10405320674180984497, 0.06333185732364654541, 0.07736475765705108643}},

{{0.16228505969047546387, -0.13400056958198547363, 0.09777916967868804932},
{0.09837670624256134033, -0.14993798732757568359, 0.13216324150562286377},
{0.02378764748573303223, 0.09626375883817672729, -0.03040870837867259979}},

{{0.14908689260482788086, -0.00584440911188721657, 0.00451675336807966232},
{-0.08318231999874114990, 0.03865266591310501099, -0.11613395065069198608},
{0.16608653962612152100, 0.04403817653656005859, -0.02689439989626407623}},

{{-0.10153871774673461914, -0.11609026789665222168, 0.07330856472253799438},
{0.05267622694373130798, 0.05652608349919319153, -0.10188943892717361450},
{0.08074571192264556885, -0.05483529716730117798, -0.01204519532620906830}},

{{0.00715651735663414001, 0.05669928342103958130, 0.08789132535457611084},
{0.04861768335103988647, -0.14503845572471618652, -0.14015127718448638916},
{-0.13764598965644836426, -0.11510334163904190063, 0.06884120404720306396}},

{{-0.02983700484037399292, -0.06312195956707000732, -0.03892578557133674622},
{-0.12360180169343948364, 0.11632774770259857178, 0.15711981058120727539},
{0.14504365622997283936, -0.15491889417171478271, -0.03774494677782058716}}},

{{{0.08686565607786178589, 0.04342060536146163940, -0.09768439829349517822},
{0.16101002693176269531, 0.14482025802135467529, 0.08935468643903732300},
{-0.10485450178384780884, -0.06345363706350326538, -0.00442818645387887955}},

{{0.03810467943549156189, -0.05204637348651885986, -0.16108234226703643799},
{-0.02503955550491809845, -0.00852215755730867386, 0.01148981787264347076},
{-0.13689050078392028809, -0.09723258018493652344, -0.12421210855245590210}},

{{-0.08766794204711914062, -0.01402501296252012253, -0.02392403595149517059},
{-0.00624056300148367882, -0.11876431852579116821, -0.05633933097124099731},
{-0.04173170402646064758, 0.10146645456552505493, 0.13685333728790283203}},

{{-0.15470509231090545654, 0.08187501877546310425, -0.16512441635131835938},
{0.14718136191368103027, 0.02590519376099109650, -0.10443691909313201904},
{0.01768082007765769958, 0.08146563917398452759, -0.05293669924139976501}},

{{-0.12154444307088851929, -0.14277440309524536133, 0.02477546036243438721},
{-0.16274505853652954102, -0.12955208122730255127, 0.08149869740009307861},
{-0.14486441016197204590, 0.04203147441148757935, 0.01731051318347454071}},

{{0.10247505456209182739, -0.07205224037170410156, 0.01059695146977901459},
{0.06174917891621589661, 0.05327605083584785461, 0.10428552329540252686},
{-0.06947790831327438354, -0.08465474098920822144, -0.13946758210659027100}},

{{0.01575803384184837341, 0.02847923152148723602, 0.09766455739736557007},
{0.13890038430690765381, 0.03023915179073810577, -0.03986477851867675781},
{0.16501925885677337646, 0.15547224879264831543, -0.09766177833080291748}},

{{0.10399109125137329102, 0.12325146049261093140, -0.08159483969211578369},
{0.10865145921707153320, 0.01654222421348094940, -0.02470606006681919098},
{-0.08303600549697875977, -0.12674129009246826172, 0.05884750932455062866}}},

{{{-0.13419370353221893311, -0.00329082412645220757, -0.10744537413120269775},
{-0.10427817702293395996, 0.06930927932262420654, 0.14077320694923400879},
{-0.16085027158260345459, 0.14803421497344970703, 0.02826310694217681885}},

{{-0.15824736654758453369, -0.09728540480136871338, -0.06539631634950637817},
{-0.16309888660907745361, -0.02978045679628849030, -0.09960369020700454712},
{-0.12091412395238876343, 0.06114435568451881409, -0.09053909778594970703}},

{{0.03643849119544029236, 0.16421310603618621826, 0.03316233307123184204},
{0.12394774705171585083, 0.01955944485962390900, -0.07938040047883987427},
{0.00760488724336028099, -0.02383971028029918671, -0.11723124235868453979}},

{{0.01567271538078784943, -0.14916181564331054688, 0.01020854152739048004},
{-0.09333862364292144775, 0.04309381544589996338, -0.05792496353387832642},
{-0.15578903257846832275, -0.02751141041517257690, 0.02390216290950775146}},

{{0.15963234007358551025, 0.01305704936385154724, 0.00590527523308992386},
{-0.05719544738531112671, 0.14965541660785675049, 0.08974064886569976807},
{0.03410399332642555237, 0.10757985711097717285, -0.08369948714971542358}},

{{-0.15668544173240661621, 0.02011524513363838196, 0.15932179987430572510},
{-0.06867934018373489380, 0.03703589364886283875, -0.02849055640399456024},
{-0.02152714878320693970, 0.02990093082189559937, -0.11360256373882293701}},

{{0.10284951329231262207, -0.00626742001622915268, 0.05741421133279800415},
{0.04330072924494743347, 0.12850350141525268555, 0.01218007504940032959},
{-0.12995038926601409912, 0.09615226089954376221, 0.05330699682235717773}},

{{0.00998618919402360916, 0.01875321194529533386, 0.15650323033332824707},
{0.15129263699054718018, 0.06173723563551902771, 0.01467485446482896805},
{-0.14253073930740356445, -0.08714585751295089722, 0.13131897151470184326}}},

{{{0.08234853297472000122, 0.07053057849407196045, -0.01149004325270652771},
{-0.04736436158418655396, 0.15170449018478393555, -0.08459776639938354492},
{-0.11271715164184570312, -0.12285076081752777100, 0.02665294148027896881}},

{{0.05415052548050880432, 0.00657557044178247452, 0.12867811322212219238},
{-0.11564602702856063843, 0.04979147762060165405, 0.12424127012491226196},
{-0.06561035662889480591, -0.10655281692743301392, -0.04638827592134475708}},

{{0.11579731851816177368, 0.02822029963135719299, -0.13660347461700439453},
{-0.16483180224895477295, -0.02521887794137001038, 0.08581811934709548950},
{0.07517020404338836670, -0.11431756615638732910, -0.10719332844018936157}},

{{0.12265334278345108032, 0.03603154420852661133, -0.15433166921138763428},
{0.07350930571556091309, 0.11833310127258300781, 0.03771644830703735352},
{0.00127650238573551178, 0.09887178242206573486, -0.07668807357549667358}},

{{0.04964322224259376526, -0.13499698042869567871, 0.03420382738113403320},
{-0.00922715384513139725, 0.14196795225143432617, 0.15490831434726715088},
{0.01825007051229476929, -0.08123990148305892944, 0.05135209858417510986}},

{{-0.16286584734916687012, -0.05108867958188056946, 0.15026266872882843018},
{0.10931812971830368042, 0.08989558368921279907, 0.00354735204018652439},
{-0.02937878295779228210, 0.07541640102863311768, 0.09629283100366592407}},

{{-0.00394618324935436249, 0.01593553461134433746, -0.05496369674801826477},
{-0.11103285104036331177, -0.12542377412319183350, -0.04121274501085281372},
{-0.15070112049579620361, -0.13105840981006622314, 0.01528018154203891754}},

{{-0.13984115421772003174, 0.08047688752412796021, -0.03526889532804489136},
{0.03712596371769905090, 0.10443136096000671387, -0.01691224426031112671},
{-0.05099100619554519653, 0.02119428664445877075, -0.15185193717479705811}}},

{{{0.00722879497334361076, 0.11380117386579513550, 0.11977937817573547363},
{0.15464921295642852783, -0.04810300841927528381, 0.06157407909631729126},
{-0.11260040849447250366, -0.13926222920417785645, 0.01466527860611677170}},

{{-0.00007961073424667120, 0.09543255716562271118, 0.03240800276398658752},
{-0.00747673213481903076, -0.13383838534355163574, -0.12626454234123229980},
{-0.11491306871175765991, -0.07470336556434631348, -0.11929237842559814453}},

{{-0.16228796541690826416, -0.14762604236602783203, -0.05913154035806655884},
{0.01778483390808105469, 0.10178486257791519165, 0.00422128057107329369},
{-0.08917974680662155151, 0.10885773599147796631, -0.13796186447143554688}},

{{0.10892723500728607178, -0.05404599010944366455, 0.12986741960048675537},
{-0.13600070774555206299, -0.03425595164299011230, -0.06553293764591217041},
{-0.10706362128257751465, -0.04340386763215065002, 0.10895624011754989624}},

{{-0.09668632596731185913, -0.15480452775955200195, -0.01654644124209880829},
{0.14595894515514373779, -0.14336453378200531006, -0.05140962079167366028},
{-0.02856230363249778748, -0.13541166484355926514, 0.00900656916201114655}},

{{-0.01137487031519412994, -0.11219234019517898560, -0.14908879995346069336},
{0.12689490616321563721, 0.08152532577514648438, 0.03490480035543441772},
{0.00256330193951725960, 0.05239267647266387939, -0.06780941039323806763}},

{{-0.04409106448292732239, -0.10516784340143203735, -0.04264701902866363525},
{-0.01861654035747051239, -0.07059129327535629272, 0.05078181251883506775},
{0.11719095706939697266, 0.10267669707536697388, -0.02224609069526195526}},

{{-0.02969134785234928131, 0.03194695338606834412, -0.03120540641248226166},
{0.02357337251305580139, -0.00442085368558764458, -0.07989908009767532349},
{-0.04780710116028785706, 0.15040999650955200195, 0.05275698006153106689}}},

{{{0.05329704657196998596, 0.08009783178567886353, -0.11283164471387863159},
{-0.14252535998821258545, -0.10370130836963653564, 0.09611673653125762939},
{-0.14282304048538208008, -0.10418363660573959351, 0.01796574704349040985}},

{{-0.16320168972015380859, -0.03075369074940681458, -0.03596765175461769104},
{0.06272622942924499512, 0.03835211321711540222, 0.01537755411118268967},
{-0.00714455591514706612, -0.14640574157238006592, 0.01630560867488384247}},

{{-0.09291911125183105469, -0.05318398773670196533, -0.10934568941593170166},
{-0.15150657296180725098, -0.04741242155432701111, 0.02378011867403984070},
{-0.15506798028945922852, 0.12090363353490829468, 0.12418887019157409668}},

{{-0.08139700442552566528, -0.05548263713717460632, -0.09523610025644302368},
{-0.04479067772626876831, -0.07254327833652496338, -0.04886060208082199097},
{0.11110340803861618042, 0.09879857301712036133, -0.16451357305049896240}},

{{0.11184707283973693848, -0.03929697722196578979, 0.08705388754606246948},
{-0.16315829753875732422, 0.07740680873394012451, -0.11113212257623672485},
{0.03801313042640686035, -0.05562469735741615295, 0.01047341711819171906}},

{{0.08406584709882736206, -0.09500333666801452637, 0.05350016802549362183},
{0.07959570735692977905, 0.00924902316182851791, 0.12237615883350372314},
{-0.01192334573715925217, 0.06183829531073570251, -0.12954764068126678467}},

{{-0.13763061165809631348, 0.11656081676483154297, -0.05694296211004257202},
{0.10902257263660430908, 0.09841817617416381836, 0.08585548400878906250},
{0.04090490937232971191, 0.03437703475356101990, 0.07027338445186614990}},

{{-0.01435968186706304550, 0.12562195956707000732, 0.00491932081058621407},
{-0.14760459959506988525, 0.01691846549510955811, -0.00697571411728858948},
{-0.02648232690989971161, 0.07720786333084106445, 0.13399322330951690674}}},

{{{0.08409931510686874390, -0.13480916619300842285, -0.01731975376605987549},
{-0.13250800967216491699, -0.05042724311351776123, 0.04251305758953094482},
{0.06992561370134353638, -0.13358239829540252686, -0.11476387083530426025}},

{{0.05231795087456703186, -0.00303290644660592079, -0.03478674218058586121},
{-0.14595825970172882080, 0.01641554757952690125, -0.08080903440713882446},
{-0.16546338796615600586, 0.05841962248086929321, 0.11658623814582824707}},

{{-0.12691569328308105469, -0.11784461885690689087, 0.13493232429027557373},
{0.13995900750160217285, -0.14102818071842193604, 0.01394528243690729141},
{-0.01768852025270462036, -0.01022180169820785522, -0.11317797750234603882}},

{{-0.12581509351730346680, 0.05562559515237808228, -0.09760053455829620361},
{-0.16138251125812530518, 0.11033122986555099487, -0.02340075001120567322},
{-0.07089682668447494507, -0.15826211869716644287, -0.15022341907024383545}},

{{-0.02615560218691825867, -0.12592610716819763184, -0.01538641005754470825},
{-0.04536022990942001343, 0.03143893554806709290, -0.15972429513931274414},
{0.11221376061439514160, 0.02659049443900585175, 0.05430518835783004761}},

{{0.10425045341253280640, 0.12684185802936553955, 0.05515268817543983459},
{0.12131718546152114868, 0.07026422023773193359, -0.09604551643133163452},
{-0.16628085076808929443, 0.15801832079887390137, 0.07489497959613800049}},

{{0.03679260239005088806, -0.01173945236951112747, -0.06646559387445449829},
{-0.12522473931312561035, 0.07546176016330718994, 0.01003960706293582916},
{0.02804448828101158142, -0.14372107386589050293, 0.03431440144777297974}},

{{0.02270404249429702759, 0.04351119697093963623, -0.11495280265808105469},
{0.08567622303962707520, -0.11041914671659469604, 0.07624472677707672119},
{-0.15959084033966064453, -0.09126329421997070312, -0.00439978670328855515}}},

{{{-0.10701531171798706055, -0.06245766580104827881, 0.09153863042593002319},
{-0.04713542386889457703, 0.06546377390623092651, 0.05920110270380973816},
{0.13594281673431396484, -0.14223410189151763916, 0.02911998704075813293}},

{{0.02913416549563407898, 0.05509307608008384705, 0.02735407091677188873},
{-0.12335266917943954468, 0.11979808658361434937, 0.09333686530590057373},
{0.12567804753780364990, 0.01173967774957418442, 0.10617046058177947998}},

{{0.03999063372611999512, -0.16131088137626647949, 0.06769108772277832031},
{-0.03406592085957527161, 0.02202202007174491882, -0.10671135783195495605},
{-0.14361128211021423340, -0.11318909376859664917, -0.10812491178512573242}},

{{-0.13208602368831634521, 0.14317147433757781982, -0.05635804310441017151},
{-0.16213534772396087646, 0.07040247321128845215, -0.02306471951305866241},
{-0.02612796239554882050, 0.03935631364583969116, 0.16214787960052490234}},

{{0.01457966305315494537, -0.02371842414140701294, -0.13543033599853515625},
{-0.07249197363853454590, -0.03959460556507110596, -0.14444515109062194824},
{0.15251424908638000488, -0.09465910494327545166, 0.04148899018764495850}},

{{0.05824337154626846313, 0.05022817850112915039, 0.09982390701770782471},
{-0.12171647697687149048, 0.03330370411276817322, 0.03859900310635566711},
{-0.10237943381071090698, -0.15717178583145141602, -0.08767294138669967651}},

{{0.03724365308880805969, -0.04054066166281700134, -0.03037627227604389191},
{-0.15777575969696044922, -0.10172176361083984375, -0.04338762164115905762},
{-0.08104996383190155029, -0.04087294638156890869, -0.01666751317679882050}},

{{0.14157499372959136963, 0.05080172047019004822, -0.12773786485195159912},
{0.07428538799285888672, 0.06900449842214584351, 0.16352111101150512695},
{-0.02858505770564079285, 0.14101392030715942383, -0.03073535114526748657}}},

{{{-0.06408691406250000000, -0.04310976713895797729, -0.10652005672454833984},
{-0.01669350452721118927, -0.02288405038416385651, 0.00911207869648933411},
{0.13196618854999542236, 0.06923658400774002075, -0.09058856964111328125}},

{{0.07287128269672393799, 0.13378006219863891602, -0.02783575095236301422},
{0.08151344209909439087, 0.01730502769351005554, 0.04292956739664077759},
{0.10322011262178421021, -0.14924527704715728760, 0.01098531764000654221}},

{{0.12124115973711013794, -0.11243539303541183472, -0.10929348319768905640},
{-0.10500971972942352295, 0.07853370159864425659, 0.10141618549823760986},
{-0.07357153296470642090, -0.05305431038141250610, -0.15690256655216217041}},

{{-0.02678903378546237946, 0.04020330682396888733, 0.09476746618747711182},
{-0.15850211679935455322, -0.06107286363840103149, 0.15121985971927642822},
{-0.09223843365907669067, 0.16222594678401947021, 0.13397933542728424072}},

{{0.10922853648662567139, 0.08260138332843780518, 0.04201584681868553162},
{-0.07002449780702590942, -0.02103634923696517944, 0.13646997511386871338},
{0.10638314485549926758, -0.16373339295387268066, -0.13232362270355224609}},

{{0.03823075070977210999, -0.14024129509925842285, -0.00385013828054070473},
{-0.08863360434770584106, -0.13142950832843780518, 0.06544044613838195801},
{-0.09557587653398513794, -0.02222662232816219330, 0.05824621394276618958}},

{{-0.14075095951557159424, -0.05553262680768966675, 0.00467417761683464050},
{0.16304297745227813721, -0.05359754338860511780, -0.13801656663417816162},
{-0.14458067715167999268, 0.04415629431605339050, 0.10059247910976409912}},

{{-0.12855139374732971191, 0.00523234205320477486, 0.10563983768224716187},
{-0.04818363860249519348, -0.08128264546394348145, -0.16511769592761993408},
{0.07810162752866744995, 0.02079398185014724731, -0.08253938704729080200}}},

{{{0.00307095143944025040, 0.14018566906452178955, 0.11148655414581298828},
{0.06223476678133010864, 0.05827666819095611572, -0.01472488604485988617},
{-0.10410306602716445923, 0.16405597329139709473, 0.13553996384143829346}},

{{-0.08893348276615142822, -0.15616856515407562256, -0.02607477083802223206},
{-0.16354873776435852051, 0.03721060603857040405, 0.02735045924782752991},
{0.15252953767776489258, -0.14428362250328063965, 0.15348960459232330322}},

{{-0.02807896398007869720, 0.15966501832008361816, 0.01411118730902671814},
{0.03923022747039794922, 0.13736367225646972656, 0.04244381189346313477},
{0.00688708666712045670, -0.04903415217995643616, -0.12011856585741043091}},

{{0.04454325139522552490, -0.05052699893712997437, 0.02360531315207481384},
{0.04997329786419868469, -0.05976768583059310913, -0.13485822081565856934},
{0.10899876803159713745, 0.11590977758169174194, -0.07693698257207870483}},

{{-0.08244605362415313721, 0.03347644582390785217, -0.04352055490016937256},
{0.13942578434944152832, 0.06731716543436050415, 0.16607539355754852295},
{0.11858548223972320557, -0.03070551529526710510, 0.05117956921458244324}},

{{0.05279964953660964966, -0.05772131681442260742, -0.02616401948034763336},
{-0.04606968536972999573, 0.14392217993736267090, -0.02440160140395164490},
{0.05923492088913917542, 0.10224281996488571167, 0.06016971543431282043}},

{{0.06387755274772644043, -0.14395491778850555420, -0.03843626007437705994},
{0.16523852944374084473, -0.04341626539826393127, -0.16270972788333892822},
{0.02283896319568157196, 0.15718130767345428467, 0.13991774618625640869}},

{{-0.14900618791580200195, 0.13431963324546813965, 0.08398497849702835083},
{0.09246322512626647949, -0.02380756661295890808, 0.07469799369573593140},
{0.08175125718116760254, 0.04019970074295997620, -0.14131294190883636475}}},

{{{-0.16179296374320983887, -0.03494653478264808655, -0.07303411513566970825},
{-0.11227162927389144897, 0.13697816431522369385, 0.00444534653797745705},
{-0.02519549615681171417, 0.01269133482128381729, 0.08574228733777999878}},

{{-0.14091444015502929688, 0.02338572405278682709, 0.00377161707729101181},
{0.14411140978336334229, -0.11990047246217727661, -0.15078179538249969482},
{-0.10906615853309631348, 0.14333191514015197754, 0.00947317108511924744}},

{{-0.00448214495554566383, 0.11943367868661880493, -0.06474456191062927246},
{-0.11935698240995407104, 0.01351452060043811798, -0.11104711145162582397},
{0.07508005946874618530, 0.10853310674428939819, 0.11879190802574157715}},

{{-0.10364561527967453003, -0.15679031610488891602, -0.05092968046665191650},
{-0.16037496924400329590, 0.16197079420089721680, -0.10662829130887985229},
{-0.11520408093929290771, -0.11815239489078521729, 0.13691660761833190918}},

{{-0.06337483972311019897, 0.02335603721439838409, 0.06368237733840942383},
{-0.08931864798069000244, 0.08405485004186630249, -0.04188281670212745667},
{0.12860317528247833252, -0.06195684894919395447, -0.12951561808586120605}},

{{0.14470882713794708252, 0.11329350620508193970, 0.13383512198925018311},
{0.09969310462474822998, -0.13756504654884338379, 0.03050995804369449615},
{-0.07951987534761428833, 0.04245387017726898193, -0.08190682530403137207}},

{{-0.13782623410224914551, 0.10257269442081451416, -0.15015693008899688721},
{0.02150687202811241150, -0.09116750210523605347, 0.01760254055261611938},
{-0.16607764363288879395, -0.08712545782327651978, -0.01361682824790477753}},

{{-0.15902979671955108643, -0.02716803178191184998, 0.14544749259948730469},
{0.00201713363640010357, -0.09332320094108581543, 0.02686008252203464508},
{0.13749334216117858887, -0.03936137631535530090, 0.10780513286590576172}}},

{{{-0.04262660443782806396, 0.04322542622685432434, 0.08042794466018676758},
{-0.04776988551020622253, 0.10082966834306716919, -0.00642325263470411301},
{0.06272493302822113037, 0.03625364229083061218, 0.03246435895562171936}},

{{0.00085519050480797887, 0.02796368300914764404, 0.13043470680713653564},
{0.04339162260293960571, -0.11776185780763626099, 0.14682203531265258789},
{0.08519858121871948242, -0.13028949499130249023, -0.15135137736797332764}},

{{-0.09589342027902603149, -0.02609116397798061371, -0.00023766529920976609},
{0.03784024342894554138, 0.04922613129019737244, -0.14199239015579223633},
{0.05498666688799858093, -0.00165804824791848660, 0.14004005491733551025}},

{{0.05629535764455795288, 0.04411752894520759583, -0.08075515925884246826},
{0.00462943827733397484, -0.08085200190544128418, 0.03169339522719383240},
{0.13691878318786621094, -0.16463001072406768799, -0.03904446959495544434}},

{{-0.05856624245643615723, -0.11815339326858520508, 0.04398680105805397034},
{-0.12258662283420562744, -0.13597208261489868164, 0.08242627233266830444},
{0.15257549285888671875, 0.06045021116733551025, -0.05269566178321838379}},

{{0.12605430185794830322, 0.02716049179434776306, 0.16640387475490570068},
{-0.05581176653504371643, 0.07399417459964752197, -0.12184609472751617432},
{-0.10284407436847686768, 0.04510425776243209839, -0.15522842109203338623}},

{{0.04450988397002220154, -0.14581713080406188965, 0.13918580114841461182},
{0.10561753809452056885, 0.08935220539569854736, 0.09859910607337951660},
{-0.05258763954043388367, 0.00538712600246071815, 0.07167118787765502930}},

{{0.12507891654968261719, 0.02600627578794956207, -0.01987053640186786652},
{0.07139442116022109985, 0.16573347151279449463, -0.02608521282672882080},
{-0.12692725658416748047, 0.02361677773296833038, -0.00438632909208536148}}},

{{{-0.16232347488403320312, -0.09183293581008911133, -0.14933763444423675537},
{-0.15257722139358520508, -0.13152635097503662109, -0.12732268869876861572},
{0.09026191383600234985, 0.03940906003117561340, -0.07245215028524398804}},

{{0.11066715419292449951, 0.07229599356651306152, 0.12591888010501861572},
{-0.13896757364273071289, 0.06959100812673568726, 0.00993480160832405090},
{-0.01799198985099792480, -0.10896862298250198364, -0.07182985544204711914}},

{{0.09858570247888565063, 0.05983389914035797119, 0.02898988313972949982},
{0.03777867928147315979, -0.07148246467113494873, 0.04366787895560264587},
{-0.07983181625604629517, 0.02250861190259456635, -0.13302250206470489502}},

{{-0.12784907221794128418, -0.02235290966928005219, 0.16101019084453582764},
{0.14918999373912811279, 0.08820609748363494873, 0.14607955515384674072},
{0.15280966460704803467, 0.12548299133777618408, 0.00809004716575145721}},

{{0.00663000158965587616, -0.00452372711151838303, 0.01048984564840793610},
{0.09803909808397293091, -0.08196780830621719360, -0.15277484059333801270},
{0.08664932101964950562, -0.00813165307044982910, 0.14277692139148712158}},

{{-0.05912474915385246277, 0.05360628664493560791, 0.03941974416375160217},
{0.01645396463572978973, 0.12368577718734741211, 0.09539114683866500854},
{0.02748181484639644623, 0.12573628127574920654, 0.10191228240728378296}},

{{-0.09379219263792037964, -0.02825966291129589081, 0.06323332339525222778},
{0.06350728869438171387, 0.14490965008735656738, 0.01905889622867107391},
{0.03013748675584793091, -0.04409513249993324280, -0.00860489904880523682}},

{{0.02955523878335952759, -0.08776884526014328003, 0.15363860130310058594},
{0.05190747603774070740, -0.00039675066363997757, -0.13647773861885070801},
{0.05810695514082908630, -0.09241376072168350220, 0.14662750065326690674}}},

{{{0.15610712766647338867, 0.15762996673583984375, 0.04699083045125007629},
{0.10335654020309448242, -0.06147433444857597351, -0.13623541593551635742},
{-0.01487583667039871216, -0.08356454223394393921, -0.10953836143016815186}},

{{0.13042549788951873779, 0.13411919772624969482, -0.07052535563707351685},
{0.07617842406034469604, -0.01839255355298519135, 0.12727195024490356445},
{-0.03768661618232727051, -0.08766543120145797729, 0.15539081394672393799}},

{{0.12851062417030334473, -0.11864916235208511353, -0.01350408792495727539},
{0.04475103691220283508, -0.10608331114053726196, 0.04143055900931358337},
{0.04790118709206581116, 0.00773312570527195930, -0.12445105612277984619}},

{{-0.00621774233877658844, 0.04148652404546737671, 0.06296022236347198486},
{-0.00208520842716097832, -0.00601093890145421028, -0.05030371993780136108},
{0.12735804915428161621, 0.07354464381933212280, -0.13810558617115020752}},

{{0.13498452305793762207, -0.16635067760944366455, 0.10732531547546386719},
{0.04513116925954818726, 0.01023903768509626389, 0.04465235397219657898},
{-0.03746360167860984802, 0.05506240203976631165, -0.00189379975199699402}},

{{-0.06369808316230773926, 0.06172178685665130615, -0.12499473243951797485},
{-0.02915580198168754578, 0.15827204287052154541, 0.16547784209251403809},
{0.14918720722198486328, 0.11034008115530014038, 0.12964689731597900391}},

{{-0.09142300486564636230, -0.00953724328428506851, -0.02010268531739711761},
{-0.12802653014659881592, -0.12419650703668594360, -0.01171845290809869766},
{0.11400784552097320557, -0.03534311801195144653, 0.12004949152469635010}},

{{0.05466256290674209595, -0.02598659507930278778, 0.13573916256427764893},
{-0.00255842530168592930, -0.08017417043447494507, -0.02692038565874099731},
{-0.01503099128603935242, 0.16389526426792144775, 0.06163370236754417419}}}};

const uint16_t shape_Conv2D_3_b = 16;
const float Conv2D_3_b[16] = {-0.00349787389859557152, -0.00267303269356489182, 0.00674316985532641411, -0.00526414532214403152, -0.00051435839850455523, -0.00289808749221265316, -0.00213274965062737465, -0.00078727322397753596, 0.00401742430403828621, -0.00124771427363157272, -0.00358796888031065464, 0.00317632965743541718, 0.00122669222764670849, -0.00066715886350721121, -0.00283693056553602219, -0.00273297610692679882};
