/*
 * author : shtsno24
 * Date : 2019-10-30 10:38:44.464703
 * array_type : int16
 * fractal_width : 14 bit
 * bit_width : 16 bit
 *
 */
#pragma once
#include <stdint.h>

#define data_width_Conv2D_1 16
#define fractal_width_Conv2D_1 14

const uint16_t shape_Conv2D_1_w[] = {8, 16, 3, 3};
const int16_t Conv2D_1_w[8][16][3][3] =
{{{{-2662,  -404,  -170},
{ -301,  1463,  1346},
{ -973,  -652,  1506}},

{{  589,   817,  -831},
{-2703, -1442,   834},
{-1264,   802, -2655}},

{{  331, -1112,  -650},
{  138, -2107,  -501},
{ 2486, -2723,  -490}},

{{  844,  1425,  -178},
{-2645, -2222, -2694},
{  265,  2281,   110}},

{{ 2434,   475,  2245},
{ 1254,   536,   845},
{ 2678, -1089,  1685}},

{{  314,  1599,  1623},
{  535, -1461,  -766},
{ 2046, -2287,   265}},

{{-1182,  -871, -2634},
{  162,  -504, -2046},
{ 2303, -2722, -2400}},

{{-1053,   758, -1102},
{ -969,  1380, -2672},
{ 1318,   221,  -712}},

{{-1049, -2378,  2404},
{ 1615, -2419,  2192},
{-1950, -1150, -2252}},

{{ 1280,  2205,  1131},
{  712,  2064, -2506},
{-2175,  2660, -2591}},

{{-2539,  -174, -2383},
{ 2314,  1266,  2602},
{ 2227,  -332,  2163}},

{{ 1890,  -769, -2160},
{ 1449,   332,  2441},
{-1658,  -100,   101}},

{{-2012,  2643,   460},
{ 1483,   532,  2196},
{-1759, -1120,  -279}},

{{-1332, -1680,  -872},
{  837, -2484,  -772},
{-2413,  2169,  -559}},

{{-2098,  -783,  -797},
{ 1120, -2254, -2016},
{-2488,  1025,  1078}},

{{ 1007, -1737,  1592},
{ -197,   110,  -378},
{-2624,  -413,   947}}},

{{{ 2224,  1532,  2187},
{  434,  -761,   273},
{-1046,  -469,   397}},

{{-2473, -2253, -2486},
{-1637,  1834,  -198},
{-2414,  1319,  -568}},

{{ -614,    93,  2075},
{ 1282, -1304, -2025},
{ 1186, -2315,    27}},

{{ 2341, -1299, -1075},
{  186,  -873,   447},
{-1124, -2414,  1381}},

{{-1519,   229,  -534},
{ 2408, -1257,   112},
{-1323, -1551, -1249}},

{{   63, -2351,  -570},
{ 1353,   104, -1387},
{ -282,   943,   659}},

{{ 2498, -2128,    -7},
{ 1410,  1223,  2580},
{  895,  1006,   274}},

{{  959,  1772, -2264},
{  308,   704,    51},
{-1187,  2419,  2464}},

{{ -320, -1136, -2703},
{-1608, -1972,  1482},
{ 2527,  2208,  1919}},

{{  -32,  2324,  2222},
{-2607,  2334,    49},
{-2582, -2098,  1515}},

{{  371,  2180,   -85},
{-2319, -2447,  2399},
{   78, -2752,  -988}},

{{ 2464, -1369,   760},
{ -102, -1063, -1773},
{   54,  2591,  2394}},

{{  -39,   675,  1937},
{  466,   321,   471},
{-2023, -1988,   628}},

{{ 1470,   398,  2347},
{ 1774,   576,  2384},
{ 1976,  -941, -1165}},

{{-2283, -1458, -1975},
{  614,  -836,  -206},
{ 1810, -1646,  1490}},

{{ -520,  1058,  2255},
{  418,  2354, -1048},
{-1222, -1806,  1927}}},

{{{-1922,   -64, -1414},
{  547, -2489,   273},
{ 1977,  -335, -1239}},

{{-2106,  1840,  1623},
{ 1011,  1497,  -966},
{ -234, -1729,   977}},

{{ -975,   850,  2548},
{ 2325,  1337, -2583},
{ -378, -1069,  -969}},

{{ 1168,  2708,  1067},
{-2021,   994, -2596},
{-2306,  -117,  -290}},

{{-1245,  1068,    79},
{  387,   329,  1894},
{-1858,  2744, -2377}},

{{ 1636, -1944,   836},
{ 2377, -1165, -1179},
{-1892,   929, -1256}},

{{-1537, -1766, -2013},
{ -423,  1562,  2412},
{-2157,   493, -1813}},

{{ 1599, -1035,   132},
{ 2106,   206,  -903},
{ -925,  2572, -2085}},

{{ 1175,  1457,  1631},
{-1503, -2140,  1835},
{-2236,  -573,  -272}},

{{  718, -1405,  -369},
{ -337,  2643,  -434},
{ 1651, -1356,  -169}},

{{-2569,  1140,   407},
{-2422,  2162, -2342},
{  619,  -626,   940}},

{{ -124,  -355, -1715},
{  576,  -631,   -23},
{ 2135,  -188,   449}},

{{ 2606,   615,  -176},
{ -972, -1464, -1162},
{ 1754,  2336,   593}},

{{-2176,    84,  1840},
{-1407,   926, -2380},
{  -83,  2052,  -816}},

{{-1552,  1621,   913},
{ 2079, -1132,  -308},
{-2662,  -420,  1222}},

{{-2164,  -772,  2196},
{-1549,   408, -1299},
{ 1302,  1633, -1940}}},

{{{  931,  -349,  2429},
{-2236, -2099,  1420},
{ -400,  -361,  1293}},

{{  192,    82,   794},
{  620,  2561, -2230},
{-1481, -1029,  -923}},

{{ -249,   407,   980},
{ 1916,  2279,    56},
{-2453, -1102,  1212}},

{{-1085,   928,  2616},
{-2452,   778,  2740},
{ -732, -1869,  1437}},

{{  145,   932, -1661},
{  919, -2618,  2360},
{  946, -2042,  2632}},

{{   45,   -96, -1680},
{ 2148,  -558, -2051},
{ 1549,  -151,  2455}},

{{ 2070,  2596, -2290},
{ 2575, -2054,  -636},
{ 2437,  1281,   933}},

{{ 1553, -1546, -2679},
{ -228,  1619,   326},
{-1248,  2390, -2641}},

{{ 2625, -1183,  2697},
{  726,  1521,  -858},
{ 2193,  1320, -1225}},

{{ 1765, -1719,  -886},
{-1892, -2387, -1735},
{-1427,  -698,  1104}},

{{-1845,  1325,  1763},
{  908,  2442,  2076},
{-2570,  2468, -2637}},

{{   83,  2474,  2495},
{ 1674,  -892,  2181},
{ -810,  -857, -1217}},

{{  335,  -257,  1708},
{ -460,  2365,  2022},
{ 2122, -1510,  -308}},

{{ -165,  2263, -1842},
{ -205,  1336, -1327},
{-2407, -1099, -2094}},

{{ 2702,   322,  2646},
{ 2523, -1502,  2055},
{-2427,   388,   831}},

{{ -247,  -756,  2656},
{ -143, -1080,  2289},
{-1927, -1760,   133}}},

{{{  865, -1878, -1087},
{-2069, -1537,     8},
{  271, -2412, -1640}},

{{ 2356, -1740, -1910},
{ 2441,   192, -2408},
{  307,   792,  -734}},

{{ 2365,  2644, -2615},
{ 1093,  1296,   937},
{ 2421,  1902,  2371}},

{{-2641, -2028,  1849},
{-1153,  -487, -1053},
{    5,  1610,  2119}},

{{ -342, -1043,  1148},
{-2030,  -595,   985},
{ -169,  1834, -1193}},

{{-1084,  2389,  2193},
{ -867,  -671,  1321},
{ 1189,    92,  2099}},

{{-2130,   788,  1133},
{-1822,  -394, -2345},
{  299,  -211, -2728}},

{{ 2690, -2138,  2179},
{ -589,   -58,  1405},
{ 2366,  1800,  2178}},

{{-2443,  1297,  2185},
{-2095,  1350,   479},
{  874,  -702,  -891}},

{{ -598,  -477,  1080},
{-1896, -2299,  1571},
{ -135, -1680, -2492}},

{{  -33,   690,  1596},
{-1842, -2627,  1511},
{ -974,  1690, -1597}},

{{-2544,  1878,  2327},
{ -327, -2184,   578},
{ 1332,  1348,   975}},

{{ 1954,  1529, -2569},
{  -96,   830,    21},
{ 1579, -2535,  2517}},

{{ -732,  1579,   948},
{ -919,   221,   281},
{-2439,  -142, -1435}},

{{-1782, -2367,  1542},
{ 1535,   -85, -2678},
{ 2217, -1244, -2416}},

{{ 2162,  2506, -2444},
{ 1788, -1127,  -599},
{-2060, -2310,  1246}}},

{{{-2092,  1633,    24},
{ 1513, -1455, -1927},
{-1992,  1556, -2013}},

{{-1694,  2374,  1692},
{-1324, -1844,   210},
{ 2637,  1176,  -485}},

{{  916, -2089,   531},
{  277, -2036,  -600},
{ 1612,  -415, -1006}},

{{ -269,  1180,  2730},
{-1109,  -803,  1889},
{ -127,  2462,  2626}},

{{   11,  2111, -2348},
{ 1506, -1127,  1115},
{ 2460, -1550,  1648}},

{{ 2514,   -86, -1705},
{  596,   939, -2281},
{-1457, -1814,  2463}},

{{ -609,   925,  -556},
{-1419, -1455,   467},
{ 2495,  1265, -1558}},

{{-1103,   951, -2611},
{ 2119, -1335, -1276},
{-1200, -2473,   628}},

{{-1156,   962, -1244},
{  884,   969,  1381},
{ 1153,  1647,   -76}},

{{-1550,   213, -1217},
{  666, -1783,  1483},
{ 1277,  2600,   692}},

{{-1772, -2268, -2505},
{-1129, -1133,  2617},
{ 1202,  1646,  -127}},

{{ -505,  -875, -1654},
{ 1050, -1913, -1730},
{-2216,  -236,  1776}},

{{ 2495,  1970, -1887},
{ 1966,   700,   521},
{ 1081, -1127,  2571}},

{{-1232,  2494,  1617},
{-1084,  1611,  1270},
{-1862,  1841, -1929}},

{{  -71,  1151,  2308},
{  635,  2263, -2119},
{-1632,  2508, -1443}},

{{-1666,  -154, -1168},
{ -396,  -632, -1525},
{ 2233,  -252, -1092}}},

{{{  135,   307,  1599},
{  316,  1997,  -247},
{  -58, -2220, -2708}},

{{  900, -2349,  1161},
{-1977,  1529,   372},
{-2600,  1160, -1528}},

{{ 1978,  1643,  -922},
{ 2317,  1072, -1294},
{ 1456,  -311, -2086}},

{{-2068,   899,  2229},
{ -314,  1411,  1846},
{  336, -2469,   676}},

{{-2556, -2180,  -465},
{-2692,  -907,  -843},
{ -799,  2000,  2437}},

{{  961,  -327,   -71},
{-2536,  2287,  -172},
{ -263,  2604,  -112}},

{{  678, -1986,   675},
{-2392, -1899, -1778},
{ 1222,   555,  1634}},

{{ -253, -1777,   940},
{  -48,  1950,   937},
{ -421,  2213,  2131}},

{{-1506,  -717,   683},
{-2374,  2023, -1562},
{ 2094,  1685, -2018}},

{{ 2168,  2268,   566},
{-1823,  -191, -2264},
{  230,   581, -1457}},

{{ 2068,   -51, -1997},
{-1318,  1904, -1259},
{ -526,  2434,  1485}},

{{ 1441,  1658, -1331},
{ 1248,  -346, -1424},
{-1484, -2435,  2602}},

{{-1538,  -473, -2437},
{ -563,  -440, -1303},
{ -443, -1745,  2226}},

{{-1334,    59, -1441},
{-2063,  1778,  -600},
{ 1388, -1991,  1991}},

{{ -612, -1855,   436},
{ -106,    46,   796},
{-1230, -1205,  -229}},

{{ -777,  1101, -1483},
{ -569,  1325,  -979},
{  931,  -455, -2259}}},

{{{ -769, -2129,  -669},
{ -756, -2435, -1088},
{ 1957, -1780,  1171}},

{{-2221,   303, -1186},
{-2206,  2588, -1895},
{  501,   460,   626}},

{{-1195,  -354,   906},
{-1848,   780,   303},
{ 1991, -1365,  1931}},

{{-2493, -1096,  -467},
{ 2006,  -792,  2628},
{-1838, -2529,   672}},

{{ -596,  1830,  1811},
{ 2473, -1030,    80},
{ 1512,   206,   414}},

{{ 1244, -1374,  -417},
{ 2435, -2631,   703},
{-2598,  1406,  2243}},

{{ -201,   976,  1678},
{ -309,  -255,  1519},
{-1667,  -710,  1970}},

{{-1124,  -845,  2094},
{-1522,  1434,  1726},
{-2140, -2005, -1153}},

{{ 1032,  -563, -1740},
{ -435, -1820,  1121},
{ 2162, -1458,   537}},

{{ 2108,  1435,  -552},
{  219, -2141,   816},
{ -128,  -481, -1935}},

{{ -626,  -439,  -179},
{ -338, -1940,  -167},
{   48, -1662,   291}},

{{ 1822,  1611,  1469},
{  272,   801,  1275},
{  869, -2092,  2318}},

{{ 2041,   188,  1128},
{-2406, -2541,   313},
{  -34,  -945,  1776}},

{{  457,  1172, -2753},
{  382, -1977, -2328},
{ 1377, -2209,  -636}},

{{  332,   699,  1518},
{  650,   451,  1628},
{ -120, -1969, -2290}},

{{ -216,   749,   595},
{ -758,   284, -1743},
{  837,  -973,    -3}}}};

const uint16_t shape_Conv2D_1_b = 8;
const int16_t Conv2D_1_b[8] = {  -53,   -56,    17,     8,    28,   -16,   -40,   -96};
