/*
 * author : shtsno24
 * Date : 2019-10-30 10:38:44.553189
 *
 */
#pragma once
#include <stdint.h>

const uint16_t shape_Conv2D_2_w[] = {8, 8, 3, 3};
const float Conv2D_2_w[8][8][3][3] =
{{{{-0.14518557488918304443, -0.06621535122394561768, -0.07270964235067367554},
{-0.11364779621362686157, -0.10469249635934829712, -0.05196873098611831665},
{0.04274494573473930359, 0.13675157725811004639, 0.18426048755645751953}},

{{0.02364145405590534210, -0.09371218085289001465, -0.07258256524801254272},
{0.17295637726783752441, 0.18147465586662292480, 0.18656234443187713623},
{0.10284642130136489868, -0.14824655652046203613, 0.10619045048952102661}},

{{-0.19274184107780456543, -0.07831323891878128052, -0.05718076229095458984},
{0.02958483994007110596, 0.00295755569823086262, 0.03800100088119506836},
{-0.02245992980897426605, 0.12809479236602783203, -0.18872730433940887451}},

{{-0.06777266412973403931, 0.17126485705375671387, -0.12288435548543930054},
{0.00239933235570788383, -0.14207184314727783203, 0.06026667729020118713},
{0.18703447282314300537, 0.09525217115879058838, 0.05341576412320137024}},

{{0.09005818516016006470, -0.10666178166866302490, -0.20363286137580871582},
{-0.00237610097974538803, -0.13148695230484008789, -0.09338555485010147095},
{0.12243238091468811035, -0.15623559057712554932, 0.07965611666440963745}},

{{-0.08319515734910964966, 0.19284337759017944336, 0.03079897351562976837},
{0.04891980811953544617, -0.07536894828081130981, 0.05581700056791305542},
{-0.01527270022779703140, -0.18394967913627624512, -0.20028306543827056885}},

{{0.10996510088443756104, 0.08119349181652069092, 0.04134767502546310425},
{0.02835146151483058929, 0.01045529823750257492, 0.02727559581398963928},
{-0.07560975104570388794, 0.20193034410476684570, 0.07002150267362594604}},

{{0.03429143875837326050, -0.10612856596708297729, 0.05961181223392486572},
{0.15218192338943481445, 0.06183776259422302246, -0.20095621049404144287},
{-0.10837952047586441040, -0.14926287531852722168, -0.01732107996940612793}}},

{{{-0.14401663839817047119, -0.18007667362689971924, -0.10810090601444244385},
{0.08228413760662078857, 0.15410619974136352539, 0.04212359338998794556},
{0.04637457057833671570, 0.08331935107707977295, -0.19751401245594024658}},

{{0.10239791870117187500, -0.06029622256755828857, 0.06363307684659957886},
{-0.19854938983917236328, -0.13786874711513519287, -0.17899677157402038574},
{-0.05680330842733383179, 0.11746080964803695679, -0.07095793634653091431}},

{{0.06124477460980415344, 0.04906891286373138428, -0.06888553500175476074},
{-0.07361976057291030884, 0.07496734708547592163, -0.03251612931489944458},
{0.07330936193466186523, 0.12151099741458892822, 0.10170716792345046997}},

{{0.03424477577209472656, -0.17651030421257019043, 0.10041202604770660400},
{-0.18041947484016418457, 0.14085517823696136475, 0.13510252535343170166},
{0.02943478897213935852, 0.17206151783466339111, 0.19824077188968658447}},

{{-0.04004317894577980042, 0.05643096938729286194, -0.10484386235475540161},
{0.16244335472583770752, -0.04297696799039840698, -0.12059618532657623291},
{0.13000999391078948975, 0.10585017502307891846, -0.19065685570240020752}},

{{-0.09766631573438644409, 0.07475595176219940186, 0.15908262133598327637},
{0.20215032994747161865, 0.19737717509269714355, -0.02116611227393150330},
{-0.04574249684810638428, 0.09449324756860733032, -0.01101956143975257874}},

{{-0.01323952991515398026, 0.00175577215850353241, -0.07638263702392578125},
{-0.03405764698982238770, 0.02390244789421558380, -0.08368800580501556396},
{-0.11880596727132797241, 0.17515550553798675537, -0.15164123475551605225}},

{{0.04288911446928977966, 0.01976463757455348969, 0.16416297852993011475},
{-0.03875093162059783936, 0.20120136439800262451, 0.12812584638595581055},
{0.06933311372995376587, -0.18859101831912994385, -0.13040760159492492676}}},

{{{0.07109098136425018311, -0.16862551867961883545, 0.15647909045219421387},
{-0.06931354850530624390, 0.16582855582237243652, 0.16473050415515899658},
{0.02057175152003765106, 0.05385876819491386414, 0.19654302299022674561}},

{{-0.00186804553959518671, -0.19506843388080596924, 0.09618511050939559937},
{0.07935559749603271484, 0.19116459786891937256, -0.19013081490993499756},
{0.01356651820242404938, -0.06215909123420715332, -0.13737325370311737061}},

{{0.12653383612632751465, 0.03471916168928146362, -0.11382535099983215332},
{0.00011041430843761191, -0.08140760660171508789, 0.19026745855808258057},
{-0.02239668555557727814, 0.05762989073991775513, 0.04229350388050079346}},

{{0.12358526140451431274, -0.08528705686330795288, 0.13662448525428771973},
{-0.01400272175669670105, 0.04188146442174911499, -0.20541669428348541260},
{-0.02265167981386184692, -0.01396156661212444305, -0.11972779035568237305}},

{{-0.12848478555679321289, 0.16791267693042755127, 0.13217127323150634766},
{0.09685076773166656494, 0.06409272551536560059, 0.08023060113191604614},
{-0.09021634608507156372, -0.06357844173908233643, -0.06803873926401138306}},

{{0.08167114108800888062, -0.06476439535617828369, 0.05253520607948303223},
{-0.13798610866069793701, 0.06646214425563812256, -0.16872231662273406982},
{0.05659795552492141724, 0.13608492910861968994, 0.05580447614192962646}},

{{0.06320329755544662476, -0.03756323456764221191, -0.20190849900245666504},
{-0.09961596876382827759, 0.12423061579465866089, 0.16056917607784271240},
{-0.04073278605937957764, -0.06305809319019317627, 0.14423228800296783447}},

{{-0.00605760607868432999, 0.09399082511663436890, -0.12164834141731262207},
{0.01542085781693458557, -0.03243530541658401489, 0.20279803872108459473},
{0.03047623485326766968, 0.01988914422690868378, -0.03518012911081314087}}},

{{{0.13387499749660491943, 0.10121072083711624146, -0.08542133122682571411},
{-0.02653272077441215515, 0.14147035777568817139, 0.07701472193002700806},
{0.04898923635482788086, -0.09482840448617935181, -0.04828147590160369873}},

{{-0.17045563459396362305, -0.02386809512972831726, -0.01390622276812791824},
{-0.04995163902640342712, 0.16551853716373443604, -0.15639035403728485107},
{0.05251606926321983337, 0.14616948366165161133, -0.00312037533149123192}},

{{-0.17491421103477478027, 0.19713915884494781494, 0.13636045157909393311},
{0.06433290988206863403, 0.15399858355522155762, -0.18153172731399536133},
{0.08277402073144912720, -0.15883241593837738037, 0.15990543365478515625}},

{{-0.07895877212285995483, 0.08663292974233627319, -0.10945361107587814331},
{0.19485831260681152344, 0.00037146909744478762, -0.15595379471778869629},
{0.09383162856101989746, -0.03258305788040161133, -0.08912511169910430908}},

{{0.10662779957056045532, 0.08582046627998352051, -0.16254165768623352051},
{-0.13025769591331481934, -0.06508477032184600830, 0.19638745486736297607},
{0.09240285307168960571, 0.14204959571361541748, 0.17586067318916320801}},

{{-0.10345201939344406128, -0.08324022591114044189, 0.04933870956301689148},
{-0.00973262824118137360, -0.01014954503625631332, -0.12761132419109344482},
{0.15309442579746246338, 0.03869341313838958740, -0.07924230396747589111}},

{{0.03853403776884078979, 0.09276507794857025146, -0.17325107753276824951},
{0.02995320037007331848, 0.05500243976712226868, -0.05742317065596580505},
{-0.18822954595088958740, -0.11559025943279266357, 0.09615065902471542358}},

{{-0.08235353976488113403, 0.13108468055725097656, 0.15592688322067260742},
{0.00711267627775669098, 0.04720681160688400269, -0.09778854995965957642},
{-0.00604207534343004227, 0.12467171251773834229, 0.06672848761081695557}}},

{{{0.19232460856437683105, 0.00462667550891637802, -0.08599995821714401245},
{0.03885790705680847168, -0.05633742734789848328, -0.17378331720829010010},
{0.10091426968574523926, -0.11702280491590499878, -0.09957501292228698730}},

{{-0.14225377142429351807, 0.03826670721173286438, -0.11102681607007980347},
{-0.07919763028621673584, 0.02276837453246116638, 0.05089997872710227966},
{0.15288385748863220215, 0.02579560875892639160, 0.09356734901666641235}},

{{-0.09198696166276931763, -0.12957698106765747070, 0.19644254446029663086},
{0.00994154438376426697, -0.19773727655410766602, 0.01452091243118047714},
{0.07131141424179077148, 0.04466225206851959229, 0.09562423825263977051}},

{{-0.10584865510463714600, -0.00285137235186994076, 0.04726314917206764221},
{-0.17779938876628875732, -0.15584543347358703613, 0.14480940997600555420},
{-0.13033221662044525146, -0.02546306885778903961, 0.08575851470232009888}},

{{-0.09007376432418823242, 0.00253193778917193413, 0.08283248543739318848},
{0.06650896370410919189, -0.00713689997792243958, 0.12660573422908782959},
{0.01844466850161552429, 0.00310127879492938519, 0.16252703964710235596}},

{{-0.03502728790044784546, 0.16098432242870330811, -0.15997326374053955078},
{0.00718789407983422279, 0.16116705536842346191, -0.11817512661218643188},
{-0.10472507029771804810, 0.19030715525150299072, -0.16140864789485931396}},

{{0.10632410645484924316, -0.13824799656867980957, -0.16462551057338714600},
{0.00060165801551192999, 0.06721378117799758911, 0.06051253899931907654},
{-0.14105562865734100342, -0.03823406249284744263, 0.03452600538730621338}},

{{-0.16594685614109039307, -0.04969676956534385681, 0.01758349873125553131},
{0.11665157228708267212, -0.00529743591323494911, 0.06619989126920700073},
{-0.00900436006486415863, -0.12439427524805068970, 0.16062662005424499512}}},

{{{-0.11741601675748825073, 0.02258547954261302948, -0.09871513396501541138},
{-0.19332316517829895020, -0.20233111083507537842, -0.18578006327152252197},
{0.12157399207353591919, -0.02314825169742107391, -0.02872061356902122498}},

{{0.06380634009838104248, 0.05569547787308692932, 0.14905060827732086182},
{0.13019840419292449951, 0.16349773108959197998, -0.12421438097953796387},
{-0.17200952768325805664, -0.10749068856239318848, -0.15185728669166564941}},

{{0.07590910047292709351, -0.10466121137142181396, -0.05403085425496101379},
{0.06492192298173904419, 0.18411818146705627441, 0.04215223714709281921},
{-0.02111631259322166443, -0.16205494105815887451, 0.19060924649238586426}},

{{0.03113379701972007751, -0.03392338380217552185, -0.05162075534462928772},
{0.12721186876296997070, -0.18942585587501525879, -0.07873346656560897827},
{0.04060781747102737427, 0.02896869555115699768, 0.03792011737823486328}},

{{0.05190105363726615906, 0.10052636265754699707, 0.11926864087581634521},
{0.16266389191150665283, 0.15788477659225463867, 0.00068529002601280808},
{0.04309020936489105225, 0.01740027777850627899, -0.03472888097167015076}},

{{0.05564829334616661072, 0.08656447380781173706, 0.03721412271261215210},
{-0.17669945955276489258, -0.11866312474012374878, 0.06575933098793029785},
{0.01628064922988414764, 0.14440399408340454102, 0.14812619984149932861}},

{{0.16740380227565765381, 0.19093506038188934326, -0.02976701781153678894},
{0.03030924685299396515, -0.01060439832508563995, 0.07584452629089355469},
{0.09944829344749450684, -0.14636816084384918213, 0.06989165395498275757}},

{{0.05600589886307716370, -0.05634113401174545288, 0.13185794651508331299},
{0.10206937789916992188, 0.16463853418827056885, -0.00653997901827096939},
{-0.00417965138331055641, 0.14180794358253479004, -0.19337698817253112793}}},

{{{-0.01056200638413429260, -0.15245643258094787598, -0.02895789220929145813},
{0.07603203505277633667, 0.10654874145984649658, -0.13403731584548950195},
{-0.03786158189177513123, 0.02903814800083637238, -0.03673954680562019348}},

{{0.07478169351816177368, 0.13063307106494903564, -0.11675052344799041748},
{-0.04903831332921981812, -0.18337702751159667969, -0.09134726226329803467},
{-0.06161820515990257263, -0.04545873403549194336, 0.13238891959190368652}},

{{0.07948438078165054321, -0.06219280138611793518, 0.02937680296599864960},
{0.01096116192638874054, 0.02468038350343704224, 0.08994119614362716675},
{-0.06257045269012451172, 0.10686419904232025146, 0.18466073274612426758}},

{{-0.06432776898145675659, 0.11508917808532714844, -0.16793580353260040283},
{-0.16747592389583587646, 0.03111580386757850647, 0.00933881942182779312},
{0.08629032969474792480, -0.18999738991260528564, 0.18401485681533813477}},

{{0.13714268803596496582, -0.00964220706373453140, -0.19605059921741485596},
{0.00529595604166388512, -0.02313411794602870941, 0.13286557793617248535},
{-0.01837414689362049103, -0.05894638225436210632, -0.11087938398122787476}},

{{-0.02183998562395572662, 0.03263049572706222534, 0.16014081239700317383},
{-0.05430654063820838928, 0.03409848362207412720, -0.15418934822082519531},
{-0.00290528847835958004, -0.07362288236618041992, 0.00586778204888105392}},

{{0.16345554590225219727, 0.15144352614879608154, -0.00865836907178163528},
{-0.17677865922451019287, 0.09548856317996978760, 0.16864421963691711426},
{0.00412281788885593414, -0.01871383376419544220, -0.02407834492623806000}},

{{0.06576089560985565186, -0.00893365778028964996, 0.07430649548768997192},
{-0.04622898995876312256, 0.03713607043027877808, 0.05826461315155029297},
{-0.10056819766759872437, -0.09681168198585510254, -0.18680088222026824951}}},

{{{-0.06268580257892608643, 0.10494425147771835327, -0.17337124049663543701},
{-0.08365279436111450195, 0.00447020726278424263, 0.01566256582736968994},
{-0.09346762299537658691, -0.19311720132827758789, 0.18754091858863830566}},

{{0.00813251361250877380, -0.01426170580089092255, 0.05662460625171661377},
{-0.11001089215278625488, 0.05744109302759170532, 0.15193854272365570068},
{-0.08552606403827667236, 0.09917251765727996826, 0.17980006337165832520}},

{{0.16923731565475463867, -0.03921574726700782776, 0.12114609032869338989},
{-0.01621747761964797974, 0.19969122111797332764, -0.01646082103252410889},
{0.09025581181049346924, 0.18115791678428649902, 0.16870541870594024658}},

{{0.17358872294425964355, 0.19034907221794128418, -0.09323235601186752319},
{0.10308060795068740845, -0.03088468872010707855, -0.07155086100101470947},
{0.15998579561710357666, 0.03476155549287796021, 0.06146974861621856689}},

{{-0.05560395866632461548, 0.18059960007667541504, -0.02808304689824581146},
{0.00361046730540692806, -0.19289678335189819336, -0.01478894613683223724},
{-0.09386333823204040527, -0.01630050316452980042, 0.15927359461784362793}},

{{-0.00056513067102059722, 0.13216426968574523926, -0.00217931903898715973},
{-0.06690258532762527466, 0.12711039185523986816, 0.09034720808267593384},
{-0.05493852123618125916, -0.16652362048625946045, 0.03372668847441673279}},

{{0.14935651421546936035, 0.07180716842412948608, 0.06395102292299270630},
{-0.13147687911987304688, -0.10675872862339019775, -0.05395917221903800964},
{-0.05372470989823341370, -0.06461619585752487183, -0.04603368788957595825}},

{{-0.04623780027031898499, 0.04973671957850456238, -0.13623955845832824707},
{-0.16275404393672943115, -0.02941875159740447998, 0.07828445732593536377},
{0.16020140051841735840, -0.13937033712863922119, 0.08365395665168762207}}}};

const uint16_t shape_Conv2D_2_b = 8;
const float Conv2D_2_b[8] = {-0.00087628001347184181, 0.00056459353072568774, -0.00133888737764209509, 0.00028426514472812414, 0.00383616797626018524, -0.00483407918363809586, -0.00013789377408102155, -0.00127947819419205189};
