/*
 * author : shtsno24
 * Date : 2019-10-30 10:38:44.620131
 * array_type : int16
 * fractal_width : 14 bit
 * bit_width : 16 bit
 *
 */
#pragma once
#include <stdint.h>

#define data_width_Conv2D_3 16
#define fractal_width_Conv2D_3 14

const uint16_t shape_Conv2D_3_w[] = {16, 8, 3, 3};
const int16_t Conv2D_3_w[16][8][3][3] =
{{{{-2522,  1005,  1366},
{ 1573,  2237,   700},
{ 1598,  1380, -2037}},

{{  362,  -357,   440},
{  621,  2642,   479},
{-2355, -1656,   424}},

{{-1830,  2215,  2514},
{ 2546,  1673,   999},
{ -409,   819,  1728}},

{{ 1508,   -61,  1367},
{-2330,  -509, -2146},
{ 1142, -2517,     4}},

{{ 2323,   447,  1282},
{-2105,  -926,   318},
{  292,   848, -1453}},

{{-1147,  1817, -2598},
{  940,  -833,   928},
{-1940, -2112,   828}},

{{ -968,  1531,   827},
{-2471, -1365,  2004},
{ 1275,  -712,  2602}},

{{-1197, -2340,  2546},
{ 2372, -2738, -1807},
{ 1270,  -114, -2131}}},

{{{ 2477,  -980,  1873},
{ 2669,  -908,  2040},
{-1103,  1345,   961}},

{{-2447,  1533,  -655},
{ 1757,   551,   -23},
{-1257,   -48, -1912}},

{{-2261,  1568,   600},
{  447,  -139,   -98},
{-1047,  2428,  2210}},

{{ -596, -1095,  1140},
{-2086,  2342, -2701},
{ -241, -1808,  1349}},

{{-1007, -2466, -1820},
{-2171,  -238,  -710},
{ -521,  -149, -2373}},

{{ 1473,  2281, -2267},
{-1778, -2555,  1187},
{ 2174,  2556,  2077}},

{{-1216, -1181,  2231},
{ 2505, -2220,  -723},
{-1674, -1927, -2209}},

{{-2442,    24, -2436},
{ 2148,  1228,  -103},
{ -147,  1111,  1695}}},

{{{ 1248,  -713, -2646},
{ 2623, -2440,  -611},
{ 1213,    23,  1359}},

{{ -557,  -873, -2510},
{-1201,   848, -2132},
{ 1805,  1013, -1884}},

{{ 1624,   449,  1026},
{ 1230, -1336,  1212},
{-1704,  1037,  1267}},

{{ 2658, -2195,  1601},
{ 1611, -2456,  2165},
{  389,  1577,  -498}},

{{ 2442,   -95,    73},
{-1362,   633, -1902},
{ 2720,   721,  -440}},

{{-1663, -1901,  1201},
{  862,   926, -1669},
{ 1322,  -898,  -197}},

{{  117,   928,  1439},
{  796, -2376, -2296},
{-2255, -1885,  1127}},

{{ -488, -1034,  -637},
{-2024,  1905,  2574},
{ 2376, -2538,  -618}}},

{{{ 1423,   711, -1600},
{ 2637,  2372,  1463},
{-1717, -1039,   -72}},

{{  624,  -852, -2639},
{ -410,  -139,   188},
{-2242, -1592, -2034}},

{{-1436,  -229,  -391},
{ -102, -1945,  -923},
{ -683,  1662,  2242}},

{{-2534,  1341, -2705},
{ 2411,   424, -1710},
{  289,  1334,  -867}},

{{-1991, -2339,   405},
{-2666, -2122,  1335},
{-2373,   688,   283}},

{{ 1678, -1180,   173},
{ 1011,   872,  1708},
{-1138, -1386, -2284}},

{{  258,   466,  1600},
{ 2275,   495,  -653},
{ 2703,  2547, -1599}},

{{ 1703,  2019, -1336},
{ 1780,   271,  -404},
{-1360, -2076,   964}}},

{{{-2198,   -53, -1760},
{-1708,  1135,  2306},
{-2635,  2425,   463}},

{{-2592, -1593, -1071},
{-2672,  -487, -1631},
{-1980,  1001, -1483}},

{{  596,  2690,   543},
{ 2030,   320, -1300},
{  124,  -390, -1920}},

{{  256, -2443,   167},
{-1529,   706,  -948},
{-2552,  -450,   391}},

{{ 2615,   213,    96},
{ -937,  2451,  1470},
{  558,  1762, -1371}},

{{-2566,   329,  2610},
{-1125,   606,  -466},
{ -352,   489, -1861}},

{{ 1684,  -102,   940},
{  709,  2105,   199},
{-2128,  1575,   873}},

{{  163,   307,  2563},
{ 2478,  1011,   240},
{-2335, -1427,  2151}}},

{{{ 1349,  1155,  -188},
{ -775,  2485, -1385},
{-1846, -2012,   436}},

{{  887,   107,  2108},
{-1894,   815,  2035},
{-1074, -1745,  -759}},

{{ 1897,   462, -2237},
{-2700,  -413,  1405},
{ 1231, -1872, -1756}},

{{ 2009,   590, -2528},
{ 1204,  1938,   617},
{   20,  1619, -1256}},

{{  813, -2211,   560},
{ -151,  2325,  2537},
{  298, -1330,   841}},

{{-2668,  -836,  2461},
{ 1790,  1472,    58},
{ -481,  1235,  1577}},

{{  -64,   261,  -900},
{-1819, -2054,  -675},
{-2468, -2147,   250}},

{{-2291,  1318,  -577},
{  608,  1710,  -277},
{ -835,   347, -2487}}},

{{{  118,  1864,  1962},
{ 2533,  -788,  1008},
{-1844, -2281,   240}},

{{   -1,  1563,   530},
{ -122, -2192, -2068},
{-1882, -1223, -1954}},

{{-2658, -2418,  -968},
{  291,  1667,    69},
{-1461,  1783, -2260}},

{{ 1784,  -885,  2127},
{-2228,  -561, -1073},
{-1754,  -711,  1785}},

{{-1584, -2536,  -271},
{ 2391, -2348,  -842},
{ -467, -2218,   147}},

{{ -186, -1838, -2442},
{ 2078,  1335,   571},
{   41,   858, -1110}},

{{ -722, -1722,  -698},
{ -304, -1156,   831},
{ 1919,  1682,  -364}},

{{ -486,   523,  -511},
{  386,   -72, -1308},
{ -783,  2464,   864}}},

{{{  873,  1312, -1848},
{-2334, -1698,  1574},
{-2339, -1706,   294}},

{{-2673,  -503,  -589},
{ 1027,   628,   251},
{ -117, -2398,   267}},

{{-1522,  -871, -1791},
{-2482,  -776,   389},
{-2540,  1980,  2034}},

{{-1333,  -908, -1560},
{ -733, -1188,  -800},
{ 1820,  1618, -2695}},

{{ 1832,  -643,  1426},
{-2673,  1268, -1820},
{  622,  -911,   171}},

{{ 1377, -1556,   876},
{ 1304,   151,  2004},
{ -195,  1013, -2122}},

{{-2254,  1909,  -932},
{ 1786,  1612,  1406},
{  670,   563,  1151}},

{{ -235,  2058,    80},
{-2418,   277,  -114},
{ -433,  1264,  2195}}},

{{{ 1377, -2208,  -283},
{-2170,  -826,   696},
{ 1145, -2188, -1880}},

{{  857,   -49,  -569},
{-2391,   268, -1323},
{-2710,   957,  1910}},

{{-2079, -1930,  2210},
{ 2292, -2310,   228},
{ -289,  -167, -1854}},

{{-2061,   911, -1598},
{-2643,  1807,  -383},
{-1161, -2592, -2461}},

{{ -428, -2063,  -252},
{ -743,   515, -2616},
{ 1838,   435,   889}},

{{ 1707,  2078,   903},
{ 1987,  1151, -1573},
{-2724,  2588,  1227}},

{{  602,  -192, -1088},
{-2051,  1236,   164},
{  459, -2354,   562}},

{{  371,   712, -1883},
{ 1403, -1808,  1249},
{-2614, -1495,   -72}}},

{{{-1753, -1023,  1499},
{ -772,  1072,   969},
{ 2227, -2330,   477}},

{{  477,   902,   448},
{-2020,  1962,  1529},
{ 2058,   192,  1739}},

{{  655, -2642,  1108},
{ -558,   360, -1748},
{-2352, -1854, -1771}},

{{-2163,  2345,  -923},
{-2656,  1153,  -377},
{ -428,   644,  2656}},

{{  238,  -388, -2218},
{-1187,  -648, -2366},
{ 2498, -1550,   679}},

{{  954,   822,  1635},
{-1994,   545,   632},
{-1677, -2574, -1436}},

{{  610,  -664,  -497},
{-2584, -1666,  -710},
{-1327,  -669,  -273}},

{{ 2319,   832, -2092},
{ 1217,  1130,  2678},
{ -468,  2310,  -503}}},

{{{-1049,  -706, -1745},
{ -273,  -374,   149},
{ 2162,  1134, -1484}},

{{ 1193,  2191,  -456},
{ 1335,   283,   703},
{ 1691, -2445,   179}},

{{ 1986, -1842, -1790},
{-1720,  1286,  1661},
{-1205,  -869, -2570}},

{{ -438,   658,  1552},
{-2596, -1000,  2477},
{-1511,  2657,  2194}},

{{ 1789,  1353,   688},
{-1147,  -344,  2235},
{ 1742, -2682, -2167}},

{{  626, -2297,   -63},
{-1452, -2153,  1072},
{-1565,  -364,   954}},

{{-2305,  -909,    76},
{ 2671,  -878, -2261},
{-2368,   723,  1648}},

{{-2106,    85,  1730},
{ -789, -1331, -2705},
{ 1279,   340, -1352}}},

{{{   50,  2296,  1826},
{ 1019,   954,  -241},
{-1705,  2687,  2220}},

{{-1456, -2558,  -427},
{-2679,   609,   448},
{ 2498, -2363,  2514}},

{{ -460,  2615,   231},
{  642,  2250,   695},
{  112,  -803, -1967}},

{{  729,  -827,   386},
{  818,  -979, -2209},
{ 1785,  1898, -1260}},

{{-1350,   548,  -712},
{ 2284,  1102,  2720},
{ 1942,  -503,   838}},

{{  865,  -945,  -428},
{ -754,  2357,  -399},
{  970,  1675,   985}},

{{ 1046, -2358,  -629},
{ 2707,  -711, -2665},
{  374,  2575,  2292}},

{{-2441,  2200,  1375},
{ 1514,  -390,  1223},
{ 1339,   658, -2315}}},

{{{-2650,  -572, -1196},
{-1839,  2244,    72},
{ -412,   207,  1404}},

{{-2308,   383,    61},
{ 2360, -1964, -2470},
{-1786,  2348,   155}},

{{  -73,  1956, -1060},
{-1955,   221, -1819},
{ 1230,  1778,  1946}},

{{-1698, -2568,  -834},
{-2627,  2653, -1746},
{-1887, -1935,  2243}},

{{-1038,   382,  1043},
{-1463,  1377,  -686},
{ 2106, -1015, -2121}},

{{ 2370,  1856,  2192},
{ 1633, -2253,   499},
{-1302,   695, -1341}},

{{-2258,  1680, -2460},
{  352, -1493,   288},
{-2720, -1427,  -223}},

{{-2605,  -445,  2382},
{   33, -1528,   440},
{ 2252,  -644,  1766}}},

{{{ -698,   708,  1317},
{ -782,  1651,  -105},
{ 1027,   593,   531}},

{{   14,   458,  2136},
{  710, -1929,  2405},
{ 1395, -2134, -2479}},

{{-1571,  -427,    -3},
{  619,   806, -2326},
{  900,   -27,  2294}},

{{  922,   722, -1323},
{   75, -1324,   519},
{ 2243, -2697,  -639}},

{{ -959, -1935,   720},
{-2008, -2227,  1350},
{ 2499,   990,  -863}},

{{ 2065,   444,  2726},
{ -914,  1212, -1996},
{-1684,   738, -2543}},

{{  729, -2388,  2280},
{ 1730,  1463,  1615},
{ -861,    88,  1174}},

{{ 2049,   426,  -325},
{ 1169,  2715,  -427},
{-2079,   386,   -71}}},

{{{-2659, -1504, -2446},
{-2499, -2154, -2085},
{ 1478,   645, -1186}},

{{ 1813,  1184,  2062},
{-2276,  1140,   162},
{ -294, -1785, -1176}},

{{ 1615,   980,   474},
{  618, -1171,   715},
{-1307,   368, -2179}},

{{-2094,  -366,  2637},
{ 2444,  1445,  2393},
{ 2503,  2055,   132}},

{{  108,   -74,   171},
{ 1606, -1342, -2502},
{ 1419,  -133,  2339}},

{{ -968,   878,   645},
{  269,  2026,  1562},
{  450,  2059,  1669}},

{{-1536,  -462,  1035},
{ 1040,  2374,   312},
{  493,  -722,  -140}},

{{  484, -1437,  2517},
{  850,    -6, -2235},
{  951, -1514,  2402}}},

{{{ 2557,  2582,   769},
{ 1693, -1007, -2231},
{ -243, -1369, -1794}},

{{ 2136,  2197, -1155},
{ 1248,  -301,  2085},
{ -617, -1436,  2545}},

{{ 2105, -1943,  -221},
{  733, -1737,   678},
{  784,   126, -2038}},

{{ -101,   679,  1031},
{  -34,   -98,  -824},
{ 2086,  1204, -2262}},

{{ 2211, -2725,  1758},
{  739,   167,   731},
{ -613,   902,   -31}},

{{-1043,  1011, -2047},
{ -477,  2592,  2711},
{ 2444,  1807,  2124}},

{{-1497,  -156,  -329},
{-2097, -2034,  -191},
{ 1867,  -579,  1966}},

{{  895,  -425,  2223},
{  -41, -1313,  -441},
{ -246,  2685,  1009}}}};

const uint16_t shape_Conv2D_3_b = 16;
const int16_t Conv2D_3_b[16] = {  -57,   -43,   110,   -86,    -8,   -47,   -34,   -12,    65,   -20,   -58,    52,    20,   -10,   -46,   -44};
