/*
 * author : shtsno24
 * Date : 2019-10-18 23:26:07.330110
 *
 */
#pragma once
#include <stdint.h>

const uint16_t shape_Conv2D_0_w[] = {16, 1, 3, 3};
const float Conv2D_0_w[16][1][3][3] =
{{{{0.02768728882074356079, 0.12689037621021270752, 0.20159871876239776611},
{0.03210598230361938477, 0.23519918322563171387, -0.13985019922256469727},
{0.12272038310766220093, 0.13260053098201751709, -0.00931544508785009384}}},

{{{-0.19994267821311950684, 0.10016361624002456665, 0.01226388104259967804},
{-0.04886769503355026245, 0.08848366141319274902, 0.14720483124256134033},
{0.09123495966196060181, -0.13293507695198059082, -0.10960159450769424438}}},

{{{-0.04540273174643516541, -0.00652343686670064926, 0.00458520138636231422},
{0.16234868764877319336, -0.14955018460750579834, -0.09569843113422393799},
{0.14786140620708465576, 0.03312224149703979492, 0.16111749410629272461}}},

{{{0.23960228264331817627, 0.19455218315124511719, 0.21778891980648040771},
{0.10319282114505767822, 0.10300323367118835449, -0.15287907421588897705},
{-0.12400437891483306885, -0.15011279284954071045, 0.12355967611074447632}}},

{{{0.07187861949205398560, 0.16884459555149078369, 0.09727762639522552490},
{-0.15836548805236816406, 0.11857144534587860107, 0.11550618708133697510},
{-0.06436584889888763428, -0.09969048947095870972, 0.19016239047050476074}}},

{{{-0.01692637428641319275, -0.14210610091686248779, -0.11560183018445968628},
{0.03385602682828903198, -0.00127466255798935890, 0.09796438366174697876},
{0.20205636322498321533, 0.19974327087402343750, -0.11674609035253524780}}},

{{{0.04549176618456840515, 0.03702487051486968994, -0.15486854314804077148},
{-0.09347240626811981201, -0.12803468108177185059, 0.04233915731310844421},
{0.05147452279925346375, -0.12197194993495941162, -0.15832254290580749512}}},

{{{-0.01871861144900321960, 0.15349483489990234375, 0.12056082487106323242},
{-0.13710251450538635254, 0.26059392094612121582, 0.10360463708639144897},
{0.22838342189788818359, -0.08091530203819274902, 0.19864064455032348633}}},

{{{0.09847515821456909180, 0.09638346731662750244, -0.01668012142181396484},
{-0.17723077535629272461, 0.19094641506671905518, 0.02260924316942691803},
{-0.16873811185359954834, 0.19711223244667053223, 0.22858399152755737305}}},

{{{-0.11764721572399139404, 0.14296393096446990967, 0.03446336835622787476},
{-0.13205750286579132080, -0.09119597822427749634, -0.06854455918073654175},
{0.02597470022737979889, 0.03291556984186172485, 0.02846787683665752411}}},

{{{0.19358773529529571533, -0.18363238871097564697, 0.16281656920909881592},
{0.00198200880549848080, 0.17253148555755615234, -0.13647042214870452881},
{0.14029467105865478516, 0.11641886830329895020, 0.13879933953285217285}}},

{{{0.24212135374546051025, -0.09558382630348205566, -0.04106124117970466614},
{0.11953428387641906738, 0.24517035484313964844, 0.11989456415176391602},
{0.05372956767678260803, -0.12826327979564666748, -0.07969101518392562866}}},

{{{-0.19152663648128509521, -0.15424871444702148438, -0.10522540658712387085},
{-0.14406859874725341797, 0.00503253517672419548, 0.07245663553476333618},
{0.08165386319160461426, 0.09462812542915344238, 0.00174945825710892677}}},

{{{-0.01386746577918529510, 0.04626832529902458191, -0.00435126386582851410},
{0.04802860692143440247, -0.18195562064647674561, 0.00022106521646492183},
{-0.17367203533649444580, -0.14441290497779846191, -0.17017453908920288086}}},

{{{0.10147697478532791138, 0.06631694734096527100, 0.07244499772787094116},
{-0.00525159388780593872, -0.03932251408696174622, -0.14818051457405090332},
{0.16191186010837554932, 0.01986558921635150909, 0.14962370693683624268}}},

{{{-0.06472586840391159058, 0.07180858403444290161, -0.16954135894775390625},
{-0.06914266198873519897, -0.10977122187614440918, 0.04293198883533477783},
{-0.13130830228328704834, -0.14198507368564605713, 0.12990820407867431641}}}};

const uint16_t shape_Conv2D_0_b = 16;
const float Conv2D_0_b[16] = {0.02134783938527107239, 0.02481655403971672058, -0.00806357897818088531, 0.00073057605186477304, 0.00760917877778410912, 0.01182678807526826859, -0.02608109079301357269, 0.00990883726626634598, 0.00000004619651861049, -0.00734412763267755508, 0.00907014962285757065, 0.00000129064403608936, -0.00391675066202878952, -0.00000035646314699989, 0.00100577203556895256, -0.03525824844837188721};
